tree
version=v4
num_class=1
num_tree_per_iteration=1
label_index=0
max_feature_idx=4
objective=regression
feature_names=Column_0 Column_1 Column_2 Column_3 Column_4
feature_infos=[0.085171118378639221:2.4682810306549072] [1.4665205478668213:3.0106360912322998] [0.00089691393077373505:1.9506280422210693] [0.0090244840830564499:1.957196831703186] [-0.024012940004467964:1.9590691328048706]
tree_sizes=2660 2744 2727 2744 2745 2749 2746 2749 2751 2755 2749 2743 2749 2761 2746 2758 2754 2748 2740 2770 2771 2764 2769 2776 2761 2749 2780 2773 2759 2773 2741 2765 2769 2792 2767 2763 2786 2773 2770 2774 2780 2798 2805 2785 2784 2787 2777 2804 2801 2789 2772 2769 2787 2781 2766 2789 2806 2793 2792 2770 2777 2776 2776 2786 2795 2767 2811 2802 2781 2783 2815 2787 2789 2769 2799 2797 2758 2759 2783 2815 2827 2813 2830 2832 2763 2799 2832 2820 2780 2793 2818 2766 2771 2783 2773 2768 2784 2743 2766 2784

Tree=0
num_leaves=31
num_cat=0
split_feature=3 4 3 4 3 3 2 1 3 1 0 4 4 4 2 1 3 1 2 4 3 4 2 1 2 2 0 1 4 2
split_gain=363549 56369 35909.8 8864.42 8272.2 5332.73 3586.02 1975.52 1224.37 996.884 995.522 959.365 872.428 681.635 653.461 619.869 521.745 497.808 486.865 486.534 512.159 431.254 424.603 350.967 312.593 279.192 258.972 205.35 189.898 177.274
threshold=1.0210100412368777 0.7643638849258424 1.5754263997077944 0.99237149953842174 1.323701858520508 0.70631957054138195 1.7293327450752261 2.4413841962814335 1.1454176306724551 2.4633085727691655 0.87830218672752391 0.63253971934318554 0.89498594403266918 0.27123677730560308 1.4413774013519289 2.3497147560119633 1.4938769340515139 2.4447177648544316 1.8134735822677615 1.051428020000458 0.20842164009809497 1.0091017484664919 1.6491895318031313 2.4458349943161015 1.8134735822677615 0.76102918386459362 1.4782960414886477 2.3262777328491215 0.49423193931579595 0.50349342823028576
decision_type=2 2 2 2 2 2 2 2 2 2 2 2 2 2 2 2 2 2 2 2 2 2 2 2 2 2 2 2 2 2
left_child=1 5 4 12 8 11 15 16 23 19 24 -1 25 -7 -9 22 -6 -10 -12 20 -5 -17 -4 -2 -8 -3 -18 -22 -15 -14
right_child=2 3 6 9 7 13 10 14 17 -11 18 -13 29 28 -16 21 26 -19 -20 -21 27 -23 -24 -25 -26 -27 -28 -29 -30 -31
leaf_value=12.499827552174761 12.677112811045205 12.309909412808828 13.04234994664403 12.202467843618832 12.890497222512698 12.666660357598625 13.200110600056529 13.002765834260623 12.785655552228807 12.242285012220476 13.346560841863452 12.402127115364097 12.228875526251917 12.598112081359258 13.112979430183428 13.187804990793518 12.948335229027499 12.888495643012273 13.471828338542933 12.059709247583239 12.193947145626556 13.353568447789096 13.167446758608378 12.769424040791176 13.311189993318477 12.494783059311914 13.050234030414611 12.072285082631579 12.535664083930536 12.359961488120366
leaf_weight=536 168 744 126 146 327 389 100 240 192 109 179 473 580 542 306 238 178 304 137 750 40 47 147 266 173 21 96 262 157 27
leaf_count=536 168 744 126 146 327 389 100 240 192 109 179 473 580 542 306 238 178 304 137 750 40 47 147 266 173 21 96 262 157 27
internal_value=12.6196 12.3427 13.0298 12.1907 12.9058 12.5368 13.2544 12.9957 12.795 12.0975 13.3404 12.454 12.2795 12.6136 13.0645 13.1636 12.9331 12.8487 13.4009 12.0843 12.1256 13.2151 13.1097 12.7337 13.2705 12.315 12.984 12.0884 12.5841 12.2347
internal_weight=0 4776 3224 2679 2077 2097 1147 1147 930 1307 589 1009 1372 1088 546 558 601 496 316 1198 448 285 273 434 273 765 274 302 699 607
internal_count=8000 4776 3224 2679 2077 2097 1147 1147 930 1307 589 1009 1372 1088 546 558 601 496 316 1198 448 285 273 434 273 765 274 302 699 607
is_linear=0
shrinkage=1


Tree=1
num_leaves=31
num_cat=0
split_feature=3 4 3 3 4 3 2 1 3 1 0 4 4 4 3 2 0 1 4 3 2 1 4 2 2 3 1 1 2 2
split_gain=328103 50873.1 32439.8 8258.38 8000.15 4816.29 2433.06 1773.91 1298.33 903.155 898.458 787.367 739.016 712.231 563.22 518.434 502.07 475.105 454.664 509.942 439.396 376.205 349.527 282.114 251.97 234.433 227.318 189.456 176.003 291.822
threshold=1.0210100412368777 0.7643638849258424 1.5934872627258303 1.3418022990226748 0.99237149953842174 0.68894395232200634 1.7293327450752261 2.4413841962814335 1.1647261381149294 2.4678305387496953 0.87830218672752391 0.89498594403266918 0.63253971934318554 0.31289997696876531 1.5002940297126772 1.4413774013519289 1.3163928985595705 2.4373216629028325 1.051428020000458 0.20842164009809497 1.8134735822677615 2.4458349943161015 1.0209723114967348 1.8134735822677615 0.76102918386459362 1.6846412420272829 2.3408758640289311 2.3308331966400151 0.21648605912923816 0.48634517192840582
decision_type=2 2 2 2 2 2 2 2 2 2 2 2 2 2 2 2 2 2 2 2 2 2 2 2 2 2 2 2 2 2
left_child=1 5 3 8 11 12 16 14 21 18 23 24 -1 -7 -5 -9 25 -10 19 -6 -12 -2 -18 -8 -3 -4 -16 -21 -13 -30
right_child=2 4 6 7 9 13 10 15 17 -11 20 28 -14 -15 26 -17 22 -19 -20 27 -22 -23 -24 -25 -26 -27 -28 -29 29 -31
leaf_value=-0.11837781559292587 0.060672891591157331 -0.29420780840035804 0.42917140766176659 0.26420209229267255 -0.393856171451339 0.033714637385716867 0.55148365857573722 0.37207207681688598 0.16610306923276388 -0.34752160496145107 0.69061130034358875 -0.34498434674101636 -0.20667556457357003 -0.045414447118253681 0.31715259656033234 0.47295843940816856 0.54790389808153372 0.26752141903295462 -0.53153569434829329 -0.41088693282495137 0.80961551705659451 0.1501596794340696 0.68988096770155494 0.6570090011427423 -0.11857812408662785 0.53811911952014291 0.40119765431831711 -0.52200150578140425 -0.42264123572886531 -0.25268594197851063
leaf_weight=479 191 744 122 313 153 517 100 204 183 95 179 382 469 632 164 339 205 313 753 45 137 305 55 173 21 83 158 261 196 29
leaf_count=479 191 744 122 313 153 517 100 204 183 95 179 382 469 632 164 339 205 313 753 45 137 305 55 173 21 83 158 261 196 29
internal_value=0 -0.263085 0.389731 0.279195 -0.407461 -0.0786388 0.617304 0.368705 0.172902 -0.495987 0.684804 -0.323128 -0.162061 -0.0098098 0.311966 0.435057 0.531803 0.230103 -0.507624 -0.468395 0.742207 0.1157 0.57794 0.618357 -0.289387 0.473284 0.358393 -0.505663 -0.365651 -0.400737
internal_weight=0 4776 3224 2170 2679 2097 1054 1178 992 1307 589 1372 948 1149 635 543 465 496 1212 459 316 496 260 273 765 205 322 306 607 225
internal_count=8000 4776 3224 2170 2679 2097 1054 1178 992 1307 589 1372 948 1149 635 543 465 496 1212 459 316 496 260 273 765 205 322 306 607 225
is_linear=0
shrinkage=0.05


Tree=2
num_leaves=31
num_cat=0
split_feature=3 4 3 4 3 3 4 1 2 1 0 3 4 1 2 3 1 3 4 3 2 0 4 0 3 0 3 2 2 4
split_gain=296165 44042.2 30912 7186.45 5303.71 5152.85 4125.01 1230.56 885.22 815.096 799.622 739.905 702.98 699.594 664.186 611.508 496.36 451.568 410.333 460.223 386.215 284.666 261.157 256.897 254.878 244.205 236.34 188.023 175.969 155.84
threshold=1.0029067397117617 0.7643638849258424 1.5252295732498171 0.99237149953842174 1.6687442660331728 1.242451071739197 0.50974884629249584 2.4447177648544316 1.7798004150390627 2.4678305387496953 0.87830218672752391 0.79946440458297741 0.88425117731094371 2.3425853252410893 1.3697831630706789 1.1116735935211184 2.3217984437942509 0.54708078503608715 1.051428020000458 0.20842164009809497 1.382747530937195 1.9545534253120425 1.0602317452430727 1.9727742671966555 1.5934872627258303 1.5944035649299624 1.5934872627258303 0.6877240538597108 0.40703058242797857 0.61510062217712413
decision_type=2 2 2 2 2 2 2 2 2 2 2 2 2 2 2 2 2 2 2 2 2 2 2 2 2 2 2 2 2 2
left_child=1 6 5 12 13 15 11 20 16 18 -10 -1 27 26 -9 21 -6 -8 19 -5 -7 -2 -18 -17 25 -15 -4 -3 -21 -27
right_child=2 3 4 9 8 7 17 14 10 -11 -12 -13 -14 24 -16 23 22 -19 -20 28 -22 -23 -24 -25 -26 29 -28 -29 -30 -31
leaf_value=-0.062046118537259221 0.026063038380283794 -0.27709510680119265 0.3181234693209205 -0.37416349804408178 0.51412435421578173 0.18578878647135333 -0.1894054820105994 0.29805107017715993 0.60642254328781775 -0.33014572261126435 0.7421974600740715 0.018994794887482392 -0.34348168929009198 0.38907528765054256 0.41001339486657246 0.13105306818609971 0.56234278848865527 -0.11705406184147885 -0.50495894504533101 -0.4906732174951664 0.2761844147766776 0.11595853433665147 0.69808557650026337 0.21439263651920207 0.52250059660324111 0.43958358805580966 0.41677515911110918 -0.1424899059668068 -0.34066303123389474 0.53893458690276075
leaf_weight=497 130 665 124 153 198 180 523 269 221 95 213 650 678 119 261 172 65 367 753 285 344 273 78 200 160 89 119 27 21 71
leaf_count=497 130 665 124 153 198 180 523 269 221 95 213 650 678 119 261 172 65 367 753 285 344 273 78 200 160 89 119 27 21 71
internal_value=0 -0.253998 0.364379 -0.387314 0.5362 0.227504 -0.0787965 0.299468 0.62569 -0.471188 0.67306 -0.0161206 -0.307297 0.434506 0.353188 0.129632 0.565398 -0.159571 -0.482243 -0.444975 0.245133 0.0869601 0.636389 0.17586 0.472184 0.443327 0.366436 -0.271843 -0.48038 0.483674
internal_weight=0 4714 3286 2677 1457 1829 2037 1054 775 1307 434 1147 1370 682 530 775 341 890 1212 459 524 403 143 372 439 279 243 692 306 160
internal_count=8000 4714 3286 2677 1457 1829 2037 1054 775 1307 434 1147 1370 682 530 775 341 890 1212 459 524 403 143 372 439 279 243 692 306 160
is_linear=0
shrinkage=0.05


Tree=3
num_leaves=31
num_cat=0
split_feature=3 4 3 4 3 3 4 1 1 2 0 3 1 2 3 1 4 4 3 3 3 0 4 2 0 3 0 3 1 1
split_gain=267289 39748.1 27898.1 6496.25 4786.59 4650.45 3722.82 1114.38 851.677 802.155 700.257 679.319 631.385 625.233 555.693 514.628 477.238 475.066 464.884 410.478 357.678 274.576 261.421 235.025 220.763 213.297 211.785 202.825 201.803 182.818
threshold=1.0029067397117617 0.7643638849258424 1.5252295732498171 0.97687047719955455 1.6687442660331728 1.242451071739197 0.50974884629249584 2.4519722461700444 2.4633085727691655 1.7888835072517397 0.87830218672752391 0.86771494150161754 2.3425853252410893 1.3697831630706789 1.1220989227294924 2.2622158527374272 1.051428020000458 0.86390933394432079 0.22620926797389987 0.52813863754272472 1.3925178050994875 1.9782046079635622 1.1097686886787417 1.6111984848976137 1.5944035649299624 1.5934872627258303 1.9727742671966555 0.58371344208717357 2.3308331966400151 2.3776552677154545
decision_type=2 2 2 2 2 2 2 2 2 2 2 2 2 2 2 2 2 2 2 2 2 2 2 2 2 2 2 2 2 2
left_child=1 6 5 17 12 14 11 20 16 15 -11 -1 25 -9 21 -6 18 -3 -5 -8 -7 -2 29 24 -14 -4 -16 -19 -20 -17
right_child=2 3 4 8 9 7 19 13 -10 10 -12 -13 23 -15 26 22 -18 27 28 -21 -22 -23 -24 -25 -26 -27 -28 -29 -30 -31
leaf_value=-0.045168888797131823 0.036772009676802851 -0.25212538076472157 0.30221740874227715 -0.35619718707375392 0.47871203687847191 0.17830212992160807 -0.18340347414282043 0.28409745503642075 -0.3205941186257098 0.58008761262462938 0.71203877504985902 0.034280981676625383 0.38140713092023038 0.39499433571117465 0.12850644693894564 0.40270656660893805 -0.48007331944356157 -0.31927882010022429 -0.36628605922749541 -0.11534561184244399 0.263846205455598 0.11799962727440394 0.64694361329465044 0.50963157014655003 0.46442845591885074 0.39593657489912881 0.20752907650713623 -0.18638544514005906 -0.47115983439044573 0.57244770849773141
leaf_weight=716 173 570 124 193 174 185 474 263 131 210 193 431 147 246 158 21 750 671 55 416 360 261 112 116 176 119 183 30 277 65
leaf_count=716 173 570 124 193 174 185 474 263 131 210 193 431 147 246 158 21 750 671 55 416 360 261 112 116 176 119 183 30 277 65
internal_value=0 -0.241298 0.34616 -0.367948 0.50939 0.216129 -0.0748567 0.284495 -0.442004 0.594405 0.643282 -0.0153146 0.412781 0.337695 0.123151 0.541455 -0.454478 -0.286026 -0.417912 -0.151592 0.234809 0.085621 0.596589 0.448575 0.426646 0.348114 0.170915 -0.313592 -0.453787 0.531004
internal_weight=0 4714 3286 2677 1457 1829 2037 1054 1406 775 403 1147 682 509 775 372 1275 1271 525 890 545 434 198 439 323 243 341 701 332 86
internal_count=8000 4714 3286 2677 1457 1829 2037 1054 1406 775 403 1147 682 509 775 372 1275 1271 525 890 545 434 198 439 323 243 341 701 332 86
is_linear=0
shrinkage=0.05


Tree=4
num_leaves=31
num_cat=0
split_feature=3 4 3 4 3 3 2 1 4 0 1 3 4 4 0 2 3 2 4 3 2 1 2 0 2 2 0 2 2 4
split_gain=241297 38930 22769.1 5770.01 4910.19 4055.45 2383.74 1341.61 691.267 672.76 668.139 663.893 569.354 532.698 450.68 435.355 356.862 337.649 331.735 376.859 328.301 296.527 278.316 263.436 227 213.017 195.343 188.97 243.006 173.483
threshold=1.0371772050857546 0.76778921484947216 1.5754263997077944 0.99237149953842174 1.323701858520508 0.70631957054138195 1.7293327450752261 2.4413841962814335 0.63253971934318554 0.87830218672752391 2.4678305387496953 1.1647261381149294 0.90585473179817211 0.27123677730560308 1.3301202058792116 1.4235827326774599 1.4839689135551455 1.8134735822677615 1.051428020000458 0.20842164009809497 1.6403768658638003 2.4447177648544316 1.6491895318031313 1.9379661679267886 1.8134735822677615 0.76102918386459362 1.4782960414886477 0.20891805738210681 0.48634517192840582 1.0091017484664919
decision_type=2 2 2 2 2 2 2 2 2 2 2 2 2 2 2 2 2 2 2 2 2 2 2 2 2 2 2 2 2 2
left_child=1 5 4 12 11 8 14 16 -1 24 18 23 25 -7 22 -9 -6 -11 19 -5 -16 -13 -4 -2 -8 -3 -18 -14 -29 -22
right_child=2 3 6 10 7 13 9 15 -10 17 -12 21 27 -15 20 -17 26 -19 -20 -21 29 -23 -24 -25 -26 -27 -28 28 -30 -31
leaf_value=-0.098126941220833375 0.048235302137992882 -0.25593476440857793 0.33288588264564867 -0.33772713728156312 0.21528890614044124 0.043238993059854014 0.4701778543738 0.30659134236143476 -0.18016144991902625 0.59210494674364744 -0.29760908111030343 0.14068748258123603 -0.29576252511813916 -0.027093920328479168 0.44133560587174564 0.39836842383779691 0.26098870457352147 0.69642378481101586 -0.45573916685102778 -0.43384304013938019 0.50204580893294637 0.22544745609880223 0.43972627240306439 0.13172572216297743 0.56483357202977735 -0.094601414321825672 0.34290359405760812 -0.37935840257652409 -0.21226077665114831 0.62480322618129103
leaf_weight=536 139 798 108 153 293 430 100 210 493 179 95 169 340 720 185 336 190 137 753 306 80 265 140 295 173 21 118 168 25 45
leaf_count=536 139 798 108 153 293 430 100 210 493 179 95 169 340 720 185 336 190 137 753 306 80 265 140 295 173 21 118 168 25 45
internal_value=0 -0.221998 0.339667 -0.350393 0.238437 -0.0653193 0.517502 0.306336 -0.13743 0.587661 -0.425305 0.148714 -0.277974 -0.000795512 0.443445 0.36307 0.254793 0.637334 -0.435314 -0.401805 0.483639 0.192442 0.393201 0.104986 0.530163 -0.251798 0.292373 -0.318196 -0.357715 0.546243
internal_weight=0 4838 3162 2659 2015 2179 1147 1147 1029 589 1307 868 1352 1150 558 546 601 316 1212 459 310 434 248 434 273 819 308 533 193 125
internal_count=8000 4838 3162 2659 2015 2179 1147 1147 1029 589 1307 868 1352 1150 558 546 601 316 1212 459 310 434 248 434 273 819 308 533 193 125
is_linear=0
shrinkage=0.05


Tree=5
num_leaves=31
num_cat=0
split_feature=3 4 3 4 3 4 2 1 1 3 0 3 3 0 2 3 4 4 3 1 2 3 1 1 2 2 1 4 1 1
split_gain=217806 32354.3 22795.7 5306.57 4633.77 3096.91 2980.49 1034.48 696.758 670.938 607.166 547.391 514.553 476.216 409.241 404.625 401.429 384.784 380.836 311.047 304.729 285.738 265.254 241.163 205.144 184.093 175.872 169.074 162.541 160.626
threshold=1.0029067397117617 0.7643638849258424 1.5493003129959109 0.97687047719955455 1.2940962910652163 0.4682361781597138 1.7293327450752261 2.4447177648544316 2.4633085727691655 1.1341929435729983 0.87830218672752391 1.6326438784599306 0.55476120114326488 1.4782960414886477 1.3697831630706789 0.86771494150161754 0.84354591369628917 1.051428020000458 0.21900925785303119 2.2622158527374272 1.8134735822677615 1.4178512692451479 2.4915945529937749 2.4458349943161015 1.8541672229766848 0.567997306585312 2.3394372463226323 1.0018802881240847 2.3360370397567753 2.4647046327590947
decision_type=2 2 2 2 2 2 2 2 2 2 2 2 2 2 2 2 2 2 2 2 2 2 2 2 2 2 2 2 2 2
left_child=1 5 4 16 9 15 11 21 17 23 24 13 -7 -4 -9 -1 -3 18 -5 -13 -12 -6 -11 -2 -8 29 -20 -21 -23 -18
right_child=2 3 6 8 7 12 10 14 -10 22 20 19 -14 -15 -16 -17 25 -19 26 27 -22 28 -24 -25 -26 -27 -28 -29 -30 -31
leaf_value=-0.031908466927967463 0.035819484187411973 -0.22015275123542219 0.31753455259124908 -0.32068130738534589 0.17596911705676199 -0.16131545381760881 0.47425273349560887 0.26834382788879363 -0.28920346124074969 0.12853586211361628 0.562499866678141 0.38145025566634255 -0.090696621799791377 0.42656846609445848 0.35971025034576343 0.032529919660435107 -0.29787829585571968 -0.43328275891316448 -0.33334571410278335 0.44930738010622168 0.66160281494006079 0.21417408118217379 0.20674555840794781 0.10938735684228579 0.56758169515140033 -0.16989178462420404 -0.42661679342669895 0.53860874744094811 0.28034853426365974 -0.24698341574352273
leaf_weight=582 185 451 217 189 179 551 187 195 131 223 179 96 485 186 330 419 570 750 62 117 137 160 211 280 86 37 274 97 221 213
leaf_count=582 185 451 217 189 179 551 187 195 131 223 179 96 485 186 330 419 570 750 62 117 137 160 211 280 86 37 274 97 221 213
internal_value=0 -0.217821 0.312479 -0.332085 0.205795 -0.0676552 0.475045 0.275351 -0.399017 0.121849 0.558279 0.406286 -0.128256 0.367859 0.325775 -0.00493575 -0.258044 -0.4103 -0.377466 0.456239 0.605467 0.228078 0.16656 0.0801186 0.503655 -0.278884 -0.409407 0.489787 0.252559 -0.284034
internal_weight=0 4714 3286 2677 1984 2037 1302 1085 1406 899 589 713 1036 403 525 1001 1271 1275 525 310 316 560 434 465 273 820 336 214 381 783
internal_count=8000 4714 3286 2677 1984 2037 1302 1085 1406 899 589 713 1036 403 525 1001 1271 1275 525 310 316 560 434 465 273 820 336 214 381 783
is_linear=0
shrinkage=0.05


Tree=6
num_leaves=31
num_cat=0
split_feature=3 4 3 4 3 3 2 1 3 1 0 4 4 2 1 4 4 3 4 1 2 3 0 2 2 1 0 3 4 0
split_gain=196605 31710 18588.6 5451.83 4454.46 2699.75 1493.95 1105.48 639.331 631.196 553.422 510.573 488.57 452.663 372.789 430.194 356.677 380.662 314.178 298.055 295.307 261.431 220.963 175.573 170.849 166.383 147.82 146.689 144.083 237.247
threshold=1.0371772050857546 0.74329504370689403 1.5934872627258303 0.97687047719955455 1.3418022990226748 0.74542200565338146 1.7798004150390627 2.4023693799972539 1.1647261381149294 2.4678305387496953 0.70029011368751537 0.84354591369628917 0.59291777014732372 1.4495151638984682 2.3497147560119633 1.0091017484664919 1.051428020000458 0.22620926797389987 0.2259732782840729 2.4373216629028325 1.6864903569221499 1.4839689135551455 1.9318497180938723 0.7801254689693452 0.567997306585312 2.3308331966400151 1.0908060073852541 0.36438579857349401 0.62656244635581981 1.7559179067611697
decision_type=2 2 2 2 2 2 2 2 2 2 2 2 2 2 2 2 2 2 2 2 2 2 2 2 2 2 2 2 2 2
left_child=1 5 4 11 8 12 14 21 22 16 -8 23 -1 -9 20 -16 17 -5 -7 -10 -4 -6 -2 -3 27 -19 -22 -13 29 -15
right_child=2 3 6 9 7 18 10 13 19 -11 -12 24 -14 28 15 -17 -18 25 -20 -21 26 -23 -24 -25 -26 -27 -28 -29 -30 -31
leaf_value=-0.076623854419293924 0.040199419628268861 -0.20856838629734373 0.34020616857682168 -0.30354424761675847 0.18433227983614575 0.05149362332284995 0.46822234817480057 0.27704058014083133 0.12716342713281698 -0.26734308966646858 0.58857439498383779 -0.2596008805390404 -0.14625158043871342 0.27661536686532423 0.43033350795404957 0.56712757017113768 -0.41131683012156028 -0.31099370186056796 -0.010217688750402264 0.2074919214384274 0.40196761890904131 0.25830971222030036 0.11808710291236864 -0.057765675214050849 -0.16126299564130891 -0.40610591666836698 0.4914580263743405 -0.3156195586304944 0.4001393235612154 0.37506728787184379
leaf_weight=560 130 553 147 201 198 287 142 272 183 116 292 640 458 98 187 83 753 55 733 313 132 301 304 20 38 281 71 143 146 163
leaf_count=560 130 553 147 201 198 287 142 272 183 116 292 640 458 98 187 83 753 55 733 313 132 301 304 20 38 281 71 143 146 163
internal_value=0 -0.200387 0.306601 -0.309596 0.220878 -0.0503452 0.478047 0.285459 0.139076 -0.379067 0.549198 -0.239527 -0.10795 0.326982 0.428241 0.472387 -0.389113 -0.357977 0.00714621 0.177855 0.394184 0.228956 0.0947568 -0.203305 -0.264807 -0.390538 0.433269 -0.269832 0.360357 0.338102
internal_weight=0 4838 3162 2800 2108 2038 1054 1178 930 1406 434 1394 1018 679 620 270 1290 537 1020 496 350 499 434 573 821 336 203 783 407 261
internal_count=8000 4838 3162 2800 2108 2038 1054 1178 930 1406 434 1394 1018 679 620 270 1290 537 1020 496 350 499 434 573 821 336 203 783 407 261
is_linear=0
shrinkage=0.05


Tree=7
num_leaves=31
num_cat=0
split_feature=3 4 3 3 4 2 4 1 2 1 0 2 1 1 3 3 4 4 2 4 3 2 4 0 1 1 2 1 0 4
split_gain=177510 23057.3 21556.8 4221.67 3595.85 3160.18 2688.58 815.435 662.84 500.818 499.974 495.71 475.26 419.312 401.389 392.201 354.517 349.192 309.139 227.882 377.275 210.668 198.038 197.501 182.503 154.212 128.164 118.469 116.261 190.989
threshold=0.96110093593597423 0.79806914925575267 1.5252295732498171 1.2079635858535769 0.99544239044189464 1.6491895318031313 0.54767242074012767 2.4519722461700444 1.7798004150390627 2.3831974267959599 0.87830218672752391 1.3697831630706789 2.4691324234008794 2.3217984437942509 0.78349751234054577 1.0761122703552248 0.94363224506378185 0.70388266444206249 1.382747530937195 1.081000864505768 0.20842164009809497 0.18870756030082705 1.0091017484664919 2.0042328834533696 2.4201178550720219 2.3262777328491215 0.62739586830139171 2.3408758640289311 0.61671623587608349 1.5604956746101382
decision_type=2 2 2 2 2 2 2 2 2 2 2 2 2 2 2 2 2 2 2 2 2 2 2 2 2 2 2 2 2 2
left_child=1 6 3 15 16 9 14 18 13 -4 28 -9 19 -7 -1 23 26 -8 -5 20 -6 -18 -15 -2 -17 -22 -3 -20 -10 -30
right_child=2 4 5 7 12 8 17 11 10 -11 -12 -13 -14 22 -16 24 21 -19 27 -21 25 -23 -24 -25 -26 -27 -28 -29 29 -31
leaf_value=-0.058197921207127357 0.0095136096669424554 -0.2332791096748677 0.28023892681038792 0.13927474519467054 -0.30251033475793909 0.3884429034485779 -0.11328375738319033 0.2275080567139332 0.43514871062671212 0.37057152122023962 0.57640703180438579 0.32229689697796332 -0.25306395969944873 0.42735358358824738 0.0024735014858300181 0.063953282390493513 -0.25735134849161578 -0.17472489231269292 0.17922760118830841 -0.39812625923678457 -0.28989170996759767 -0.33695899387035538 0.53613176252422123 0.075748945441039772 0.13771477261415974 -0.39191240651280901 -0.13694255670349895 0.2376426803664837 0.44172121797835406 0.57798577619527325
leaf_weight=533 191 845 279 228 229 230 478 314 118 341 213 246 87 71 558 119 209 448 147 541 41 138 102 274 284 385 36 212 53 50
leaf_count=533 191 845 279 228 229 230 478 314 118 341 213 246 87 71 558 119 209 448 147 541 41 138 102 274 284 385 36 212 53 50
internal_value=0 -0.20624 0.268968 0.163027 -0.307363 0.415482 -0.08035 0.225985 0.478859 0.329922 0.521738 0.269148 -0.365901 0.432681 -0.0271671 0.0798317 -0.246204 -0.143009 0.184807 -0.374109 -0.354271 -0.289012 0.491491 0.0485427 0.115934 -0.382094 -0.229343 0.213724 0.469045 0.507874
internal_weight=0 4528 3472 2015 2511 1457 2017 1147 837 620 434 560 1283 403 1091 868 1228 926 587 1196 655 347 173 465 403 426 881 359 221 103
internal_count=8000 4528 3472 2015 2511 1457 2017 1147 837 620 434 560 1283 403 1091 868 1228 926 587 1196 655 347 173 465 403 426 881 359 221 103
is_linear=0
shrinkage=0.05


Tree=8
num_leaves=31
num_cat=0
split_feature=3 4 3 4 3 2 4 1 1 3 0 0 3 4 2 4 4 3 3 3 2 4 0 0 0 2 0 2 3 3
split_gain=160213 23801.9 16828.4 4070.93 3408.38 2196.46 2177.13 804.541 517.115 493.107 466.166 403.006 401.292 344.537 343.79 287.632 287.627 282.331 262.906 256.891 239.807 220.497 212.322 193.326 187.243 174.552 155.37 146.493 131.77 136.506
threshold=1.0029067397117617 0.75543090701103222 1.5493003129959109 0.97687047719955455 1.2940962910652163 1.7293327450752261 0.44739380478858953 2.4817337989807133 2.4633085727691655 1.1454176306724551 0.87830218672752391 1.4087811112403872 0.57437333464622509 0.86390933394432079 1.6313529014587405 0.85648298263549816 1.051428020000458 0.22620926797389987 1.4567636847496035 0.86771494150161754 1.8134735822677615 0.3022140264511109 1.9890763759613039 1.9574011564254763 1.4782960414886477 1.8541672229766848 1.5944035649299624 0.48634517192840582 0.58371344208717357 0.36438579857349401
decision_type=2 2 2 2 2 2 2 2 2 2 2 2 2 2 2 2 2 2 2 2 2 2 2 2 2 2 2 2 2 2
left_child=1 6 4 13 9 11 19 18 16 23 25 14 -8 -3 -4 26 17 -5 -6 -1 -12 -9 -11 -2 -20 -7 -13 -19 29 -15
right_child=2 3 5 8 7 10 12 21 -10 22 20 15 -14 28 -16 -17 -18 27 24 -21 -22 -23 -24 -25 -26 -27 -28 -29 -30 -31
leaf_value=-0.023146034748617452 0.027344721269267763 -0.19235703158429354 0.25817445994561761 -0.27538394607535727 0.17207768473090035 0.40414622108934817 -0.13315349780335775 0.24278361432636486 -0.24754191051726041 0.11314189403096973 0.48236109235558544 0.29803942458527638 -0.071327559312587316 -0.23757774266523324 0.35584273140121497 0.44706030003329023 -0.37173628977934298 -0.35984588349245417 0.18918228264619863 0.029642004258612534 0.5702742884564066 0.31968036163535274 0.18622665357060919 0.093302367010094256 0.26506384043893072 0.49023263042837312 0.38472093201272139 -0.22023518999411662 -0.14114927248789316 -0.295868797912961
leaf_weight=528 168 613 164 193 344 187 572 146 131 225 179 82 485 548 200 127 750 312 137 409 137 258 178 328 200 86 140 20 30 123
leaf_count=528 168 613 164 193 344 187 572 146 131 225 179 82 485 548 200 127 750 312 137 409 137 258 178 328 200 86 140 20 30 123
internal_value=0 -0.186815 0.268 -0.283012 0.176337 0.407677 -0.0555945 0.235991 -0.342146 0.104341 0.479129 0.34865 -0.104785 -0.219737 0.311839 0.387042 -0.351866 -0.323479 0.202828 -0.000104077 0.520477 0.291892 0.145423 0.070962 0.234217 0.431267 0.352705 -0.351436 -0.24368 -0.248263
internal_weight=0 4714 3286 2720 1984 1302 1994 1085 1406 899 589 713 1057 1314 364 349 1275 525 681 937 316 404 403 496 337 273 222 332 701 671
internal_count=8000 4714 3286 2720 1984 1302 1994 1085 1406 899 589 713 1057 1314 364 349 1275 525 681 937 316 404 403 496 337 273 222 332 701 671
is_linear=0
shrinkage=0.05


Tree=9
num_leaves=31
num_cat=0
split_feature=3 4 3 3 4 2 4 1 2 1 0 2 0 1 3 3 4 4 2 4 4 3 0 2 4 1 1 3 0 2
split_gain=144664 18788.6 17576.5 3435.45 2928.49 2579.41 2195.61 684.475 549.848 435.335 423.892 416.598 414.536 390.341 333.547 324.224 295.379 292.85 235.431 200.442 192.682 352.865 187.906 180.849 152.795 142.712 141.94 137.409 123.363 108.412
threshold=0.96110093593597423 0.79806914925575267 1.5252295732498171 1.2079635858535769 0.99544239044189464 1.6491895318031313 0.54767242074012767 2.4386322498321538 1.7888835072517397 2.2622158527374272 0.61671623587608349 1.3353151082992556 1.4782960414886477 2.4691324234008794 0.77431833744049083 1.0946968793869021 0.94363224506378185 0.70388266444206249 1.382747530937195 1.1097686886787417 1.0973398089408877 0.18975986540317538 1.9318497180938723 0.18870756030082705 0.75543090701103222 2.3567422628402714 2.5172910690307622 1.5693593025207522 1.9666369557380678 0.65943288803100597
decision_type=2 2 2 2 2 2 2 2 2 2 2 2 2 2 2 2 2 2 2 2 2 2 2 2 2 2 2 2 2 2
left_child=1 6 3 15 16 12 14 18 9 -7 -10 -9 27 20 -1 22 29 -8 -5 -11 21 -6 -2 -18 26 -23 -14 -4 -17 -3
right_child=2 4 5 7 13 8 17 11 10 19 -12 -13 24 -15 -16 28 23 -19 -20 -21 -22 25 -24 -25 -26 -27 -28 -29 -30 -31
leaf_value=-0.054208474012408775 -0.007171166936952628 -0.21017684791509397 0.20998880636716677 0.12111668503204234 -0.27516868769322161 0.33786915017894836 -0.10194492402176972 0.19546012031646764 0.39226638978669548 0.39217003688902285 0.50643753713329276 0.27857812676389671 0.2606222043692204 -0.22803396522650093 0.001229481860229387 0.074053824789496778 -0.23201480146730932 -0.15821136454478019 0.18902150628272488 0.48377328413139548 -0.36552305534710938 -0.27657456588816637 0.063817659178754996 -0.30577316664511794 0.38498993582590679 -0.35622368991480213 0.34546936768662218 0.28065952510083358 0.13518804608080082 -0.11346064083789023
leaf_weight=506 121 851 106 207 257 195 478 279 113 118 290 328 81 87 585 140 209 448 333 121 410 64 406 138 111 465 126 196 201 30
leaf_count=506 121 851 106 207 257 195 478 279 113 118 290 328 81 87 585 140 209 448 333 121 410 64 406 138 111 465 126 196 201 30
internal_value=0 -0.186184 0.242811 0.147149 -0.277467 0.37511 -0.0725428 0.203943 0.432368 0.393313 0.474425 0.240374 0.297811 -0.330294 -0.0244824 0.0721 -0.222274 -0.129167 0.162992 0.438548 -0.337733 -0.323236 0.0475185 -0.261349 0.337654 -0.346588 0.31227 0.255855 0.110089 -0.206884
internal_weight=0 4528 3472 2015 2511 1457 2017 1147 837 434 403 607 620 1283 1091 868 1228 926 540 239 1196 786 527 347 318 529 207 302 341 881
internal_count=8000 4528 3472 2015 2511 1457 2017 1147 837 434 403 607 620 1283 1091 868 1228 926 540 239 1196 786 527 347 318 529 207 302 341 881
is_linear=0
shrinkage=0.05


Tree=10
num_leaves=31
num_cat=0
split_feature=3 4 3 4 3 3 2 1 1 0 3 4 3 2 0 4 4 4 3 0 3 3 0 2 2 4 1 2 1 3
split_gain=130593 21497.6 12117.2 3607.22 2774.57 1897.87 993.79 790.395 425.76 409.221 369.388 356.893 315.047 303.21 297.32 286.055 259.621 246.397 263.516 210.368 182.623 180.572 171.968 134.046 132.511 132.372 152.801 123.63 132.278 129.009
threshold=1.0459719896316531 0.74329504370689403 1.5934872627258303 0.97687047719955455 1.3418022990226748 0.70631957054138195 1.7607508301734927 2.4023693799972539 2.4678305387496953 0.87830218672752391 1.1647261381149294 0.84354591369628917 0.90489724278450023 1.4495151638984682 1.3301202058792116 0.95281609892845165 0.63253971934318554 1.051428020000458 0.24952092766761783 1.8435068130493166 1.4839689135551455 1.6846412420272829 2.054981112480164 0.7801254689693452 0.48634517192840582 1.4302414655685427 2.2229719161987309 0.567997306585312 2.4647046327590947 0.31716948747634893
decision_type=2 2 2 2 2 2 2 2 2 2 2 2 2 2 2 2 2 2 2 2 2 2 2 2 2 2 2 2 2 2
left_child=1 5 4 11 10 16 14 20 17 -8 22 23 -7 -9 21 -16 -1 18 -5 -12 -6 -4 -2 -3 -20 26 -11 28 29 -13
right_child=2 3 6 8 7 12 9 13 -10 25 19 27 -14 -15 15 -17 -18 -19 24 -21 -22 -23 -24 -25 -26 -27 -28 -29 -30 -31
leaf_value=-0.072294066725154427 0.05152555850944246 -0.16962816923860133 0.26534165794871728 -0.24815559856243261 0.1472616511152762 -0.020646317856401683 0.396075233807547 0.22657129229637848 -0.21705939499861479 0.32741585706939053 0.098044284213445368 -0.2161317115166333 0.031665190210876958 0.2947603142001618 0.34010319067323125 0.44478352013054245 -0.12705702568719304 -0.33552325873370314 -0.32792894471700085 0.16736961071065945 0.20909145995774792 0.34520838328940084 0.1174220718731325 -0.037861913735032365 -0.19503098584122613 0.52345591161861738 0.47543631821129806 -0.12836889834375925 -0.18710200969508817 -0.26627588380054995
leaf_weight=536 228 553 131 214 198 659 248 272 116 21 163 375 511 407 165 108 363 753 303 333 301 154 175 20 20 124 103 38 213 195
leaf_count=536 228 553 131 214 198 659 248 272 116 21 163 375 511 407 165 108 363 753 303 333 301 154 175 20 20 124 103 38 213 195
internal_value=0 -0.161996 0.25192 -0.252309 0.18185 -0.039776 0.389999 0.232334 -0.308817 0.441496 0.115698 -0.195313 0.00220085 0.267445 0.344223 0.381517 -0.0944065 -0.317068 -0.29119 0.144588 0.184558 0.308499 0.0801409 -0.165029 -0.319701 0.486916 0.450371 -0.216449 -0.220723 -0.233287
internal_weight=0 4869 3131 2800 2077 2069 1054 1178 1406 496 899 1394 1170 679 558 273 899 1290 537 496 499 285 403 573 323 248 124 821 783 570
internal_count=8000 4869 3131 2800 2077 2069 1054 1178 1406 496 899 1394 1170 679 558 273 899 1290 537 496 499 285 403 573 323 248 124 821 783 570
is_linear=0
shrinkage=0.05


Tree=11
num_leaves=31
num_cat=0
split_feature=3 4 3 4 3 3 2 1 0 4 4 3 1 4 0 4 4 1 4 0 4 3 3 1 2 3 1 0 2 2
split_gain=117866 19006.9 11232.5 2752.63 2296.53 2109.94 1249.15 712.842 360.066 343.404 328.127 320.264 318.472 305.562 286.951 231.438 213.165 201.785 190.176 196.573 166.225 276.594 165.743 158.52 152.948 150.807 147.755 144.455 137.963 160.242
threshold=1.0371772050857546 0.77208226919174205 1.5693593025207522 0.99544239044189464 1.323701858520508 0.6787509322166444 1.7293327450752261 2.4386322498321538 0.87830218672752391 0.34745720028877264 0.90585473179817211 1.1454176306724551 2.4691324234008794 0.6701304316520692 1.3163928985595705 0.42524959146976476 1.032412648200989 2.4915945529937749 1.4302414655685427 1.0908060073852541 1.1203649044036867 0.17225164175033572 1.4567636847496035 2.4072988033294682 1.8541672229766848 1.6326438784599306 2.3709439039230351 1.5944035649299624 0.20891805738210681 0.48634517192840582
decision_type=2 2 2 2 2 2 2 2 2 2 2 2 2 2 2 2 2 2 2 2 2 2 2 2 2 2 2 2 2 2
left_child=1 5 4 10 11 13 14 22 24 -7 -3 -2 20 -1 25 -9 27 -13 19 -10 21 23 -6 -5 -8 -4 -23 -16 -12 -30
right_child=2 3 6 12 7 9 8 15 18 -11 28 17 -14 -15 16 -17 -18 -19 -20 -21 -22 26 -24 -25 -26 -27 -28 -29 29 -31
leaf_value=-0.078765934671978566 0.068711766202018618 -0.17540226195522862 0.2124160455606417 -0.27941772302042089 0.13945382080546423 0.020146360993170749 0.34373317316710228 0.21743360987543614 0.3271996697218697 -0.03273498452259848 -0.20656481183476602 0.10066827661583198 -0.20577954711043267 -0.13613253367763378 0.29048263593817614 0.28293989300352557 0.42734615447440971 0.16466043959616525 0.49516217555187325 0.4450863343395679 -0.33997864906886899 -0.25775136418469635 0.19468566992733541 -0.20084421909324016 0.42431333176173536 0.29548772103594756 -0.32462940431619824 0.36128804491048494 -0.27492174698846655 -0.13972857187645019
leaf_weight=565 372 798 85 218 222 684 187 247 47 557 354 268 87 394 172 297 55 228 126 143 263 98 350 91 86 153 526 124 178 25
leaf_count=565 372 798 85 218 222 684 187 247 47 557 354 268 87 394 172 297 55 228 126 143 263 98 350 91 86 153 526 124 178 25
internal_value=0 -0.155155 0.237395 -0.245659 0.164779 -0.0466329 0.359695 0.212221 0.411183 -0.00358846 -0.195959 0.103782 -0.298147 -0.102335 0.308205 0.253198 0.336944 0.130084 0.447522 0.415927 -0.304866 -0.294968 0.17325 -0.256279 0.369119 0.26582 -0.314127 0.320145 -0.22541 -0.258273
internal_weight=0 4838 3162 2638 1984 2200 1178 1116 589 1241 1355 868 1283 959 589 544 351 496 316 190 1196 933 572 309 273 238 624 296 557 203
internal_count=8000 4838 3162 2638 1984 2200 1178 1116 589 1241 1355 868 1283 959 589 544 351 496 316 190 1196 933 572 309 273 238 624 296 557 203
is_linear=0
shrinkage=0.05


Tree=12
num_leaves=31
num_cat=0
split_feature=3 4 3 3 4 3 4 1 3 2 0 0 0 1 1 2 1 3 4 2 4 4 3 4 1 1 4 3 1 1
split_gain=106507 13822.2 12963.9 2513.89 2096.55 1900.07 1694.76 546.349 367.194 357.896 308.808 304.424 301.71 270.316 246.228 233.349 228.764 226.48 224.726 190.175 181.965 148.904 147.773 144.076 177.884 133.516 122.583 230.037 139.73 137.114
threshold=0.96110093593597423 0.83010452985763561 1.5252295732498171 1.2079635858535769 0.59725257754325878 1.6687442660331728 1.0091017484664919 2.4817337989807133 0.74542200565338146 1.8134735822677615 0.61671623587608349 1.4087811112403872 1.0908060073852541 2.4704431295394902 2.5333899259567265 1.3353151082992556 2.5672522783279423 1.4178512692451479 0.94363224506378185 0.17462311685085299 1.1794483065605166 0.70833024382591259 1.0761122703552248 0.73865431547164928 2.5172910690307622 2.3776552677154545 1.1203649044036867 0.17225164175033572 2.3334097862243657 2.4072988033294682
decision_type=2 2 2 2 2 2 2 2 2 2 2 2 2 2 2 2 2 2 2 2 2 2 2 2 2 2 2 2 2 2
left_child=1 4 3 14 8 11 18 17 -1 12 -11 -4 -7 26 22 -9 21 -5 -3 -20 25 -6 -2 24 -13 -14 27 29 -29 -8
right_child=2 6 5 7 16 9 13 15 -10 10 -12 23 20 -15 -16 -17 -18 -19 19 -21 -22 -23 -24 -25 -26 -27 -28 28 -30 -31
leaf_value=-0.056743269688060698 0.020333640806660343 -0.1836670477472111 0.22057640788822083 0.1189441585301651 -0.10401842071892527 0.30358731781984227 -0.26862364302651343 0.17969054528443831 -0.002144591541834908 0.34318402374374862 0.45082226774990181 0.20282405742462759 0.27285366664569261 -0.19508321559171204 0.098912235974046733 0.25214934910023262 -0.030015450497973713 0.17578590299465524 -0.1991596780638458 -0.26425815739603248 0.42886534950624633 -0.14654580772475731 0.071603582485350745 0.31916910734470011 0.2972534073426143 0.37934474787767442 -0.32297978081595624 -0.21486193021846178 -0.30972511393491198 -0.19077967592398984
leaf_weight=567 321 694 276 352 317 211 206 210 674 97 213 83 44 75 297 236 59 349 245 207 121 587 250 198 125 89 263 42 514 78
leaf_count=567 321 694 276 352 317 211 206 210 674 97 213 83 44 75 297 236 59 349 245 207 121 587 250 198 125 89 263 42 514 78
internal_value=0 -0.159754 0.208343 0.126186 -0.0700482 0.321963 -0.244827 0.174769 -0.0270902 0.375526 0.417143 0.261094 0.34778 -0.286941 0.0619874 0.218032 -0.125407 0.147244 -0.201537 -0.228973 0.384491 -0.131633 0.0427812 0.288638 0.259574 0.344117 -0.293187 -0.283858 -0.30256 -0.247245
internal_weight=0 4528 3472 2015 2204 1457 2324 1147 1241 775 310 682 465 1178 868 446 963 701 1146 452 254 904 571 406 208 133 1103 840 556 284
internal_count=8000 4528 3472 2015 2204 1457 2324 1147 1241 775 310 682 465 1178 868 446 963 701 1146 452 254 904 571 406 208 133 1103 840 556 284
is_linear=0
shrinkage=0.05


Tree=13
num_leaves=31
num_cat=0
split_feature=3 3 4 2 3 4 4 1 1 2 1 1 0 1 3 4 4 4 3 4 2 0 1 3 4 3 2 1 1 4
split_gain=96149.5 12248.6 11933.9 2300.64 1947.64 1768.56 1519.53 462.289 424.042 372.639 332.638 284.383 278.699 243.96 241.951 220.61 199.487 190.296 173.65 167.333 158.78 148.625 122.965 111.402 110.632 207.608 127.31 123.745 107.612 169.47
threshold=0.94456383585929882 1.4938769340515139 0.83010452985763561 1.6491895318031313 1.2079635858535769 0.5350254774093629 1.0091017484664919 2.4817337989807133 2.3425853252410893 1.8134735822677615 2.2622158527374272 2.5672522783279423 0.61671623587608349 2.4704431295394902 1.0761122703552248 0.70388266444206249 0.94363224506378185 0.38650262355804449 0.28011788427829748 1.1097686886787417 1.3353151082992556 2.0920172929763798 2.4201178550720219 1.3925178050994875 1.1203649044036867 0.17225164175033572 0.3401846736669541 2.4072988033294682 2.5088226795196538 0.81105566024780285
decision_type=2 2 2 2 2 2 2 2 2 2 2 2 2 2 2 2 2 2 2 2 2 2 2 2 2 2 2 2 2 2
left_child=2 4 5 8 14 17 16 23 -3 10 -5 15 -11 24 21 -7 -4 -1 -18 -12 -9 -2 -16 -6 25 27 -27 -8 29 -10
right_child=1 3 6 9 7 11 13 20 28 12 19 -13 -14 -15 22 -17 18 -19 -20 -21 -22 -23 -24 -25 -26 26 -28 -29 -30 -31
leaf_value=-0.00061592418477968884 0.015166719259528824 0.18142251342426133 -0.17481394949486359 0.28585272183699612 0.10784717195195566 -0.092127544879517936 -0.25519252488332128 0.17070606040885108 0.21513584053027521 0.32602499895991188 0.32043318234423773 -0.025892670049010132 0.42828126945199929 -0.18532918166501372 0.043008304650758472 -0.13850270124078431 -0.19242778121279935 -0.044316256162826202 -0.25579895703674199 0.39935564220109426 0.23489861298904385 0.071233355130975992 0.10355413784434031 0.15194950866833587 -0.30683085669864762 -0.29283720162584287 -0.18151608588887491 -0.1812408131542341 0.28814748463589879 0.28739369054664865
leaf_weight=542 348 257 692 253 292 443 206 210 216 97 118 89 213 75 119 609 273 461 179 156 178 179 284 281 263 529 27 78 203 130
leaf_count=542 348 257 692 253 292 443 206 210 216 97 118 89 213 75 119 609 273 461 179 156 178 179 284 281 263 529 27 78 203 130
internal_value=0 0.194861 -0.154196 0.294724 0.108094 -0.0691366 -0.232734 0.158012 0.23443 0.352785 0.327195 -0.111714 0.396286 -0.272594 0.0565122 -0.118974 -0.191689 -0.0207015 -0.217524 0.365368 0.200156 0.0342103 0.085676 0.129475 -0.278527 -0.269665 -0.287432 -0.234883 0.259244 0.242285
internal_weight=0 3534 4466 1643 1891 2144 2322 961 806 837 527 1141 310 1178 930 1052 1144 1003 452 274 388 527 403 573 1103 840 556 284 549 346
internal_count=8000 3534 4466 1643 1891 2144 2322 961 806 837 527 1141 310 1178 930 1052 1144 1003 452 274 388 527 403 573 1103 840 556 284 549 346
is_linear=0
shrinkage=0.05


Tree=14
num_leaves=31
num_cat=0
split_feature=3 3 4 3 4 2 4 1 2 1 2 0 0 4 1 4 1 2 1 4 3 4 2 2 4 3 4 1 3 1
split_gain=86775 11055.8 10770.3 2216.4 1596.72 1553.69 1373.11 473.338 342.064 307.011 294.588 286.53 284.789 281.512 222.6 219.959 199.307 198.525 187.448 133.986 131.055 124.714 124.713 109.709 105.248 101.922 100.158 158.407 96.9677 96.014
threshold=0.94456383585929882 1.5252295732498171 0.83010452985763561 1.2079635858535769 0.59725257754325878 1.6491895318031313 1.0182338953018191 2.4044851064682011 1.7888835072517397 2.2622158527374272 1.3697831630706789 0.61671623587608349 1.4782960414886477 0.42524959146976476 2.4773821830749516 0.94363224506378185 2.4678305387496953 0.1792254522442818 2.5752544403076176 1.1097686886787417 1.4178512692451479 0.75543090701103222 0.77091699838638317 1.071400046348572 0.70833024382591259 1.1116735935211184 1.6122436523437502 2.1041686534881596 1.580771327018738 2.5172910690307622
decision_type=2 2 2 2 2 2 2 2 2 2 2 2 2 2 2 2 2 2 2 2 2 2 2 2 2 2 2 2 2 2
left_child=2 3 4 14 13 12 15 20 9 -7 -9 -10 28 -1 25 -4 -8 -17 22 -11 -5 29 24 -16 -6 -2 27 -13 -3 -14
right_child=1 5 6 7 18 8 16 10 11 19 -12 26 21 -15 23 17 -18 -19 -20 -21 -22 -23 -24 -25 -26 -27 -28 -29 -30 -31
leaf_value=-0.0053364231836399226 0.01400408550076207 0.16463603885323458 -0.16607326514845244 0.083360709045077086 -0.098649504972552357 0.25778197479129694 -0.26708382097366273 0.15233799548592264 0.30077106567550793 0.30441165835163098 0.21603902072647885 0.30408516835415383 0.1983299856039604 -0.054520283430770394 0.062367148322301807 -0.18098403063145704 -0.17808601545971903 -0.24239354172836039 -0.02122671070043777 0.3793043011130432 0.13984642190336491 0.30650365735063456 -0.042871779896918899 0.11547794284328261 -0.13576656133612205 0.066319281672439404 0.45982195001210863 0.40264719147565409 0.22158640536810062 0.26811220136128039
leaf_weight=667 328 136 692 183 287 195 1032 392 113 118 338 52 81 516 335 290 67 241 52 121 234 111 51 137 571 130 49 189 166 126
leaf_count=667 328 136 692 183 287 195 1032 392 113 118 338 52 81 516 335 290 67 241 52 121 234 111 51 137 571 130 49 189 166 126
internal_value=0 0.185118 -0.146486 0.111048 -0.0656798 0.290708 -0.221097 0.157556 0.335146 0.304342 0.181833 0.368318 0.230715 -0.0267894 0.0536866 -0.184649 -0.261658 -0.208856 -0.113554 0.342329 0.115058 0.26374 -0.118836 0.077783 -0.123351 0.0288535 0.394637 0.381382 0.195941 0.240807
internal_weight=0 3534 4466 2077 2144 1457 2322 1147 837 434 730 403 620 1183 930 1223 1099 531 961 239 417 318 909 472 858 458 290 241 302 207
internal_count=8000 3534 4466 2077 2144 1457 2322 1147 837 434 730 403 620 1183 930 1223 1099 531 961 239 417 318 909 472 858 458 290 241 302 207
is_linear=0
shrinkage=0.05


Tree=15
num_leaves=31
num_cat=0
split_feature=3 3 4 2 3 4 4 1 1 2 0 0 2 1 0 4 1 4 1 4 3 2 3 1 4 0 0 3 4 4
split_gain=78323.4 10929 8838.35 2024.22 1706.31 1257.28 1232.25 382.288 343.345 340.132 268.403 266.824 243.468 217.57 211.325 201.593 174.187 138.158 132.107 118.788 224.335 117.479 155.763 109.993 106.548 139.011 117.586 103.983 101.627 100.273
threshold=0.90489724278450023 1.4839689135551455 0.83010452985763561 1.6403768658638003 1.1647261381149294 0.60249322652816784 0.99852335453033458 2.3831974267959599 2.4240162372589116 1.7798004150390627 1.2222512364387514 0.70029011368751537 1.2961348891258242 2.4691324234008794 2.0437053442001347 0.4315005242824555 2.5672522783279423 1.0018802881240847 2.4633085727691655 1.0973398089408877 0.19832142442464831 0.51087200641632091 0.36438579857349401 2.4088367223739628 0.62656244635581981 1.5944035649299624 1.7447516322135928 1.5693593025207522 0.70833024382591259 1.5075606703758242
decision_type=2 2 2 2 2 2 2 2 2 2 2 2 2 2 2 2 2 2 2 2 2 2 2 2 2 2 2 2 2 2
left_child=2 4 5 7 14 15 18 27 -6 10 -5 -11 -10 19 -2 -1 28 -12 21 20 -8 22 -4 -22 26 -26 -9 -3 -7 -13
right_child=1 3 6 9 8 16 13 24 12 11 17 29 -14 -15 -16 -17 -18 -19 -20 -21 23 -23 -24 -25 25 -27 -28 -29 -30 -31
leaf_value=-0.010397533657227915 0.018337442289908554 0.1454125365794755 -0.17420749273041525 0.24671518598752895 0.098032996361136132 -0.091530028598942312 -0.20090170049064138 0.16264426286393463 0.1257851528890398 0.29151998695614073 0.27745938118481545 0.34990527312800046 0.18825532121261992 -0.16691061487347691 0.066105728892043511 -0.053599950628386898 -0.025686874185301162 0.35938844198300041 -0.14099039110365194 -0.27101179347919291 -0.22834750167784043 -0.11059610082202298 -0.23031488066892797 -0.27669694866135885 0.21916696138609082 0.29218698710876062 0.23904376218913598 0.19987706834053365 -0.12738742458893348 0.40919890104842288
leaf_weight=579 495 207 570 222 399 300 269 80 308 142 88 168 316 86 435 506 58 124 279 410 194 55 158 299 122 140 136 152 579 124
leaf_count=579 495 207 570 222 399 300 269 80 308 142 88 168 316 86 435 506 58 124 279 410 194 55 158 299 122 140 136 152 579 124
internal_value=0 0.170449 -0.143598 0.262946 0.0896974 -0.067185 -0.210195 0.207466 0.134258 0.316444 0.285143 0.347745 0.157421 -0.243676 0.0406807 -0.0305454 -0.109612 0.325382 -0.170534 -0.249309 -0.237631 -0.181061 -0.186385 -0.257672 0.23675 0.258186 0.210749 0.168473 -0.11515 0.375086
internal_weight=0 3658 4342 1705 1953 2022 2320 837 1023 868 434 434 624 1258 930 1085 937 212 1062 1172 762 783 728 493 478 262 216 359 879 292
internal_count=8000 3658 4342 1705 1953 2022 2320 837 1023 868 434 434 624 1258 930 1085 937 212 1062 1172 762 783 728 493 478 262 216 359 879 292
is_linear=0
shrinkage=0.05


Tree=16
num_leaves=31
num_cat=0
split_feature=3 4 3 4 3 3 2 1 1 0 1 0 0 4 4 4 1 2 4 3 4 0 0 2 2 3 2 4 1 4
split_gain=70773.1 11612.7 6610.63 1965.72 1485.68 1060.43 547.598 484.735 258.837 258.309 254.224 249.013 204.986 197.435 193.776 190.237 187.684 176.46 154.95 248.063 140.513 128.73 110.365 103.17 95.456 95.3434 90.7272 88.6806 114.786 86.4887
threshold=1.0459719896316531 0.74329504370689403 1.5934872627258303 0.97213697433471691 1.3418022990226748 0.77431833744049083 1.7607508301734927 2.4023693799972539 2.3853056430816655 2.0681236982345585 2.4678305387496953 0.87830218672752391 1.3301202058792116 0.95281609892845165 0.62656244635581981 0.86390933394432079 2.4915945529937749 1.1439105868339541 1.081000864505768 0.21900925785303119 0.5350254774093629 2.0831327438354497 1.915178716182709 1.6864903569221499 1.8541672229766848 1.5312682986259463 0.75180852413177501 1.3975456357002261 2.2523198127746586 0.40975522994995123
decision_type=2 2 2 2 2 2 2 2 2 2 2 2 2 2 2 2 2 2 2 2 2 2 2 2 2 2 2 2 2 2
left_child=1 5 4 15 8 9 12 25 -2 20 18 24 23 -14 16 26 -9 -10 19 -5 -1 -7 -21 -4 -8 -6 -3 28 -13 -18
right_child=2 3 6 10 7 21 11 14 17 -11 -12 27 13 -15 -16 -17 29 -19 -20 22 -22 -23 -24 -25 -26 -27 -28 -29 -30 -31
leaf_value=-0.049240825082328077 0.030134621985386752 -0.12774330713142376 0.19071423236766033 -0.18265031885049543 0.11673735847361558 -0.0054017500612655207 0.26763127431174211 0.1425478368609982 0.074211478114916046 -0.019683226971485911 -0.15878347984157926 0.22542702423475594 0.25002310500302544 0.33698795464320069 0.24704634315124652 -0.16167237379730157 0.17972494081049889 0.12348948304791828 -0.25369821499089013 -0.19595455066259551 -0.091826387010181268 0.032243877241184958 -0.25409439529376165 0.25115806974921995 0.33281891250694629 0.16219718848810477 -0.026746008856613414 0.38779916310209989 0.35313870210249104 0.2301022553847728
leaf_weight=303 172 670 129 294 318 601 162 182 371 263 126 22 165 108 156 676 167 356 539 105 537 365 367 156 86 181 23 138 88 174
leaf_count=303 172 670 129 294 318 601 162 182 371 263 126 22 165 108 156 676 167 356 539 105 537 365 367 156 86 181 23 138 88 174
internal_value=0 -0.119256 0.185455 -0.185633 0.1337 -0.0294272 0.287442 0.170642 0.0852926 -0.0629261 -0.226609 0.325669 0.253463 0.284428 0.198138 -0.1428 0.183549 0.0983422 -0.233158 -0.218704 -0.0764652 0.00882255 -0.241161 0.2238 0.290238 0.133227 -0.124391 0.361099 0.327599 0.205431
internal_weight=0 4869 3131 2800 2077 2069 1054 1178 899 1103 1431 496 558 273 679 1369 523 727 1305 766 840 966 472 285 248 499 693 248 110 341
internal_count=8000 4869 3131 2800 2077 2069 1054 1178 899 1103 1431 496 558 273 679 1369 523 727 1305 766 840 966 472 285 248 499 693 248 110 341
is_linear=0
shrinkage=0.05


Tree=17
num_leaves=31
num_cat=0
split_feature=3 3 4 2 3 4 4 0 1 2 1 1 0 1 4 3 1 4 3 0 3 4 4 0 0 0 2 2 1 4
split_gain=63905.3 8124.33 7902.23 1652.32 1174.16 1172.94 1021.03 323.456 317.779 279.46 243.73 201.303 196.086 182.546 170.531 160.937 146.9 144.72 141.124 140.71 130.29 129.324 128.675 118.679 95.3915 92.7036 88.9036 85.4617 84.8372 140.864
threshold=0.94456383585929882 1.4839689135551455 0.83010452985763561 1.6403768658638003 1.2079635858535769 0.5350254774093629 1.0182338953018191 1.4782960414886477 2.5088226795196538 1.8134735822677615 2.2622158527374272 2.5672522783279423 0.61671623587608349 2.3890751600265507 0.94363224506378185 0.28011788427829748 2.4678305387496953 0.70388266444206249 1.0761122703552248 2.0831327438354497 1.5693593025207522 1.1247795224189761 0.62656244635581981 1.7447516322135928 1.3787152767181399 1.5944035649299624 1.3697831630706789 1.7387365102767947 2.4003062248229985 0.34745720028877264
decision_type=2 2 2 2 2 2 2 2 2 2 2 2 2 2 2 2 2 2 2 2 2 2 2 2 2 2 2 2 2 2
left_child=2 4 5 7 13 19 14 20 28 10 27 17 -11 -2 -4 -16 -8 -7 -15 -1 -3 24 23 -9 -12 -24 -10 -5 -6 -30
right_child=1 3 6 9 8 11 16 22 26 12 21 -13 -14 18 15 -17 -18 -19 -20 -21 -22 -23 25 -25 -26 -27 -28 -29 29 -31
leaf_value=-0.030729392498849879 -0.0002254901983501386 0.11963806210381285 -0.14183287704162653 0.19638907041301987 0.085837915863182318 -0.075531776717744775 -0.2292530045354233 0.1426144387784542 0.15007956294407776 0.26484655867660062 0.20592023252136882 -0.018962375723454467 0.35061812994175129 0.037835195133136629 -0.1565293530635623 -0.21248723470759293 -0.15284665116509263 -0.11309281546650088 0.081334075748887125 0.0085876743406732223 0.18082908443600498 0.32938827555005029 0.20529663331510561 0.21591170748044752 0.29081374743110033 0.2651931540017356 0.2088049038828225 0.25411934794378671 0.088066492391238801 0.15598721393503009
leaf_weight=654 172 173 692 112 290 443 1032 93 210 97 49 89 213 427 313 218 67 609 331 349 175 145 120 136 102 140 93 150 146 160
leaf_count=654 172 173 692 112 290 443 1032 93 210 97 49 89 213 427 313 218 67 609 331 349 175 145 120 136 102 140 93 150 146 160
internal_value=0 0.158862 -0.125709 0.237381 0.0856661 -0.0564934 -0.189619 0.187256 0.126412 0.285716 0.264568 -0.0911673 0.323781 0.046278 -0.158189 -0.179503 -0.224595 -0.0972758 0.0568302 -0.0170488 0.15041 0.295659 0.213477 0.186145 0.263267 0.23755 0.168105 0.229442 0.105216 0.123581
internal_weight=0 3534 4466 1705 1829 2144 2322 837 899 868 558 1141 310 930 1223 531 1099 1052 758 1003 348 296 489 229 151 260 303 262 596 306
internal_count=8000 3534 4466 1705 1829 2144 2322 837 899 868 558 1141 310 930 1223 531 1099 1052 758 1003 348 296 489 229 151 260 303 262 596 306
is_linear=0
shrinkage=0.05


Tree=18
num_leaves=31
num_cat=0
split_feature=3 3 4 2 3 4 4 0 1 2 1 0 4 0 4 2 2 1 1 4 3 4 1 2 0 0 4 2 4 0
split_gain=57707.8 8013.65 6478.92 1491.22 1250.24 926.355 914.411 291.919 282.383 252.213 219.966 176.968 168.209 159.261 154.386 152.859 151.036 132.577 123.567 120.599 117.587 116.715 113.737 111.305 86.0907 80.9141 80.0414 77.1292 72.4054 94.1731
threshold=0.90489724278450023 1.4839689135551455 0.83010452985763561 1.6403768658638003 1.1454176306724551 0.62218064069747936 1.0182338953018191 1.4782960414886477 2.4817337989807133 1.8134735822677615 2.2622158527374272 0.61671623587608349 0.4315005242824555 2.0437053442001347 0.94363224506378185 1.287371873855591 0.17462311685085299 2.4678305387496953 2.5604740381240849 0.73865431547164928 1.5693593025207522 1.1247795224189761 2.5146577358245854 1.2961348891258242 1.3787152767181399 1.6666875481605532 0.50484159588813793 1.7387365102767947 1.6122436523437502 0.84668663144111644
decision_type=2 2 2 2 2 2 2 2 2 2 2 2 2 2 2 2 2 2 2 2 2 2 2 2 2 2 2 2 2 2
left_child=2 4 5 7 13 12 14 20 23 10 27 -11 -1 -2 -4 -10 -16 -8 -7 22 -3 24 -9 -6 -12 -21 -24 -5 29 -13
right_child=1 3 6 9 8 18 17 19 15 11 21 28 -14 -15 16 -17 -18 -19 -20 25 -22 -23 26 -25 -26 -27 -28 -29 -30 -31
leaf_value=-0.0090128448311769509 0.012215571648634656 0.11365619552762794 -0.13492563146810257 0.1865697041844544 0.064579802762284894 -0.10082905413474325 -0.21779036474892149 0.15718340429210775 0.11472509359191463 0.25160436659694646 0.19562443084951719 0.24583672391736197 -0.047553181881915707 0.055121457036570232 -0.14576660158833707 0.17215721654105456 -0.19926175483953054 -0.1452044361329887 -0.023452237132676357 0.22395476252509808 0.17178768268004196 0.31291897884348407 0.17251508563517268 0.10792216181699761 0.27627320482728973 0.32187715240966486 0.24015123743802669 0.24141346570020544 0.38715058054909807 0.3373147971162449
leaf_weight=579 459 173 691 112 244 834 1032 166 240 97 49 36 554 409 282 224 248 67 55 112 175 145 71 377 102 26 114 150 48 129
leaf_count=579 459 173 691 112 244 834 1032 166 240 97 49 36 554 409 282 224 248 67 55 112 175 145 71 377 102 26 114 150 48 129
internal_value=0 0.146307 -0.123259 0.225512 0.07716 -0.057836 -0.180278 0.177893 0.112942 0.27143 0.25134 0.307592 -0.0278578 0.0324328 -0.150497 0.142451 -0.170799 -0.213365 -0.096042 0.202803 0.142889 0.280876 0.187233 0.0908924 0.250104 0.242406 0.214195 0.21797 0.333087 0.317358
internal_weight=0 3658 4342 1705 1953 2022 2320 837 1085 868 558 310 1133 868 1221 464 530 1099 889 489 348 296 351 621 151 138 185 262 213 165
internal_count=8000 3658 4342 1705 1953 2022 2320 837 1085 868 558 310 1133 868 1221 464 530 1099 889 489 348 296 351 621 151 138 185 262 213 165
is_linear=0
shrinkage=0.05


Tree=19
num_leaves=31
num_cat=0
split_feature=3 4 3 4 3 4 2 1 0 1 0 1 4 2 2 3 0 2 4 3 2 2 1 4 4 4 4 4 0 4
split_gain=52123.6 7708.45 5500.71 1179.4 1107.59 870.731 724.326 327.517 198.049 191.697 190.683 180.165 160.468 146.357 140.505 134.187 132.829 134.109 124.997 215.952 107.989 103.57 102.27 144.542 98.0691 96.9891 96.1246 94.7772 91.6249 96.1491
threshold=1.0029067397117617 0.77571487426757824 1.5493003129959109 0.97213697433471691 1.2940962910652163 0.48949545621871954 1.7293327450752261 2.4986875057220463 0.96660247445106517 2.4691324234008794 1.4087811112403872 2.5443712472915654 0.88716122508049022 1.8541672229766848 0.65943288803100597 0.85850226879119884 2.0798202753067021 0.77091699838638317 1.081000864505768 0.23076207935810092 1.6313529014587405 0.48634517192840582 2.38245701789856 0.51660200953483593 0.63837474584579479 1.3386503458023074 0.40975522994995123 0.90585473179817211 1.5944035649299624 0.61510062217712413
decision_type=2 2 2 2 2 2 2 2 2 2 2 2 2 2 2 2 2 2 2 2 2 2 2 2 2 2 2 2 2 2
left_child=1 5 4 14 11 15 10 22 13 18 20 24 28 -8 27 -1 17 -7 19 -5 -4 -21 -6 -24 -2 -10 -9 -3 -12 -30
right_child=2 3 6 9 7 16 8 26 25 -11 12 -13 -14 -15 -16 -17 -18 -19 -20 21 -22 -23 23 -25 -26 -27 -28 -29 29 -31
leaf_value=-0.01869820983958349 0.049410556782056275 -0.11967844506205945 0.14342687376983229 -0.15516182962229697 0.095422525403703773 -0.081190925432768818 0.22367218425592658 0.1512369216840278 0.27490916121567449 -0.13414945515995899 0.16203324015109111 0.091606492294387581 0.27520895901585141 0.29634924138572044 -0.037105014290356307 0.017185752615061944 -0.015732925609948292 -0.022817649253957295 -0.21834317056115427 -0.21417031013724525 0.19816584907956308 -0.097789438003230394 0.10112705638885376 0.16299702872676475 -0.028928990213130758 0.33474829460389244 0.20345120164313527 -0.14988402512711924 0.14919688220448929 0.24692347944361168
leaf_weight=615 563 744 164 315 346 810 216 208 134 121 89 293 110 102 42 452 109 112 541 434 200 20 183 195 43 137 153 399 32 118
leaf_count=615 563 744 164 315 346 810 216 208 134 121 89 293 110 102 42 452 109 112 541 434 200 20 183 195 43 137 153 399 32 118
internal_value=0 -0.106557 0.152864 -0.163815 0.100458 -0.0351605 0.23272 0.134463 0.273752 -0.194366 0.198824 0.059416 0.225232 0.246985 -0.126922 -0.00349713 -0.0679294 -0.0741001 -0.199928 -0.186973 0.173504 -0.209044 0.115065 0.133044 0.0438518 0.305161 0.173367 -0.130223 0.202228 0.226076
internal_weight=0 4714 3286 2616 1984 2098 1302 1085 589 1431 713 899 349 318 1185 1067 1031 922 1310 769 364 454 724 378 606 271 361 1143 239 150
internal_count=8000 4714 3286 2616 1984 2098 1302 1085 589 1431 713 899 349 318 1185 1067 1031 922 1310 769 364 454 724 378 606 271 361 1143 239 150
is_linear=0
shrinkage=0.05


Tree=20
num_leaves=31
num_cat=0
split_feature=3 4 3 4 3 3 2 1 1 0 1 0 2 0 4 2 1 4 3 4 4 1 4 1 0 2 0 2 4 2
split_gain=47079.6 7722.67 4377.56 1332.16 993.407 686.7 366.536 343.278 224.012 189.625 183.002 168.817 162.116 150.556 158.843 147.669 124.663 119.173 162.317 105.642 105.071 134.126 102.049 125.561 97.152 89.2222 106.934 86.5155 78.7828 72.2307
threshold=1.0459719896316531 0.73865431547164928 1.5934872627258303 0.96803095936775219 1.3809289336204531 0.77431833744049083 1.7607508301734927 2.4023693799972539 2.3890751600265507 0.70029011368751537 2.4633085727691655 2.0681236982345585 1.1439105868339541 1.3301202058792116 0.95281609892845165 0.65943288803100597 2.5672522783279423 1.0630328655242922 0.21900925785303119 0.87609145045280468 0.62656244635581981 2.5146577358245854 1.5075606703758242 2.1615676879882817 2.0142571926116948 0.23945005238056186 1.9085099101066592 0.48634517192840582 0.54090338945388805 1.6864903569221499
decision_type=2 2 2 2 2 2 2 2 2 2 2 2 2 2 2 2 2 2 2 2 2 2 2 2 2 2 2 2 2 2
left_child=1 5 4 15 8 11 13 -6 -2 -8 17 28 -10 29 -15 16 19 18 -5 -3 21 -9 23 -11 -7 -21 -27 -20 -1 -4
right_child=2 3 6 10 7 24 9 20 12 22 -12 -13 -14 14 -16 -17 -18 -19 27 25 -22 -23 -24 -25 -26 26 -28 -29 -30 -31
leaf_value=-0.042061815790927527 0.02786809592378487 -0.10864367814054297 0.1533470871318201 -0.14286513204274645 0.11121771198613845 -0.013418008719379364 0.21901401895225714 0.12427529702896688 0.061333919996528256 0.20378478324592014 -0.13102536093666869 -0.015401883368280259 0.10616784409437244 0.20212997739394836 0.28013273094134433 -0.041299233470428208 -0.010689938274934967 -0.20511750339545731 -0.19955274691576516 -0.12351528448778676 0.20413390610736606 0.18042196669212257 0.32190379639962202 0.28875519180289405 0.019549558492852431 -0.11592887299135957 -0.19465322577134336 -0.092900210728788846 -0.07396880407819767 0.20392188447589563
leaf_weight=314 209 723 129 246 467 352 152 188 368 60 146 259 446 165 108 64 26 655 387 375 154 245 126 158 612 68 118 20 504 156
leaf_count=314 209 723 129 246 467 352 152 188 368 60 146 259 446 165 108 64 26 655 387 375 154 245 126 158 612 68 118 20 504 156
internal_value=0 -0.0972662 0.151259 -0.150762 0.109143 -0.0231434 0.234252 0.14321 0.0740433 0.265527 -0.184121 -0.050582 0.085899 0.206452 0.232989 -0.11546 -0.119083 -0.190048 -0.174931 -0.121277 0.168661 0.156045 0.286078 0.26537 0.00751161 -0.137559 -0.165873 -0.194312 -0.061721 0.181031
internal_weight=0 4869 3131 2828 2077 2041 1054 1054 1023 496 1454 1077 814 558 273 1374 1310 1308 653 1284 587 433 344 218 964 561 186 407 818 285
internal_count=8000 4869 3131 2828 2077 2041 1054 1054 1023 496 1454 1077 814 558 273 1374 1310 1308 653 1284 587 433 344 218 964 561 186 407 818 285
is_linear=0
shrinkage=0.05


Tree=21
num_leaves=31
num_cat=0
split_feature=3 3 4 3 3 4 4 1 2 1 1 0 2 0 4 0 1 2 3 1 1 4 1 4 0 2 4 3 0 2
split_gain=42501.1 5911.07 4763.35 1308.71 746.983 729.105 642.212 243.905 206.122 197.548 151.473 142.807 136.293 135.782 135.093 128.402 123.914 106.634 175.821 98.0535 94.1309 84.3425 111.51 75.7858 73.2407 70.9764 64.5945 117.329 121.23 75.6565
threshold=0.90489724278450023 1.4492273926734927 0.83767941594123851 1.6326438784599306 1.1116735935211184 0.62218064069747936 1.0182338953018191 2.3831974267959599 1.8134735822677615 2.415596723556519 2.2622158527374272 0.47223466634750372 1.2961348891258242 2.0741862058639531 0.99852335453033458 2.0142571926116948 2.473360657691956 0.51087200641632091 0.32338146865367895 2.4678305387496953 2.5752544403076176 0.73865431547164928 2.5146577358245854 0.56982526183128368 1.5815235376358034 0.67799884080886852 1.133188843727112 0.1382422745227814 1.9232304096221926 0.30272664129734045
decision_type=2 2 2 2 2 2 2 2 2 2 2 2 2 2 2 2 2 2 2 2 2 2 2 2 2 2 2 2 2 2
left_child=2 4 5 7 15 13 16 -3 10 -6 -5 -10 -11 25 -12 -2 17 18 -4 26 -7 22 -9 -24 -23 -1 27 28 -8 -29
right_child=1 3 6 8 9 20 19 21 11 12 14 -13 -14 -15 -16 -17 -18 -19 -20 -21 -22 24 23 -25 -26 -27 -28 29 -30 -31
leaf_value=-0.051765165279184983 0.00043864246158909067 0.11803319173815796 -0.12728804031360005 0.18581118183515988 0.058495518341535283 -0.087157048851594976 -0.16980109102116844 0.12963050493139769 0.19213401614141279 0.087839088769999976 0.19379598433029499 0.28035139784605073 0.13464456385070406 0.00015643197922767947 0.26090224784858862 0.041551167652802035 -0.098376884006667539 -0.071451699176972833 -0.17538234152141732 -0.1245601229061947 -0.013802681225228189 0.17192397297717807 0.16201735553855776 0.22391417570288707 0.24649568625043228 -0.020919887548861316 -0.21629814791201496 -0.19762726157077495 -0.082060341202878223 -0.11199376049193976
leaf_weight=373 333 406 596 263 350 888 219 190 56 429 117 254 244 387 209 442 245 56 279 67 46 78 158 72 57 373 159 579 48 27
leaf_count=373 333 406 596 263 350 888 219 190 56 429 117 254 244 387 209 442 245 56 279 67 46 78 158 72 57 373 159 579 48 27
internal_value=0 0.125559 -0.105779 0.188051 0.060913 -0.0508377 -0.155698 0.147485 0.231413 0.0889637 0.214043 0.264416 0.104809 -0.0238756 0.236819 0.0238861 -0.130016 -0.138343 -0.142623 -0.183178 -0.0835443 0.16903 0.157978 0.181395 0.203411 -0.0363426 -0.186984 -0.181645 -0.154028 -0.193812
internal_weight=0 3658 4342 1860 1798 2067 2275 961 899 1023 589 310 673 1133 326 775 1176 931 875 1099 934 555 420 230 135 746 1032 873 267 606
internal_count=8000 3658 4342 1860 1798 2067 2275 961 899 1023 589 310 673 1133 326 775 1176 931 875 1099 934 555 420 230 135 746 1032 873 267 606
is_linear=0
shrinkage=0.05


Tree=22
num_leaves=31
num_cat=0
split_feature=3 4 3 4 3 3 1 2 1 1 0 0 0 4 2 4 3 2 2 4 1 1 0 4 1 1 3 4 4 0
split_gain=38378.5 6304.09 3573.3 1092.36 841.037 562.019 282.057 278.078 190.803 188.539 157.097 142.25 135.979 161.176 132.669 112.71 200.578 110.262 100.206 94.877 112.137 87.3499 82.8614 76.7192 95.4399 70.3676 66.6783 64.6509 63.028 60.6849
threshold=1.0459719896316531 0.73865431547164928 1.6013042926788332 0.95281609892845165 1.3809289336204531 0.78349751234054577 2.4023693799972539 1.7798004150390627 2.3890751600265507 2.4678305387496953 0.70029011368751537 2.0681236982345585 1.3163928985595705 0.99852335453033458 1.1439105868339541 1.081000864505768 0.2372427433729172 0.65943288803100597 0.49498939514160162 0.62656244635581981 2.5146577358245854 2.5672522783279423 2.0920172929763798 1.6122436523437502 2.1615676879882817 2.5420694351196294 1.6846412420272829 0.5350254774093629 0.40975522994995123 1.9564157128334048
decision_type=2 2 2 2 2 2 2 2 2 2 2 2 2 2 2 2 2 2 2 2 2 2 2 2 2 2 2 2 2 2
left_child=1 5 4 17 8 11 -6 12 -2 15 -9 27 26 -14 -10 16 -5 21 29 20 -8 -3 -7 24 -12 28 -4 -1 -16 -18
right_child=2 3 7 9 6 22 19 10 14 -11 23 -13 13 -15 25 -17 18 -19 -20 -21 -22 -23 -24 -25 -26 -27 -28 -29 -30 -31
leaf_value=-0.037366528346648817 0.024216614575963441 -0.10702543505874025 0.13708932370529106 -0.13060472155742056 0.10172118687037807 -0.0029598602433604237 0.11164207874436016 0.20047227612613014 0.055551223250538989 -0.11168899482705724 0.21246984854422341 -0.013698259428211266 0.18725713017722131 0.26576675562820112 0.071200044590569 -0.18791660643602612 -0.16561954112656249 -0.036701709977861624 -0.069695517094612594 0.18526110382809591 0.16293502553891787 -0.012581323880938728 0.028492034694607211 0.32987925997819878 0.2769563497263367 0.12292348022098568 0.18549991015148146 -0.066091742540592024 0.13504863191549138 -0.20119513647414827
leaf_weight=315 209 1183 112 365 486 617 188 142 368 154 88 274 179 103 242 539 233 62 20 165 246 25 317 39 165 158 195 518 46 247
leaf_count=315 209 1183 112 365 486 617 188 142 368 154 88 274 179 103 242 539 233 62 20 165 246 25 317 39 165 158 195 518 46 247
internal_value=0 -0.0878193 0.136568 -0.136152 0.0993571 -0.0208494 0.130024 0.213244 0.0668319 -0.164209 0.243614 -0.0449498 0.190866 0.215933 0.0777736 -0.169969 -0.158786 -0.101733 -0.179357 0.152987 0.140716 -0.105071 0.00771495 0.264592 0.254527 0.0961094 0.167839 -0.0552293 0.0813985 -0.183927
internal_weight=0 4869 3131 2828 2108 2041 1085 1023 1023 1558 434 1107 589 282 814 1404 865 1270 500 599 434 1208 934 292 253 446 307 833 288 480
internal_count=8000 4869 3131 2828 2108 2041 1085 1023 1023 1558 434 1107 589 282 814 1404 865 1270 500 599 434 1208 934 292 253 446 307 833 288 480
is_linear=0
shrinkage=0.05


Tree=23
num_leaves=31
num_cat=0
split_feature=3 4 3 4 3 2 3 1 0 0 4 1 1 0 4 0 2 2 4 3 0 2 0 4 1 4 1 4 3 4
split_gain=34664.9 4802.8 3949.01 780.497 708.168 618.86 519.082 222.842 151.484 131.257 161.754 126.266 121.583 118.96 104.463 99.8168 98.5394 91.8595 89.6763 165.527 85.1459 84.9784 84.8022 83.6449 82.5911 81.4264 73.425 71.4151 85.9176 71.2914
threshold=0.98234498500823986 0.77571487426757824 1.5252295732498171 0.97213697433471691 1.242451071739197 1.7293327450752261 0.6336895525455476 2.4817337989807133 0.76174983382225048 1.3967060446739199 0.81886327266693126 2.4691324234008794 2.3814214468002324 2.0653054714202885 1.5075606703758242 1.711910665035248 1.6313529014587405 0.62739586830139171 1.1127052903175356 0.18311385065317157 1.2222512364387514 1.071400046348572 1.9127149581909182 0.54767242074012767 2.4915945529937749 1.5604956746101382 2.4072988033294682 0.91159945726394664 0.28442777693271643 0.45769126713275915
decision_type=2 2 2 2 2 2 2 2 2 2 2 2 2 2 2 2 2 2 2 2 2 2 2 2 2 2 2 2 2 2
left_child=1 6 4 17 12 9 -1 29 25 16 15 18 -2 -8 20 -11 -4 24 19 26 -10 -14 -21 -17 27 -7 -5 -3 -29 -6
right_child=2 3 5 11 7 8 13 -9 14 10 -12 -13 21 -15 -16 23 -18 -19 -20 22 -22 -23 -24 -25 -26 -27 -28 28 -30 -31
leaf_value=-0.061169906232491772 -0.00092707540703378273 -0.10256166091317712 0.10851954498947025 -0.14314839015409628 0.059403701951146776 0.12113753720823489 -0.022794732353079709 0.13153346473787206 0.20186838039691701 0.12400855645081386 0.21049308912177903 -0.10963656384032963 0.034430350158370475 0.0094810237397128256 0.28232672141010778 0.11959795532206757 0.15941678760680369 -0.035117931842483116 -0.18656863001129689 -0.13514581992318861 0.25682408394719225 0.06893959567045635 -0.17945089368747477 0.20569665588746686 -0.075380404536234319 0.20297424428841829 -0.093112797834036712 -0.11209525583255647 -0.16589651266735861 0.095195672297294337
leaf_weight=828 143 634 183 233 201 38 694 401 167 158 188 121 408 485 110 39 198 47 309 136 122 317 525 102 180 152 107 206 116 452
leaf_count=828 143 634 183 233 201 38 694 401 167 158 188 121 408 485 110 39 198 47 309 136 122 317 525 102 180 152 107 206 116 452
internal_value=0 -0.0890011 0.121715 -0.133666 0.0746528 0.183797 -0.0308271 0.102195 0.223356 0.156954 0.174152 -0.158508 0.0412084 -0.0095176 0.240855 0.151301 0.13497 -0.103617 -0.163022 -0.155753 0.225068 0.0495193 -0.170335 0.181883 -0.106451 0.186608 -0.127402 -0.112301 -0.131478 0.0841786
internal_weight=0 4621 3379 2614 1922 1457 2007 1054 589 868 487 1431 868 1179 399 299 381 1183 1310 1001 289 725 661 141 1136 190 340 956 322 653
internal_count=8000 4621 3379 2614 1922 1457 2007 1054 589 868 487 1431 868 1179 399 299 381 1183 1310 1001 289 725 661 141 1136 190 340 956 322 653
is_linear=0
shrinkage=0.05


Tree=24
num_leaves=31
num_cat=0
split_feature=3 3 4 2 3 4 4 1 1 2 0 0 2 0 0 4 1 2 3 0 4 0 0 1 1 2 4 1 2 4
split_gain=31330.5 4360.55 3510.27 799.401 669.777 579.221 444.911 182.384 181.456 136.954 146.997 124.569 118.984 115.879 109.052 107.087 87.3501 92.0739 153.597 80.5585 71.3101 94.834 92.6158 71.2596 64.6956 58.1824 57.9277 54.7797 53.3453 48.365
threshold=0.90489724278450023 1.4839689135551455 0.84354591369628917 1.6491895318031313 1.1454176306724551 0.66516888141632091 1.0209723114967348 2.3425853252410893 2.4240162372589116 1.8134735822677615 1.0281180739402773 2.0709023475646977 1.2961348891258242 0.47223466634750372 2.0920172929763798 1.1794483065605166 2.4633085727691655 0.48634517192840582 0.32021957635879522 1.4205413460731509 0.73865431547164928 1.6582003235816958 1.5645183324813845 2.4678305387496953 2.5752544403076176 0.73497694730758678 0.89093557000160228 2.3681173324584965 0.3401846736669541 0.54767242074012767
decision_type=2 2 2 2 2 2 2 2 2 2 2 2 2 2 2 2 2 2 2 2 2 2 2 2 2 2 2 2 2 2
left_child=2 4 5 7 14 11 16 -3 -6 10 -5 25 -10 -11 -2 19 17 18 -4 -12 21 -9 26 28 27 -1 -22 -7 -8 -23
right_child=1 3 6 9 8 24 23 20 12 13 15 -13 -14 -15 -16 -17 -18 -19 -20 -21 22 29 -24 -25 -26 -27 -28 -29 -30 -31
leaf_value=-0.043550726939572598 0.011408215719310236 0.098952743048021721 -0.11012564438479665 0.15026547331696366 0.057256514681692752 -0.053699903682544549 -0.16279466126491512 0.094726569696601731 0.079110645984987127 0.16235552619213323 0.14649131220270631 -0.00078238844369534844 0.12146281523446625 0.24182082702590588 0.04888643051492849 0.23609311107106001 -0.088534466062218375 -0.064061357923934276 -0.15642877270830474 0.21266405785807183 0.12179188553161556 0.12733916102215662 0.2137020324320297 -0.1071409218115186 -0.0057729237433622078 -0.015985394380812611 0.18345733156270394 -0.085857644805778344 -0.080307485335237128 0.17144167336305113
leaf_weight=567 575 275 540 189 420 166 988 107 349 56 92 412 316 254 293 154 275 66 268 92 92 116 79 65 31 289 65 655 20 134
leaf_count=567 575 275 540 189 420 166 988 107 349 56 92 412 316 254 293 154 275 66 268 92 92 116 79 65 31 289 65 655 20 134
internal_value=0 0.107803 -0.0908207 0.16623 0.0567964 -0.044795 -0.134734 0.13261 0.082986 0.201095 0.185581 -0.0233718 0.099236 0.227466 0.0240593 0.205328 -0.113112 -0.120846 -0.125484 0.179579 0.148218 0.134119 0.169544 -0.157886 -0.0766784 -0.0342442 0.147323 -0.0793557 -0.161158 0.150979
internal_weight=0 3658 4342 1705 1953 2120 2222 868 1085 837 527 1268 665 310 868 338 1149 874 808 184 593 357 236 1073 852 856 157 821 1008 250
internal_count=8000 3658 4342 1705 1953 2120 2222 868 1085 837 527 1268 665 310 868 338 1149 874 808 184 593 357 236 1073 852 856 157 821 1008 250
is_linear=0
shrinkage=0.05


Tree=25
num_leaves=31
num_cat=0
split_feature=3 3 4 2 3 4 4 0 1 2 0 4 3 1 0 0 0 4 2 1 2 4 0 1 0 1 1 0 4 1
split_gain=28279.4 4294.81 2872.81 863.622 567.046 521.361 339.236 175.504 142.269 132.693 141.063 118.305 105.179 146.394 104.58 103.827 99.5482 96.5775 93.0791 80.7106 78.4827 67.5267 86.1613 66.7774 58.3909 55.777 50.8091 50.0523 55.3885 49.791
threshold=0.86771494150161754 1.4492273926734927 0.86390933394432079 1.6403768658638003 1.1116735935211184 0.66516888141632091 1.029357433319092 1.5944035649299624 2.415596723556519 1.8134735822677615 1.2222512364387514 0.62218064069747936 0.33128233253955847 2.328632235527039 0.47223466634750372 2.0042328834533696 2.0681236982345585 1.0018802881240847 1.2961348891258242 2.4986875057220463 1.5768483281135561 1.2000817060470583 0.96660247445106517 2.6031521558761601 1.7559179067611697 2.4519722461700444 2.4052155017852788 1.2522767782211306 0.81105566024780285 2.5420694351196294
decision_type=2 2 2 2 2 2 2 2 2 2 2 2 2 2 2 2 2 2 2 2 2 2 2 2 2 2 2 2 2 2
left_child=2 4 5 7 15 16 12 20 -6 10 21 24 -4 -14 -11 -2 -1 26 29 -15 -3 -5 -23 -7 -9 -8 -12 -22 -29 -10
right_child=1 3 6 9 8 23 25 11 18 14 17 -13 13 19 -16 -17 -18 -19 -20 -21 27 22 -24 -25 -26 -27 -28 28 -30 -31
leaf_value=-0.035405465734170985 -0.0031428170696337272 0.087149392661579589 -0.10130937169232637 0.10684403722441244 0.046465385711278222 -0.077225397851999694 -0.15520007630091151 0.095890536151327338 0.054907391781858605 0.15423789047513278 0.098047952135823749 0.18045102433215066 -0.06659642739440573 -0.15834714110930384 0.22972983363821267 0.031618121489465065 -0.0040524254171978814 0.22743813995699824 0.11042446416651719 -0.056349527337177498 0.085739486810392521 0.14070549479266861 0.20044782027078301 0.002530837481011771 0.14259979310342139 -0.11114229923937913 0.18452454071610991 0.085800311606194113 0.15631837264267767 0.08897835212628713
leaf_weight=775 355 329 774 63 350 938 911 103 217 56 23 153 64 254 254 544 376 156 244 21 57 150 101 27 191 78 65 36 123 212
leaf_count=775 355 329 774 63 350 938 911 103 217 56 23 153 64 254 254 544 376 156 244 21 57 150 101 27 191 78 65 36 123 212
internal_value=0 0.0992781 -0.0890157 0.153441 0.0468624 -0.0478885 -0.130417 0.121571 0.0723216 0.189864 0.175291 0.144793 -0.111482 -0.134707 0.216093 0.0178916 -0.0251633 0.203811 0.0857683 -0.150558 0.102524 0.153129 0.164746 -0.0749939 0.126236 -0.151725 0.161924 0.125941 0.140353 0.0717445
internal_weight=0 3782 4218 1860 1922 2116 2102 992 1023 868 558 447 1113 339 310 899 1151 244 673 275 545 314 251 965 294 989 88 216 159 429
internal_count=8000 3782 4218 1860 1922 2116 2102 992 1023 868 558 447 1113 339 310 899 1151 244 673 275 545 314 251 965 294 989 88 216 159 429
is_linear=0
shrinkage=0.05


Tree=26
num_leaves=31
num_cat=0
split_feature=3 3 4 3 4 2 3 1 0 0 1 2 0 4 4 3 1 4 0 4 2 4 1 1 2 1 2 1 4 3
split_gain=25537.1 3256.65 3157.62 648.031 497.648 456.782 392.472 177.696 121.994 116.603 104.721 124.766 91.1931 86.4248 78.6692 113.861 78.4606 124.68 74.0058 82.1465 70.7754 70.2739 67.3464 67.0974 72.6071 66.6349 62.4424 67.5924 61.5005 92.9311
threshold=0.94456383585929882 1.5252295732498171 0.80238115787506115 1.242451071739197 0.99544239044189464 1.7293327450752261 0.59714722633361828 2.5230380296707158 0.76174983382225048 2.0042328834533696 2.2622158527374272 1.6313529014587405 2.0831327438354497 1.5075606703758242 1.1203649044036867 0.18311385065317157 2.3512473106384282 0.45769126713275915 1.5944035649299624 0.65910553932189953 1.046643912792206 1.5604956746101382 2.4079692363739018 2.4915945529937749 0.62739586830139171 2.3217984437942509 0.40703058242797857 2.4763638973236088 0.91159945726394664 0.28442777693271643
decision_type=2 2 2 2 2 2 2 2 2 2 2 2 2 2 2 2 2 2 2 2 2 2 2 2 2 2 2 2 2 2
left_child=2 3 6 9 23 10 -1 16 21 -2 -3 18 -8 25 15 22 -5 -18 -12 -20 -11 -7 -6 24 28 -10 27 -17 -4 -30
right_child=1 5 4 7 14 8 12 -9 13 20 11 -13 -14 -15 -16 26 17 -19 19 -21 -22 -23 -24 -25 -26 -27 -28 -29 29 -31
leaf_value=-0.058530795275826379 0.013419224397172439 0.098685528860519664 -0.090071455665978781 0.049007457674845149 -0.12560999152896582 0.097919068559041589 -0.02333742815428453 0.12059134486002186 0.17451360429407758 0.033343067160900013 0.1131624502118469 0.17533640527462846 0.0066228425209459048 0.24514221099082745 -0.16265693577780871 -0.15282503168881811 0.058880782244788391 0.1068009205593607 0.12577345176360821 0.19035696453332471 0.070051269060679877 0.17394410217464201 -0.080648035471058421 -0.065742497945671816 -0.031944431088203253 0.22414604356631723 -0.062182168256374418 -0.09274432949383038 -0.097843131794660726 -0.14514740693881817
leaf_weight=833 466 164 535 211 242 38 770 296 181 345 291 210 379 110 270 571 250 297 119 84 212 152 127 180 39 108 22 51 283 164
leaf_count=833 466 164 535 211 242 38 770 296 181 345 291 210 379 110 270 571 250 297 119 84 212 152 127 180 39 108 22 51 283 164
internal_value=0 0.100424 -0.0794664 0.0602232 -0.117021 0.157731 -0.0323996 0.0877381 0.191717 0.0318746 0.134669 0.143052 -0.013455 0.207421 -0.138674 -0.132282 0.0749087 0.0848997 0.129327 0.152498 0.0473147 0.15874 -0.110136 -0.0938899 -0.0988522 0.193062 -0.144971 -0.147899 -0.101509 -0.115199
internal_weight=0 3534 4466 2077 2484 1457 1982 1054 589 1023 868 704 1149 399 1283 1013 758 547 494 203 557 190 369 1201 1021 289 644 622 982 447
internal_count=8000 3534 4466 2077 2484 1457 1982 1054 589 1023 868 704 1149 399 1283 1013 758 547 494 203 557 190 369 1201 1021 289 644 622 982 447
is_linear=0
shrinkage=0.05


Tree=27
num_leaves=31
num_cat=0
split_feature=3 4 3 4 3 2 3 1 1 0 0 1 4 1 1 0 4 4 3 0 0 4 2 4 0 1 4 4 0 3
split_gain=23070.9 3806.56 2147.01 703.671 363.275 317.654 311.977 177.596 116.628 110.099 108.359 101.991 96.2618 84.7694 87.8296 83.5273 77.9985 74.2754 162.8 77.8189 71.119 67.9991 66.8092 65.0372 60.9419 57.5707 99.4234 55.7892 55.3788 52.7283
threshold=1.0459719896316531 0.72506326436996471 1.5493003129959109 0.95281609892845165 1.2940962910652163 1.7293327450752261 0.79946440458297741 2.4915945529937749 2.4691324234008794 0.76174983382225048 1.3163928985595705 2.4035902023315434 0.85648298263549816 2.3441059589385991 2.6031521558761601 2.0741862058639531 1.5075606703758242 1.0973398089408877 0.23076207935810092 1.915178716182709 1.5015463232994082 0.62656244635581981 1.8477858901023867 0.40975522994995123 1.2222512364387514 2.3408758640289311 0.56415018439292919 1.2266532182693484 2.0042328834533696 0.41052716970443731
decision_type=2 2 2 2 2 2 2 2 2 2 2 2 2 2 2 2 2 2 2 2 2 2 2 2 2 2 2 2 2 2
left_child=1 6 4 13 11 10 15 25 17 22 -4 -2 20 -3 29 -1 24 18 -5 -20 -12 -22 -7 -9 -11 -6 -27 -26 -8 -15
right_child=2 3 5 8 7 9 28 23 -10 16 12 -13 -14 14 -16 -17 -18 -19 19 -21 21 -23 -24 -25 27 26 -28 -29 -30 -31
leaf_value=-0.040063274067716911 0.012091749151686587 -0.042964069356002374 0.10670372380310139 -0.10176523508506333 0.052810112154325864 0.12383878160680675 -0.010300344790401612 0.099587873828520287 -0.085215997864687434 0.16378169209195667 0.077944881552999404 0.054768438479577769 0.17183358751646083 -0.079044323256293264 0.021373563826111705 -0.0084446030286756315 0.2328852090155781 -0.1497968348589824 -0.10594078098578402 -0.15193540497498642 0.083443421547029814 0.15719475532189414 0.18340858312164954 0.14167680556279871 0.16185496423289836 0.062731829177453777 0.10761609086290157 0.23389141688854106 0.016713710581382161 -0.10586188144585773
leaf_weight=831 187 153 259 440 212 104 281 221 148 167 59 557 212 935 20 279 110 410 116 444 40 143 86 157 40 261 234 82 584 228
leaf_count=831 187 153 259 440 212 104 281 221 148 167 59 557 212 935 20 279 110 410 116 444 40 143 86 157 40 261 234 82 584 228
internal_value=0 -0.0680891 0.105885 -0.104611 0.0709517 0.154959 -0.0145733 0.0894041 -0.127442 0.182132 0.132512 0.0440419 0.147234 -0.0779859 -0.0825153 -0.0321159 0.19705 -0.131874 -0.124525 -0.142408 0.125684 0.141075 0.150803 0.11707 0.183409 0.0746125 0.08395 0.210274 0.00793804 -0.0843019
internal_weight=0 4869 3131 2894 1829 1302 1975 1085 1558 589 713 744 454 1336 1183 1110 399 1410 1000 560 242 183 190 378 289 707 495 122 865 1163
internal_count=8000 4869 3131 2894 1829 1302 1975 1085 1558 589 713 744 454 1336 1183 1110 399 1410 1000 560 242 183 190 378 289 707 495 122 865 1163
is_linear=0
shrinkage=0.05


Tree=28
num_leaves=31
num_cat=0
split_feature=3 3 4 2 4 3 4 1 1 2 0 1 3 2 0 4 0 4 4 1 1 4 0 1 4 1 4 1 1 3
split_gain=20847.8 3161.77 2125.42 729.052 428.497 341.776 217.156 157.798 113.499 107.685 104.916 102.281 90.6567 88.476 82.4274 75.7658 72.7708 70.365 67.7408 69.334 65.7038 64.6169 63.6716 62.3386 65.1015 58.1623 84.6175 56.0553 45.9198 50.1481
threshold=0.86771494150161754 1.4178512692451479 0.87988981604576122 1.6313529014587405 0.66516888141632091 1.1116735935211184 1.029357433319092 2.452997207641602 2.3596893548965459 1.7798004150390627 1.3301202058792116 2.0225344896316533 0.29935680329799658 0.46762269735336309 2.0920172929763798 0.95281609892845165 2.0681236982345585 0.7294830083847047 1.6122436523437502 2.127988457679749 2.4763638973236088 1.671423137187958 0.47223466634750372 2.5420694351196294 0.24922780692577365 2.3194350004196171 0.81105566024780285 2.5604740381240849 2.3681173324584965 0.43595543503761297
decision_type=2 2 2 2 2 2 2 2 2 2 2 2 2 2 2 2 2 2 2 2 2 2 2 2 2 2 2 2 2 2
left_child=2 5 4 7 16 14 12 25 -7 10 -5 21 -4 20 -2 -12 -1 -9 19 -13 -14 -11 -23 24 -10 -3 -27 28 -6 -30
right_child=1 3 6 9 27 8 -8 17 23 11 15 18 13 -15 -16 -17 -18 -19 -20 -21 -22 22 -24 -25 -26 26 -28 -29 29 -31
leaf_value=-0.030247285736596144 0.004676939880884831 0.065913343347726888 -0.085761365430141401 0.12637928765431317 -0.046269392362187106 0.01480900281596411 -0.1303687647098101 0.11653575210296169 0.034143712008814622 0.10481938522954751 0.13573970981192809 0.14374531851708178 -0.13412039838516235 -0.055790557292240806 0.036758206860456014 0.20168826221037808 -0.0034406926140870004 0.17489911112172854 0.26346669059014177 0.20357564149286886 -0.066566874095106796 0.13701300066276284 0.22386939586829768 0.085164062345716871 0.070851875277354801 0.080488249879699381 0.12778248305595363 -0.010298673240971869 -0.067036542698623303 -0.098169586787872742
leaf_weight=775 598 237 630 284 197 125 989 371 207 58 73 65 295 52 301 108 376 60 34 190 41 51 36 277 290 272 145 44 658 161
leaf_count=775 598 237 630 284 197 125 989 371 207 58 73 65 295 52 301 108 376 60 34 190 41 51 36 277 290 272 145 44 658 161
internal_value=0 0.085241 -0.0764295 0.128762 -0.0426138 0.0372178 -0.113682 0.101172 0.0590173 0.16206 0.145341 0.179973 -0.0974713 -0.116485 0.0154183 0.175091 -0.0214903 0.124661 0.197166 0.188325 -0.125877 0.145702 0.172956 0.0661568 0.0555631 0.0856925 0.0969338 -0.0655507 -0.0679435 -0.0731568
internal_weight=0 3782 4218 1984 2211 1798 2007 1085 899 899 465 434 1018 388 899 181 1151 431 289 255 336 145 87 774 497 654 417 1060 1016 819
internal_count=8000 3782 4218 1984 2211 1798 2007 1085 899 899 465 434 1018 388 899 181 1151 431 289 255 336 145 87 774 497 654 417 1060 1016 819
is_linear=0
shrinkage=0.05


Tree=29
num_leaves=31
num_cat=0
split_feature=2 4 3 4 3 2 4 1 0 0 4 4 4 0 4 0 1 0 1 4 4 4 0 4 3 2 1 1 3 1
split_gain=18825.3 2522.46 2236.85 424.754 421.314 344.532 282.683 144.885 117.426 109.653 103.605 103.276 102.253 92.6049 85.7269 84.9228 76.9185 76.2277 66.8353 66.5187 64.716 63.666 62.8106 60.7516 124.926 59.3394 58.2409 60.7268 65.4641 62.1752
threshold=0.93724045157432567 0.77208226919174205 1.5252295732498171 0.96803095936775219 1.2079635858535769 1.6977468729019167 0.44739380478858953 2.396027803421021 1.3967060446739199 1.0007097721099856 0.42524959146976476 0.81105566024780285 1.4302414655685427 2.0042328834533696 1.2472615242004397 1.9867581129074099 2.4691324234008794 1.711910665035248 2.0225344896316533 1.6122436523437502 1.671423137187958 0.54767242074012767 2.0900437831878667 1.1127052903175356 0.18311385065317157 0.48634517192840582 2.3308331966400151 2.4915945529937749 0.38238789141178137 2.3671779632568364
decision_type=2 2 2 2 2 2 2 2 2 2 2 2 2 2 2 2 2 2 2 2 2 2 2 2 2 2 2 2 2 2
left_child=1 6 4 26 13 8 -1 -6 -4 12 15 17 -7 -2 -11 -9 23 -10 20 -20 -14 -19 -8 24 -5 -26 -3 28 -28 -30
right_child=2 3 5 16 7 9 22 10 11 14 -12 -13 18 -15 -16 -17 -18 21 19 -21 -22 -23 -24 -25 25 -27 27 -29 29 -31
leaf_value=-0.0012831285040524403 0.0096714873615434266 -0.035504229594200985 0.088292561729708896 -0.089797763592616153 0.048371772925303501 0.09260902011093948 -0.044019966236965948 0.054415892560443949 0.085341385549675838 0.14876184065282869 0.11043313262213127 0.15819438457359758 0.10046174499707226 0.042946507365223735 0.20264866353107799 0.096796139360119993 -0.079078550264635672 0.082046356878293855 0.16482945960884982 0.25347145741650151 0.1643081599295895 0.15716047093045571 -0.0051151615623171477 -0.139528362875428 -0.1294186720087723 -0.044026361505824396 -0.077576620935688234 -0.052566925443509063 -0.074470047290661312 -0.13337253999098009
leaf_weight=833 407 82 304 346 384 80 982 283 152 117 277 178 73 430 200 203 125 39 98 27 87 102 116 309 653 21 724 179 73 116
leaf_count=833 407 82 304 346 384 80 982 283 152 117 277 178 73 430 200 203 125 39 98 27 87 102 116 309 653 21 724 179 73 116
internal_value=0 -0.0666349 0.0882854 -0.0985155 0.0537387 0.135328 -0.0232469 0.0734214 0.112519 0.161246 0.0860281 0.128155 0.142561 0.0267662 0.18276 0.0721181 -0.116578 0.109905 0.156583 0.183978 0.135179 0.136385 -0.0399098 -0.120105 -0.114221 -0.126758 -0.0761449 -0.0791966 -0.0844175 -0.110622
internal_weight=0 4559 3441 2628 1984 1457 1931 1147 775 682 763 471 365 837 317 486 1454 293 285 125 160 141 1098 1329 1020 674 1174 1092 913 189
internal_count=8000 4559 3441 2628 1984 1457 1931 1147 775 682 763 471 365 837 317 486 1454 293 285 125 160 141 1098 1329 1020 674 1174 1092 913 189
is_linear=0
shrinkage=0.05


Tree=30
num_leaves=31
num_cat=0
split_feature=3 3 4 2 4 3 4 0 1 2 0 4 4 3 0 2 0 0 0 1 3 2 2 4 0 0 1 4 1 4
split_gain=17010.7 2636.75 1695.88 595.229 347.24 288.797 170.682 140.304 105.525 86.9024 88.9079 86.2896 86.1663 82.9284 75.9429 72.5021 63.4732 55.5994 55.1175 53.2323 50.4811 49.5993 46.7604 46.7251 62.4791 46.2309 44.1256 40.1748 71.8881 41.503
threshold=0.85850226879119884 1.4178512692451479 0.88425117731094371 1.6313529014587405 0.66516888141632091 1.0946968793869021 1.029357433319092 1.5944035649299624 2.4148712158203129 1.8134735822677615 1.2222512364387514 0.74704000353813182 0.99852335453033458 0.29935680329799658 0.47223466634750372 0.48634517192840582 2.1068152189254765 2.1219571828842168 2.0831327438354497 2.4763638973236088 1.5252295732498171 1.2961348891258242 1.5499559640884402 1.2000817060470583 1.0281180739402773 1.4635854959487917 2.5146577358245854 1.671423137187958 2.0225344896316533 1.6122436523437502
decision_type=2 2 2 2 2 2 2 2 2 2 2 2 2 2 2 2 2 2 2 2 2 2 2 2 2 2 2 2 2 2
left_child=2 5 4 7 18 16 13 20 -7 10 23 26 25 -4 -11 19 -2 -6 -1 -15 -3 -10 -13 -5 -25 -12 -9 28 -16 -30
right_child=1 3 6 9 17 8 -8 11 21 14 12 22 -14 15 27 -17 -18 -19 -20 -21 -22 -23 -24 24 -26 -27 -28 -29 29 -31
leaf_value=-0.026593713055584361 0.0033985114074711591 0.053325210524947146 -0.077313674225519047 0.080537483418465172 -0.061380636349822264 0.027385773353743582 -0.11784328064933142 0.086420967901564824 0.054635069031776819 0.11513000283491331 0.079944555583774973 0.11222586267217614 0.17949789598446364 -0.12232398903768234 0.10328660174571676 -0.046897486805142774 0.032982022330779237 0.012629732628490879 -0.0015282479351263383 -0.057882122754143589 0.084939003089206475 0.085194570514122742 0.20825596497336846 0.11165095051310475 0.16699731778347418 0.147357283025565 0.1168322765158131 0.22762307706873069 0.17358415692137502 0.24070393599420514
leaf_weight=823 610 196 621 68 1057 300 989 219 477 56 41 21 161 292 33 44 258 26 299 36 355 184 32 181 71 67 262 37 157 27
leaf_count=823 610 196 621 68 1057 300 989 219 477 56 41 21 161 292 33 44 258 26 299 36 355 184 32 181 71 67 262 37 157 27
internal_value=0 0.0764021 -0.0695772 0.116324 -0.039408 0.0330974 -0.103141 0.0913943 0.0519798 0.14641 0.135132 0.109658 0.15632 -0.0884973 0.167839 -0.107167 0.0121918 -0.0596038 -0.0199141 -0.115251 0.0736936 0.0631419 0.170209 0.11732 0.127245 0.121766 0.102986 0.17946 0.171247 0.183435
internal_weight=0 3813 4187 1984 2205 1829 1982 1085 961 899 589 534 269 993 310 372 868 1083 1122 328 551 661 53 320 252 108 481 254 217 184
internal_count=8000 3813 4187 1984 2205 1829 1982 1085 961 899 589 534 269 993 310 372 868 1083 1122 328 551 661 53 320 252 108 481 254 217 184
is_linear=0
shrinkage=0.05


Tree=31
num_leaves=31
num_cat=0
split_feature=3 2 4 2 3 4 4 0 1 2 0 4 4 0 0 4 2 3 1 0 0 0 0 4 0 4 3 0 0 1
split_gain=15352.2 2380.09 1531.24 455.002 331.608 275.051 185.438 132.503 108.507 78.4298 81.0699 77.183 70.3171 68.9357 68.5385 60.0739 58.3258 57.9191 95.971 55.3344 55.2792 46.9325 46.3577 43.5308 42.4999 42.4004 78.3799 81.8394 42.385 39.1724
threshold=0.85850226879119884 1.4495151638984682 0.86390933394432079 1.6313529014587405 1.1116735935211184 0.68906149268150341 1.0234827995300295 1.5944035649299624 2.3512473106384282 1.8134735822677615 1.1482846140861513 1.1097686886787417 0.56982526183128368 2.1068152189254765 0.47223466634750372 0.44739380478858953 1.2961348891258242 0.328001618385315 2.328632235527039 2.0437053442001347 1.862236559391022 1.8213798999786379 1.3787152767181399 0.3022140264511109 2.1308070421218877 1.133188843727112 0.1584720462560654 1.9232304096221926 2.0572410821914677 2.4704431295394902
decision_type=2 2 2 2 2 2 2 2 2 2 2 2 2 2 2 2 2 2 2 2 2 2 2 2 2 2 2 2 2 2
left_child=2 4 5 7 13 15 17 -3 -6 10 -5 22 20 -2 -11 -1 28 -4 -19 -20 -9 -18 -12 -23 -7 26 27 -8 -10 -28
right_child=1 3 6 9 8 24 25 12 16 14 11 -13 -14 -15 -16 -17 21 18 19 -21 -22 23 -24 -25 -26 -27 29 -29 -30 -31
leaf_value=-0.0068713566196151729 0.0040025660634093897 0.072629009516651119 -0.073606808145379427 0.10848486999702073 0.010316509008465246 -0.058437996697830313 -0.10112729482497769 0.064645370754366674 0.037870886062029763 0.10937360543400787 0.086550275130529319 0.17163530668146126 0.13067116096831752 0.033738876644188801 0.1704869825289248 -0.029590841025680888 0.057286818305504895 -0.042410022497605955 -0.11849910742528072 -0.032001901465465735 0.11825807591305311 0.070283091847516618 0.14184949883611617 0.11796191552905427 0.015281191207276666 -0.13439727295092449 -0.1220146871749007 -0.041959156450114797 0.066598295111990988 -0.070635098548150782
leaf_weight=501 652 525 730 274 126 870 253 106 328 56 59 150 211 278 254 694 196 61 245 20 88 105 106 88 20 165 512 76 211 40
leaf_count=501 652 525 730 274 126 870 253 106 328 56 59 150 211 278 254 694 196 61 245 20 88 105 106 88 20 165 512 76 211 40
internal_value=0 0.072582 -0.0660983 0.113725 0.0346531 -0.0357382 -0.0962129 0.0892057 0.0538545 0.13909 0.128375 0.145676 0.110694 0.0128915 0.159448 -0.0200658 0.0597659 -0.0814323 -0.0989553 -0.111971 0.088965 0.0745212 0.122076 0.0920232 -0.0567814 -0.111135 -0.106778 -0.0874594 0.0491168 -0.118292
internal_weight=0 3813 4187 1829 1984 2085 2102 930 1054 899 589 315 405 930 310 1195 928 1056 326 265 194 389 165 193 890 1046 881 329 539 552
internal_count=8000 3813 4187 1829 1984 2085 2102 930 1054 899 589 315 405 930 310 1195 928 1056 326 265 194 389 165 193 890 1046 881 329 539 552
is_linear=0
shrinkage=0.05


Tree=32
num_leaves=31
num_cat=0
split_feature=2 4 3 3 4 4 2 1 1 1 0 4 4 4 2 0 3 0 0 4 0 4 4 2 1 1 4 1 4 3
split_gain=13869.5 1861.75 1650.19 372.156 265.738 255.737 191.688 124.134 98.6866 79.0632 71.0174 90.6306 66.3006 57.8712 61.0358 54.6098 53.518 51.6167 50.7234 50.2544 50.1178 70.5544 49.512 48.8467 43.6806 42.6739 40.1296 72.403 39.8683 78.1285
threshold=0.93724045157432567 0.80238115787506115 1.5493003129959109 1.2940962910652163 1.0209723114967348 0.50974884629249584 1.7607508301734927 2.4915945529937749 2.4072988033294682 2.0589783191680913 1.3163928985595705 1.0091017484664919 1.5604956746101382 0.92377281188964855 0.18870756030082705 0.56200402975082409 1.6846412420272829 2.1068152189254765 1.910144090652466 1.5075606703758242 1.5944035649299624 0.74704000353813182 0.54767242074012767 1.071400046348572 2.5508018732070927 2.1615676879882817 0.45769126713275915 2.3360370397567753 1.1302606463432314 0.1584720462560654
decision_type=2 2 2 2 2 2 2 2 2 2 2 2 2 2 2 2 2 2 2 2 2 2 2 2 2 2 2 2 2 2
left_child=1 5 3 8 13 17 10 26 -2 12 16 20 -8 -3 -15 -14 -4 -1 -16 25 -12 -22 -9 -10 -7 -11 -5 -28 29 -6
right_child=2 4 6 7 28 24 9 22 23 19 11 -13 15 14 18 -17 -18 -19 -20 -21 21 -23 -24 -25 -26 -27 27 -29 -30 -31
leaf_value=-0.011945277763230549 0.003405583026051812 -0.062517110836652928 0.068371103821376691 0.034657814374422988 -0.080318481894018121 -0.043097132005781413 0.042926050120672077 0.08639966608686632 0.025088963102185547 0.10778691417989779 0.089311608218194102 0.15886863817160685 0.10583369104551708 -0.069470868129749702 -0.074212572298568702 0.16530596053504945 0.10916698186095614 0.012412828535670915 -0.1167535856707746 0.18916705269947456 0.097880717058840258 0.16231668369208757 0.1465792888012539 0.050583045521358963 -0.0092388691692861617 0.15927819424499634 0.038446948699380951 0.076550867322728824 -0.12594052983538973 -0.11154943827472208
leaf_weight=718 301 741 176 157 307 940 25 340 393 54 206 103 93 376 116 66 148 312 177 100 98 75 38 360 106 158 191 359 190 576
leaf_count=718 301 741 176 157 307 940 25 340 393 54 206 103 93 376 116 66 148 312 177 100 98 75 38 360 106 158 191 359 190 576
internal_value=0 -0.0571955 0.0757791 0.0487647 -0.0864115 -0.0222517 0.12016 0.0693204 0.0276044 0.144616 0.10511 0.117278 0.11862 -0.0721422 -0.0828031 0.130521 0.0870065 -0.0045669 -0.0999117 0.159947 0.105975 0.125816 0.0924498 0.0372774 -0.039666 0.146163 0.056954 0.0633185 -0.105162 -0.100691
internal_weight=0 4559 3441 2139 2483 2076 1302 1085 1054 496 806 482 184 1410 669 159 324 1030 293 312 379 173 378 753 1046 212 707 550 1073 883
internal_count=8000 4559 3441 2139 2483 2076 1302 1085 1054 496 806 482 184 1410 669 159 324 1030 293 312 379 173 378 753 1046 212 707 550 1073 883
is_linear=0
shrinkage=0.05


Tree=33
num_leaves=31
num_cat=0
split_feature=3 4 3 4 3 3 1 2 1 1 0 0 4 2 1 1 2 3 0 4 3 4 0 4 0 1 2 1 4 3
split_gain=12525.7 2255.73 1059.9 385.35 221.932 204.059 118.73 92.9654 81.5608 76.8532 67.6264 60.7248 91.6897 60.4264 55.9421 56.7248 49.6927 49.0719 47.4519 47.412 135.223 46.1415 46.8565 54.452 45.7848 45.3583 44.7725 43.8235 42.1759 54.0474
threshold=1.0761122703552248 0.72506326436996471 1.6013042926788332 0.94635847210884105 1.3925178050994875 0.79946440458297741 2.452997207641602 1.7798004150390627 2.3512473106384282 2.4691324234008794 0.84668663144111644 1.2222512364387514 0.99852335453033458 0.50349342823028576 2.3441059589385991 2.6031521558761601 1.8541672229766848 0.41052716970443731 2.0042328834533696 1.0908956527709963 0.23076207935810092 0.65910553932189953 1.7559179067611697 0.54767242074012767 2.0741862058639531 2.4240162372589116 0.056953009217977531 2.5535823106765752 1.3975456357002261 1.8526821732521059
decision_type=2 2 2 2 2 2 2 2 2 2 2 2 2 2 2 2 2 2 2 2 2 2 2 2 2 2 2 2 2 2
left_child=1 5 4 14 8 24 -6 11 -2 13 16 -4 -13 19 -3 17 -9 -16 -7 20 26 22 -8 -24 -1 -22 -5 -10 -12 -30
right_child=2 3 7 9 6 18 21 10 27 -11 28 12 -14 -15 15 -17 -18 -19 -20 -21 25 -23 23 -25 -26 -27 -28 -29 29 -31
leaf_value=-0.029589315885125547 -0.0016428639339024908 -0.028209603581360411 0.090194278421567575 -0.0095283965883532877 0.061299052592607817 -0.0077490866132485028 0.054735449220274068 0.098804686300185476 0.038497585961614997 -0.060137129829626525 0.12914876312042492 0.10067749480623678 0.15322107691787623 -0.010764743082464102 -0.056831233687919459 0.022873567037489627 0.14879362609709282 -0.082900697334461565 0.015438949765034191 -0.11150005253179691 -0.095673711314120558 0.13394823525639002 0.088262980946160891 0.14785659988810118 -0.0061799270690189693 -0.12462812325285288 -0.074979574952241654 0.062869913494102772 0.20089212596912695 0.13973703579759317
leaf_weight=831 98 151 248 28 632 334 80 124 556 156 80 198 143 20 897 20 83 226 650 460 310 66 230 46 279 240 391 276 83 64
leaf_count=831 98 151 248 28 632 334 80 124 556 156 80 198 143 20 897 20 83 226 650 460 310 66 230 46 279 240 391 276 83 64
internal_value=0 -0.0485524 0.0806197 -0.0771149 0.0593037 -0.00900946 0.0750121 0.12196 0.0415009 -0.0934832 0.139519 0.109021 0.122712 -0.0970732 -0.0568126 -0.0605912 0.118849 -0.0620777 0.00756821 -0.0982811 -0.0920058 0.0955489 0.0884296 0.0981958 -0.0237053 -0.108309 -0.0706058 0.0465827 0.158368 0.174268
internal_weight=0 4993 3007 2899 1984 2094 1054 1023 930 1605 434 589 341 1449 1294 1143 207 1123 984 1429 969 422 356 276 1110 550 419 832 227 147
internal_count=8000 4993 3007 2899 1984 2094 1054 1023 930 1605 434 589 341 1449 1294 1143 207 1123 984 1429 969 422 356 276 1110 550 419 832 227 147
is_linear=0
shrinkage=0.05


Tree=34
num_leaves=31
num_cat=0
split_feature=2 3 4 2 2 4 4 1 0 0 4 1 0 4 4 3 1 4 3 4 2 3 0 0 1 4 0 1 0 4
split_gain=11324.7 1506.44 1358.8 288.352 227.638 201.02 193.652 114.508 96.8462 77.3018 72.9789 56.9817 53.2105 106.752 88.4257 49.223 46.9969 58.4273 77.7835 51.9642 46.8676 65.9086 62.7672 45.4021 43.6491 46.5389 43.4177 40.1511 34.5128 43.6459
threshold=0.88948553800582897 1.4839689135551455 0.81886327266693126 1.6491895318031313 1.1439105868339541 0.53016844391822826 1.0234827995300295 2.5443712472915654 1.4782960414886477 1.9318497180938723 0.74329504370689403 2.4915945529937749 1.0281180739402773 1.2472615242004397 1.4302414655685427 1.5693593025207522 2.0225344896316533 1.6122436523437502 1.8526821732521059 1.671423137187958 0.65943288803100597 0.32338146865367895 1.9085099101066592 0.47223466634750372 2.3512473106384282 0.24922780692577365 1.3301202058792116 2.5672522783279423 1.7222529649734499 0.50484159588813793
decision_type=2 2 2 2 2 2 2 2 2 2 2 2 2 2 2 2 2 2 2 2 2 2 2 2 2 2 2 2 2 2
left_child=2 4 5 8 9 -1 11 24 15 -2 28 20 14 26 -5 -3 19 18 -18 -16 21 -4 -23 -21 -6 -26 -14 -7 -10 -30
right_child=1 3 6 12 7 27 -8 -9 10 -11 -12 -13 13 -15 16 -17 17 -19 -20 23 -22 22 -24 -25 25 -27 -28 -29 29 -31
leaf_value=-0.0068303350087650198 -0.01018008752298822 0.040863890633442111 -0.063397554446655111 0.06863663151120529 0.019124777258594038 -0.041397899463714492 -0.095410691331146269 0.081363140943538942 0.064319289955507966 0.024825443022907581 0.12381893180536743 -0.040861907294232981 0.085083970460671787 0.16193182003073009 0.072025972710650449 0.077458846359974728 0.14695534103898319 0.20737350763991402 0.042297817777841779 0.098886150012211294 -0.0044457276973670357 -0.051047191556879534 -0.099041833985527281 0.17222898942239254 0.023415558980220318 0.056318305227882275 0.12828577936001914 -0.0064957712675414864 0.066447693748521941 0.11476098557863745
leaf_weight=951 204 173 730 106 164 976 1046 244 157 695 146 184 95 184 73 196 92 28 22 51 26 87 314 36 142 442 150 90 77 119
leaf_count=951 204 173 730 106 164 976 1046 244 157 695 146 184 95 184 73 196 92 28 22 51 26 87 314 36 142 442 150 90 77 119
internal_value=0 0.0658344 -0.0537555 0.099916 0.0351052 -0.0235422 -0.0792855 0.0516199 0.0797241 0.016882 0.0940862 -0.0667076 0.120856 0.13315 0.107927 0.060302 0.121718 0.142656 0.126759 0.103135 -0.0708178 -0.0723436 -0.0886292 0.129237 0.0419174 0.048318 0.111534 -0.0384512 0.0817884 0.0957812
internal_weight=0 3596 4404 1705 1891 2017 2387 992 868 899 499 1341 837 429 408 369 302 142 114 160 1157 1131 401 87 748 584 245 1066 353 196
internal_count=8000 3596 4404 1705 1891 2017 2387 992 868 899 499 1341 837 429 408 369 302 142 114 160 1157 1131 401 87 748 584 245 1066 353 196
is_linear=0
shrinkage=0.05


Tree=35
num_leaves=31
num_cat=0
split_feature=3 2 4 2 3 4 1 0 2 1 4 3 0 0 2 0 4 4 0 0 2 0 0 0 4 3 4 1 4 3
split_gain=10228.7 1585.05 1029.81 300.624 215.956 203.148 106.05 100.599 85.586 78.8663 63.3306 119.281 54.8817 54.6173 53.1639 60.2498 61.4459 52.7152 63.0329 50.0631 40.7942 39.7486 39.3424 36.8888 38.3392 36.5628 35.0058 53.1031 34.3902 48.6557
threshold=0.85850226879119884 1.4495151638984682 0.87988981604576122 1.6313529014587405 1.1116735935211184 0.68906149268150341 2.4691324234008794 1.4782960414886477 0.64296701550483715 2.3512473106384282 1.081000864505768 0.25994330644607549 2.1068152189254765 1.9008382558822634 1.8134735822677615 1.1482846140861513 1.133188843727112 0.65910553932189953 1.7559179067611697 0.47223466634750372 1.2961348891258242 2.0681236982345585 1.6666875481605532 1.8213798999786379 0.3022140264511109 1.5312682986259463 1.671423137187958 2.0225344896316533 1.6122436523437502 1.8526821732521059
decision_type=2 2 2 2 2 2 2 2 2 2 2 2 2 2 2 2 2 2 2 2 2 2 2 2 2 2 2 2 2 2
left_child=2 4 5 7 12 21 8 25 10 -6 11 -4 -2 -13 15 -5 -17 18 -9 -16 -11 -1 -19 -22 -25 -3 27 -21 29 -29
right_child=1 3 6 14 9 -7 -8 17 -10 20 -12 13 -14 -15 19 16 -18 22 -20 26 23 -23 -24 24 -26 -27 -28 28 -30 -31
leaf_value=-0.022445653914120033 0.0028002682278513921 0.025920281537682638 -0.062244537309845444 0.087469733878930728 0.0066703552709904551 -0.046972112369556632 -0.049186515567317499 0.050060754830185308 0.016222409674287848 0.03992208645897817 -0.099540985975707985 -0.06200152920269536 0.029332793483489925 -0.10063162476842497 0.087403425369521809 0.10101875099626367 0.1458760384806673 0.091476978708483009 0.093249737450305764 0.073559188088669125 0.045888786364721303 -0.0027656743682580348 0.1373880744672 0.056282381320046017 0.10102746741701069 0.061842771904768556 0.18459015720770336 0.15449220576749356 0.19457221477103495 0.096605636448839766
leaf_weight=822 652 99 566 274 126 985 248 160 21 539 540 111 278 521 56 185 130 180 179 33 196 373 63 105 88 249 37 100 27 57
leaf_count=822 652 99 566 274 126 985 248 160 21 539 540 111 278 521 56 185 130 180 179 33 196 373 63 105 88 249 37 100 27 57
internal_value=0 0.0592454 -0.053953 0.0928208 0.028293 -0.0301603 -0.0797965 0.0728904 -0.0841122 0.0437884 -0.0853245 -0.0789164 0.0107315 -0.093847 0.113438 0.104617 0.119532 0.0856066 0.0728658 0.130199 0.0488281 -0.0163029 0.10338 0.0611682 0.0766847 0.0516235 0.139634 0.131968 0.142443 0.133477
internal_weight=0 3813 4187 1829 1984 2180 2007 930 1759 1054 1738 1198 930 632 899 589 315 582 339 310 928 1195 243 389 193 348 254 217 184 157
