tree
version=v4
num_class=1
num_tree_per_iteration=1
label_index=0
max_feature_idx=19
objective=regression
feature_names=Column_0 Column_1 Column_2 Column_3 Column_4 Column_5 Column_6 Column_7 Column_8 Column_9 Column_10 Column_11 Column_12 Column_13 Column_14 Column_15 Column_16 Column_17 Column_18 Column_19
feature_infos=[0.0023043968436109452:0.55947460309113728] [0.00015109557829107167:0.48387933313346954] [0.014061885977856736:0.65164946743399166] [0.0005662905393712947:0.54444254110293933] [0.00013777603123710236:0.39450510469925038] [0.01515409942856305:0.65849787568038898] [0.0094834033159776343:0.62368481943542509] [0.016378244230206063:0.6639779260460632] [0.041336400733550827:0.53518503891637259] [0.044463492254934844:0.57396032278991482] [0.0028419635787984565:0.39895844167545647] [0.041449502975770436:0.47935066007855986] [0.024815351655665008:0.48963215336867821] [0.011811711790028379:0.36515516695763739] [0.0080918691088399108:0.4619661618912525] [0.04648925036632312:0.6136562499571635] [0.0061393924911590236:0.45094638001744836] [0.0018746906321148726:0.30058120541169031] [0.0018510042063677457:0.21824534710922616] [0.0022765157222863763:0.28975793276765049]
tree_sizes=2735 2885 2887 2893 2886 2881 2885 2894 2897 2888 2887 2894 2894 2893 2903 2880 2891 2884 2887 2893 2895 2888 2891 2895 2895 2898 2883 2908 2892 2896 2892 2891 2902 2884 2900 2891 2890 2901 2893 2882 2898 2879 2907 2895 2891 2892 2892 2897 2897 2896 2905 2903 2889 2898 2895 2895 2901 2897 2889 2890 2903 2898 2891 2897 2890 2904 2899 2900 2888 2895 2906 2891 2895 2903 2898 2900 2912 2894 2899 2896 2895 2914 2910 2901 2908 2907 2906 2909 2904 2909 2897 2904 2906 2906 2908 2916 2906 2922 2904 2907

Tree=0
num_leaves=31
num_cat=0
split_feature=13 11 9 16 9 12 11 11 4 0 18 14 0 13 11 2 13 4 11 17 9 11 18 5 15 10 9 6 11 9
split_gain=265.769 22.091 21.8883 4.34703 2.84805 2.29903 1.67195 1.66014 1.35172 0.958397 0.725824 0.531079 0.464695 0.354384 0.333069 0.31891 0.286315 0.269785 0.264376 0.252304 0.247134 0.226446 0.2106 0.29765 0.191127 0.180334 0.177807 0.168946 0.162447 0.138163
threshold=0.12571118493572872 0.27686718990187426 0.15948237260360917 0.079021571467844512 0.11865065917123221 0.15460306716459263 0.25502426393037053 0.32362839872257138 0.0078702108028536628 0.07758513298768234 0.096135808894164468 0.20373863648361726 0.055446070680843958 0.19368359441530794 0.18361508561780751 0.10089614296456752 0.064834827675979187 0.058145188819691003 0.23266578684806624 0.012965527203935985 0.13017444743632703 0.32074670629386887 0.078559281026692976 0.14327993125722152 0.22223099302367841 0.11932618688098891 0.097840716662815838 0.062271737457729411 0.37378563500889034 0.18868761186699598
decision_type=2 2 2 2 2 2 2 2 2 2 2 2 2 2 2 2 2 2 2 2 2 2 2 2 2 2 2 2 2 2
left_child=2 6 4 8 19 16 18 9 21 10 13 -8 -10 -5 25 -15 -4 -16 -2 26 -6 -3 23 -11 -22 -7 -1 28 -23 -18
right_child=1 3 5 7 20 14 11 -9 12 22 -12 -13 -14 15 17 -17 29 -19 -20 -21 24 27 -24 -25 -26 -27 -28 -29 -30 -31
leaf_value=0.49220924947047873 0.49454322863940825 0.49581911054079164 0.49289801461319649 0.49544533576789962 0.49259361572499299 0.49396406933183867 0.49598536316139996 0.49677929607673443 0.49523513729564939 0.49600422800847072 0.49668433510803361 0.49524588125513286 0.49602840572622969 0.49572200718758802 0.49442438180784204 0.49635782686363206 0.49336686793137646 0.4940218667548546 0.49487512737827472 0.49208354725868531 0.49295625594558962 0.49602052020212828 0.49689565656589929 0.49665202210911141 0.49246501031944695 0.49341801858345985 0.49244190858992748 0.49659779337960658 0.49639778109860172 0.49360353946805724
leaf_weight=205 110 48 24 39 88 54 31 449 80 25 32 112 24 41 79 38 142 88 132 214 198 89 42 61 22 21 137 24 42 109
leaf_count=205 110 48 24 39 88 54 31 449 80 25 32 112 24 41 79 38 142 88 132 214 198 89 42 61 22 21 137 24 42 109
internal_value=0.49448 0.496 0.492919 0.496381 0.492432 0.493733 0.494978 0.496591 0.495882 0.496288 0.496016 0.495406 0.495418 0.495835 0.494088 0.496028 0.49342 0.494212 0.494724 0.492218 0.492818 0.496119 0.496605 0.496464 0.492907 0.493811 0.492302 0.496212 0.496141 0.49347
internal_weight=0 1419 1381 1034 864 517 385 727 307 278 150 143 104 118 242 79 275 167 242 556 308 203 128 86 220 75 342 155 131 251
internal_count=2800 1419 1381 1034 864 517 385 727 307 278 150 143 104 118 242 79 275 167 242 556 308 203 128 86 220 75 342 155 131 251
is_linear=0
shrinkage=1


Tree=1
num_leaves=31
num_cat=0
split_feature=13 11 9 16 9 12 11 4 11 0 13 0 2 18 14 11 13 4 11 17 9 11 7 17 4 15 10 9 8 4
split_gain=263.118 21.8738 21.67 4.30029 2.81964 2.2761 2.01669 1.39502 1.10041 0.946674 0.833902 0.497923 0.495531 0.416185 0.414776 0.329747 0.283459 0.267094 0.261739 0.249787 0.244669 0.224187 0.200854 0.387992 0.197976 0.189221 0.178535 0.176033 0.175121 0.16742
threshold=0.12571118493572872 0.27293455947699136 0.15948237260360917 0.079021571467844512 0.11865065917123221 0.15460306716459263 0.32362839872257138 0.0078702108028536628 0.25502426393037053 0.07758513298768234 0.19368359441530794 0.057703164292867155 0.10089614296456752 0.060602136223227084 0.19805775889984892 0.18361508561780751 0.064834827675979187 0.058145188819691003 0.23266578684806624 0.012965527203935985 0.13017444743632703 0.32074670629386887 0.13913970569425707 0.1169368277574976 0.01945768012318894 0.22223099302367841 0.11932618688098891 0.097840716662815838 0.30067429877993268 0.0092511986871843827
decision_type=2 2 2 2 2 2 2 2 2 2 2 2 2 2 2 2 2 2 2 2 2 2 2 2 2 2 2 2 2 2
left_child=2 8 4 7 19 16 9 21 18 10 24 -9 29 -11 -10 26 -4 -17 -2 27 -6 -3 23 -15 -5 -22 -7 -1 -14 -12
right_child=1 3 5 6 20 15 -8 11 14 13 12 -13 28 22 -16 17 -18 -19 -20 -21 25 -23 -24 -25 -26 -27 -28 -29 -30 -31
leaf_value=-0.002259666829210956 6.2642431817948817e-05 0.0013321449204037586 -0.0015743455130723305 0.0012128462768332274 -0.0018772223879667846 -0.00051362108939361796 0.0022875294265210762 0.00076365776027793463 0.001477980206587485 0.0014045683613568101 0.0017255669592746666 0.0015501934870217854 0.0016960469159212979 0.0014286992605775596 0.0006967686792689093 -5.56101726332703e-05 -0.0010055726886943977 -0.00045611265016553014 0.00039288166099030408 -0.0023847405125047559 -0.0015163953861014711 0.0017231992548031193 0.0023183480072288942 0.0023788549076943174 0.00055650702959974304 -0.0020051847906275232 -0.0010569415773664203 -0.0020281710356038853 0.0022622738861375388 0.0011510179535252974
leaf_weight=205 110 48 24 27 88 54 449 89 21 21 21 26 22 22 89 79 251 88 132 214 198 155 78 21 20 22 21 137 36 32
leaf_count=205 110 48 24 27 88 54 449 89 21 21 21 26 22 22 89 79 251 88 132 214 198 155 78 21 20 22 21 137 36 32
internal_value=0 0.00151207 -0.00155368 0.00186863 -0.00203817 -0.000743995 0.00207546 0.00138148 0.000431253 0.00175805 0.00149178 0.000941483 0.00172815 0.00205433 0.000845909 -0.000390341 -0.00105521 -0.000266653 0.000242773 -0.00225077 -0.0016544 0.00163073 0.00216709 0.00189273 0.000933553 -0.00156527 -0.000665751 -0.00216693 0.0020475 0.00137867
internal_weight=0 1419 1381 1067 864 517 749 318 352 300 158 115 111 142 110 242 275 167 242 556 308 203 121 43 47 220 75 342 58 53
internal_count=2800 1419 1381 1067 864 517 749 318 352 300 158 115 111 142 110 242 275 167 242 556 308 203 121 43 47 220 75 342 58 53
is_linear=0
shrinkage=0.005


Tree=2
num_leaves=31
num_cat=0
split_feature=13 11 9 16 9 12 11 4 11 0 13 0 2 18 14 11 13 4 11 17 9 11 7 17 4 15 10 9 15 6
split_gain=260.493 21.6556 21.4538 4.2574 2.79151 2.2534 1.99658 1.3811 1.08944 0.937231 0.825584 0.492956 0.490588 0.412033 0.410639 0.326457 0.280631 0.264429 0.259128 0.247296 0.242229 0.221951 0.19885 0.384122 0.196001 0.187333 0.176754 0.174277 0.173502 0.167261
threshold=0.12571118493572872 0.27293455947699136 0.15948237260360917 0.079021571467844512 0.11865065917123221 0.15460306716459263 0.32362839872257138 0.0078702108028536628 0.25502426393037053 0.07758513298768234 0.19368359441530794 0.057703164292867155 0.10089614296456752 0.060602136223227084 0.19805775889984892 0.18361508561780751 0.064834827675979187 0.058145188819691003 0.23266578684806624 0.012965527203935985 0.13017444743632703 0.32074670629386887 0.13913970569425707 0.1169368277574976 0.01945768012318894 0.22223099302367841 0.11932618688098891 0.097840716662815838 0.36164024313077958 0.062271737457729411
decision_type=2 2 2 2 2 2 2 2 2 2 2 2 2 2 2 2 2 2 2 2 2 2 2 2 2 2 2 2 2 2
left_child=2 8 4 7 19 16 9 21 18 10 24 -9 -12 -11 -10 26 -4 -17 -2 27 -6 -3 23 -15 -5 -22 -7 -1 -14 -23
right_child=1 3 5 6 20 15 -8 11 14 13 12 -13 28 22 -16 17 -18 -19 -20 -21 25 29 -24 -25 -26 -27 -28 -29 -30 -31
leaf_value=-0.0022483684736781004 6.2329225157472222e-05 0.0013254842100044093 -0.0015664737990785701 0.0012067820604338691 -0.0018678362955423919 -0.00051105298119148723 0.0022760918272663332 0.00075983944495491102 0.0014705903358047917 0.0013975455150925665 0.0013717760871392939 0.0015424424997315959 0.0016874379732392051 0.0014215557675131343 0.00069328481255601473 -5.5332121916728305e-05 -0.0010005448197466377 -0.00045383208352260147 0.000390917272893465 -0.002372816766951686 -0.0015088134154564504 0.0016442806393135595 0.0023067562535214118 0.0023669607440630594 0.00055372450576396653 -0.0019951588525013489 -0.0010516568823229699 -0.0020180301123509442 0.002251041134198507 0.0020983183508117994
leaf_weight=205 110 48 24 27 88 54 449 89 21 21 53 26 22 22 89 79 251 88 132 214 198 131 78 21 20 22 21 137 36 24
leaf_count=205 110 48 24 27 88 54 449 89 21 21 53 26 22 22 89 79 251 88 132 214 198 131 78 21 20 22 21 137 36 24
internal_value=0 0.00150451 -0.00154591 0.00185928 -0.00202798 -0.000740275 0.00206508 0.00137457 0.000429097 0.00174926 0.00148432 0.000936776 0.00171951 0.00204406 0.00084168 -0.000388389 -0.00104993 -0.00026532 0.000241559 -0.00223951 -0.00164613 0.00162258 0.00215626 0.00188327 0.000928885 -0.00155745 -0.000662422 -0.0021561 0.00203726 0.00171458
internal_weight=0 1419 1381 1067 864 517 749 318 352 300 158 115 111 142 110 242 275 167 242 556 308 203 121 43 47 220 75 342 58 155
internal_count=2800 1419 1381 1067 864 517 749 318 352 300 158 115 111 142 110 242 275 167 242 556 308 203 121 43 47 220 75 342 58 155
is_linear=0
shrinkage=0.005


Tree=3
num_leaves=31
num_cat=0
split_feature=13 11 9 16 9 12 11 11 4 0 18 14 0 13 11 2 13 4 11 17 9 11 18 5 15 10 9 6 11 17
split_gain=257.895 21.44 21.2398 4.21727 2.76367 2.23092 1.62134 1.61084 1.31069 0.930125 0.708532 0.518999 0.452848 0.342934 0.323201 0.309718 0.277832 0.261792 0.256543 0.244829 0.239812 0.219737 0.206361 0.291068 0.185465 0.174991 0.172539 0.165593 0.160827 0.137245
threshold=0.12571118493572872 0.27686718990187426 0.15948237260360917 0.079021571467844512 0.11865065917123221 0.15460306716459263 0.25502426393037053 0.32362839872257138 0.0078702108028536628 0.07758513298768234 0.096135808894164468 0.20373863648361726 0.055446070680843958 0.19368359441530794 0.18361508561780751 0.10089614296456752 0.064834827675979187 0.058145188819691003 0.23266578684806624 0.012965527203935985 0.13017444743632703 0.32074670629386887 0.078559281026692976 0.14327993125722152 0.22223099302367841 0.11932618688098891 0.097840716662815838 0.062271737457729411 0.37378563500889034 0.0065155767970442877
decision_type=2 2 2 2 2 2 2 2 2 2 2 2 2 2 2 2 2 2 2 2 2 2 2 2 2 2 2 2 2 2
left_child=2 6 4 8 19 16 18 9 21 10 13 -8 -10 -5 25 -15 -4 -16 -2 26 29 -3 23 -11 -22 -7 -1 28 -23 -6
right_child=1 3 5 7 20 14 11 -9 12 22 -12 -13 -14 15 17 -17 -18 -19 -20 -21 24 27 -24 -25 -26 -27 -28 -29 -30 -31
leaf_value=-0.0022371266117183174 6.2017577044157817e-05 0.0013188567695518337 -0.0015586414468028429 0.00095065895873957726 -0.0015768509358167649 -0.00050849771066741262 0.0014844261644588364 0.0022647113634277558 0.0007434740375611 0.0014988183733075859 0.0021731317741796375 0.00075340275214590038 0.001526564977442225 0.0012222825390536612 -5.505545500995992e-05 0.0018488716177250209 -0.00099554210315937132 -0.00045156292774084831 0.00038896268242035256 -0.0023609527409355216 -0.0015012693612111939 0.0015157101420539148 0.0023807691321486519 0.0021394100747849855 -0.0019851830093698068 -0.0010463985907179969 -0.0020079400270742219 0.0020878267412384353 0.001891084797680378 -0.0019969333834567314
leaf_weight=205 110 48 24 39 29 54 31 449 80 25 32 112 24 41 79 38 251 88 132 214 198 89 42 61 22 21 137 24 42 59
leaf_count=205 110 48 24 39 29 54 31 449 80 25 32 112 24 41 79 38 251 88 132 214 198 89 42 61 22 21 137 24 42 59
internal_value=0 0.00149699 -0.00153818 0.00187201 -0.00201784 -0.000736574 0.000489775 0.00207952 0.00138063 0.00178041 0.00151324 0.000911876 0.000924187 0.00133429 -0.000386447 0.00152368 -0.00104469 -0.000263994 0.000240351 -0.00222831 -0.0016379 0.00161447 0.00209349 0.00195319 -0.00154966 -0.00065911 -0.00214532 0.00170601 0.00163606 -0.0018585
internal_weight=0 1419 1381 1034 864 517 385 727 307 278 150 143 104 118 242 79 275 167 242 556 308 203 128 86 220 75 342 155 131 88
internal_count=2800 1419 1381 1034 864 517 385 727 307 278 150 143 104 118 242 79 275 167 242 556 308 203 128 86 220 75 342 155 131 88
is_linear=0
shrinkage=0.005


Tree=4
num_leaves=31
num_cat=0
split_feature=13 11 9 16 9 12 11 4 11 0 13 0 2 18 14 11 13 4 11 17 9 11 7 17 4 15 10 15 9 4
split_gain=255.322 21.2317 21.028 4.17298 2.7361 2.20867 1.95598 1.35321 1.0661 0.919451 0.809121 0.48472 0.481865 0.405623 0.402967 0.319977 0.275061 0.25918 0.253984 0.242387 0.23742 0.217545 0.195928 0.377613 0.193964 0.183615 0.173246 0.17122 0.170818 0.164178
threshold=0.12571118493572872 0.27293455947699136 0.15948237260360917 0.079021571467844512 0.11865065917123221 0.15460306716459263 0.32362839872257138 0.0078702108028536628 0.25502426393037053 0.07758513298768234 0.19368359441530794 0.057703164292867155 0.10089614296456752 0.060602136223227084 0.19805775889984892 0.18361508561780751 0.064834827675979187 0.058145188819691003 0.23266578684806624 0.012965527203935985 0.13017444743632703 0.32074670629386887 0.13913970569425707 0.1169368277574976 0.01945768012318894 0.22223099302367841 0.11932618688098891 0.36164024313077958 0.097840716662815838 0.0092511986871843827
decision_type=2 2 2 2 2 2 2 2 2 2 2 2 2 2 2 2 2 2 2 2 2 2 2 2 2 2 2 2 2 2
left_child=2 8 4 7 19 16 9 21 18 10 24 -9 29 -11 -10 26 -4 -17 -2 28 -6 -3 23 -15 -5 -22 -7 -14 -1 -12
right_child=1 3 5 6 20 15 -8 11 14 13 12 -13 27 22 -16 17 -18 -19 -20 -21 25 -23 -24 -25 -26 -27 -28 -29 -30 -31
leaf_value=-0.0022259410252658332 6.1707485403696239e-05 0.0013122625183314086 -0.0015508482088625896 0.0011961044302141225 -0.0018492046328769489 -0.00050595521857893023 0.0022533878219419706 0.00075210069282650115 0.0014558152459739221 0.0013824645015189335 0.0017012520635589249 0.0015281382539811042 0.0016697564128447663 0.0014064909208735283 0.00068580497427728399 -5.4780182699802553e-05 -0.0009905643884547794 -0.0004493051100673091 0.00038701786225305333 -0.0023491479122193059 -0.0014937630226139467 0.0016974803262179896 0.0022846400546721922 0.0023438520161878497 0.00054644914297387011 -0.0019752571596340701 -0.0010411665854709489 0.0022296407653225794 -0.0019979002816181111 0.0011322925609420053
leaf_weight=205 110 48 24 27 88 54 449 89 21 21 21 26 22 22 89 79 251 88 132 214 198 155 78 21 20 22 21 36 137 32
leaf_count=205 110 48 24 27 88 54 449 89 21 21 21 26 22 22 89 79 251 88 132 214 198 155 78 21 20 22 21 36 137 32
internal_value=0 0.0014895 -0.00153049 0.00184079 -0.00200775 -0.000732891 0.00204453 0.0013609 0.000424667 0.00173194 0.00146953 0.000927553 0.00170235 0.00202393 0.000832807 -0.000384515 -0.00103946 -0.000262674 0.00023915 -0.00221717 -0.00162971 0.00160639 0.00213525 0.00186427 0.000919655 -0.00154191 -0.000655814 0.00201727 -0.00213459 0.00135773
internal_weight=0 1419 1381 1067 864 517 749 318 352 300 158 115 111 142 110 242 275 167 242 556 308 203 121 43 47 220 75 58 342 53
internal_count=2800 1419 1381 1067 864 517 749 318 352 300 158 115 111 142 110 242 275 167 242 556 308 203 121 43 47 220 75 58 342 53
is_linear=0
shrinkage=0.005


Tree=5
num_leaves=31
num_cat=0
split_feature=13 11 9 16 9 12 11 4 11 0 13 0 2 18 14 11 13 4 15 18 4 17 9 11 7 17 4 15 10 8
split_gain=252.776 21.0199 20.8182 4.13135 2.70881 2.18663 1.93647 1.33971 1.05546 0.91028 0.80105 0.479885 0.477058 0.401577 0.398948 0.316785 0.272317 0.256595 0.251733 0.351345 0.289872 0.239969 0.235052 0.215375 0.193974 0.373847 0.19203 0.181783 0.171518 0.169636
threshold=0.12571118493572872 0.27293455947699136 0.15948237260360917 0.079021571467844512 0.11865065917123221 0.15460306716459263 0.32362839872257138 0.0078702108028536628 0.25502426393037053 0.07758513298768234 0.19368359441530794 0.057703164292867155 0.10089614296456752 0.060602136223227084 0.19805775889984892 0.18361508561780751 0.064834827675979187 0.058145188819691003 0.3035272412979656 0.039661880902810871 0.035466729350051802 0.012965527203935985 0.13017444743632703 0.32074670629386887 0.13913970569425707 0.1169368277574976 0.01945768012318894 0.22223099302367841 0.11932618688098891 0.30067429877993268
decision_type=2 2 2 2 2 2 2 2 2 2 2 2 2 2 2 2 2 2 2 2 2 2 2 2 2 2 2 2 2 2
left_child=2 8 4 7 21 16 9 23 18 10 26 -9 -12 -11 -10 28 -4 -17 19 -2 -20 -1 -6 -3 25 -15 -5 -24 -7 -14
right_child=1 3 5 6 22 15 -8 11 14 13 12 -13 29 24 -16 17 -18 -19 20 -21 -22 -23 27 -25 -26 -27 -28 -29 -30 -31
leaf_value=-0.0021239184359448 7.1058946090157737e-05 0.0013057011676331361 -0.0015430939684749016 0.0011901238836624006 -0.0018399586105211216 -0.00050342544439007286 0.002242120904910206 0.00074834018367541473 0.0014485361702030613 0.001375552251979354 0.0013509406950676216 0.0015204975445969745 0.0016612810268998145 0.0013994584668597038 0.00068237595427572066 -5.4506271653160263e-05 -0.00098561155628106847 -0.00044705858623439617 0.00019870195929384368 0.00064964420324227262 -0.0004185162190064464 -0.0023374022097788125 -0.00148629418461386 0.001688992922825198 0.0022732168655747024 0.0023321326999437243 0.00054371690860716625 -0.0019653808460994202 -0.0010359607530491693 0.0022185700055625704
leaf_weight=342 44 48 24 27 88 54 449 89 21 21 53 26 22 22 89 79 251 88 110 65 23 214 198 155 78 21 20 22 21 36
leaf_count=342 44 48 24 27 88 54 449 89 21 21 53 26 22 22 89 79 251 88 110 65 23 214 198 155 78 21 20 22 21 36
internal_value=0 0.00148205 -0.00152284 0.00183158 -0.00199771 -0.000729226 0.00203431 0.0013541 0.000422544 0.00172328 0.00146218 0.000922915 0.00169384 0.00201381 0.000828643 -0.000382592 -0.00103426 -0.00026136 0.000237954 0.000416087 9.1965e-05 -0.00220609 -0.00162156 0.00159836 0.00212458 0.00185495 0.000915057 -0.0015342 -0.000652535 0.00200718
internal_weight=0 1419 1381 1067 864 517 749 318 352 300 158 115 111 142 110 242 275 167 242 109 133 556 308 203 121 43 47 220 75 58
internal_count=2800 1419 1381 1067 864 517 749 318 352 300 158 115 111 142 110 242 275 167 242 109 133 556 308 203 121 43 47 220 75 58
is_linear=0
shrinkage=0.005


Tree=6
num_leaves=31
num_cat=0
split_feature=13 11 9 16 9 12 11 4 11 0 13 0 2 18 14 11 13 4 11 17 9 11 7 17 4 15 10 9 15 6
split_gain=250.254 20.8102 20.6105 4.09014 2.68179 2.16482 1.91715 1.32634 1.04494 0.9012 0.79306 0.475098 0.472299 0.397571 0.394968 0.313625 0.269601 0.254036 0.249225 0.237575 0.232707 0.213227 0.192039 0.370118 0.190114 0.17997 0.169807 0.169114 0.167944 0.163941
threshold=0.12571118493572872 0.27293455947699136 0.15948237260360917 0.079021571467844512 0.11865065917123221 0.15460306716459263 0.32362839872257138 0.0078702108028536628 0.25502426393037053 0.07758513298768234 0.19368359441530794 0.057703164292867155 0.10089614296456752 0.060602136223227084 0.19805775889984892 0.18361508561780751 0.064834827675979187 0.058145188819691003 0.23266578684806624 0.012965527203935985 0.13017444743632703 0.32074670629386887 0.13913970569425707 0.1169368277574976 0.01945768012318894 0.22223099302367841 0.11932618688098891 0.097840716662815838 0.36164024313077958 0.062271737457729411
decision_type=2 2 2 2 2 2 2 2 2 2 2 2 2 2 2 2 2 2 2 2 2 2 2 2 2 2 2 2 2 2
left_child=2 8 4 7 19 16 9 21 18 10 24 -9 -12 -11 -10 26 -4 -17 -2 27 -6 -3 23 -15 -5 -22 -7 -1 -14 -23
right_child=1 3 5 6 20 15 -8 11 14 13 12 -13 28 22 -16 17 -18 -19 -20 -21 25 29 -24 -25 -26 -27 -28 -29 -30 -31
leaf_value=-0.0022041917359683573 6.0992278581993148e-05 0.0012991726724430918 -0.0015353785033463889 0.0011841733094856695 -0.0018307588113979859 -0.0005009083187690488 0.0022309103143092384 0.00074459849736454448 0.001441293474552887 0.0013686744804449736 0.0013441859816534902 0.0015128950982426221 0.0016529745490036227 0.001392461180856282 0.00067896408191097258 -5.4233752196961192e-05 -0.00098068350878037676 -0.00044482329018964348 0.00038324041882829493 -0.0023257152206986867 -0.0014788627258567799 0.0016109465838246445 0.0022618508138335671 0.0023204720942747027 0.00054099832597421485 -0.0019555539502338929 -0.0010307809586326282 -0.0019772911876657583 0.002207477138274246 0.0020604552452762924
leaf_weight=205 110 48 24 27 88 54 449 89 21 21 53 26 22 22 89 79 251 88 132 214 198 131 78 21 20 22 21 137 36 24
leaf_count=205 110 48 24 27 88 54 449 89 21 21 53 26 22 22 89 79 251 88 132 214 198 131 78 21 20 22 21 137 36 24
internal_value=0 0.00147464 -0.00151522 0.00182243 -0.00198773 -0.00072558 0.00202414 0.00134733 0.000420431 0.00171467 0.00145487 0.0009183 0.00168537 0.00200374 0.0008245 -0.000380679 -0.00102909 -0.000260053 0.000236764 -0.00219506 -0.00161345 0.00159037 0.00211395 0.00184568 0.000910482 -0.00152653 -0.000649273 -0.0021133 0.00199715 0.00168055
internal_weight=0 1419 1381 1067 864 517 749 318 352 300 158 115 111 142 110 242 275 167 242 556 308 203 121 43 47 220 75 342 58 155
internal_count=2800 1419 1381 1067 864 517 749 318 352 300 158 115 111 142 110 242 275 167 242 556 308 203 121 43 47 220 75 342 58 155
is_linear=0
shrinkage=0.005


Tree=7
num_leaves=31
num_cat=0
split_feature=13 11 9 16 9 12 11 4 11 0 13 0 2 18 14 11 13 4 15 18 4 17 9 11 7 17 4 15 10 9
split_gain=247.758 20.6027 20.405 4.04935 2.65504 2.14323 1.89803 1.31311 1.03451 0.89221 0.785149 0.470359 0.467588 0.393605 0.391028 0.310497 0.266911 0.251502 0.248866 0.346547 0.286421 0.235205 0.230386 0.2111 0.190123 0.366426 0.188218 0.178175 0.168113 0.167427
threshold=0.12571118493572872 0.27293455947699136 0.15948237260360917 0.079021571467844512 0.11865065917123221 0.15460306716459263 0.32362839872257138 0.0078702108028536628 0.25502426393037053 0.07758513298768234 0.19368359441530794 0.057703164292867155 0.10089614296456752 0.060602136223227084 0.19805775889984892 0.18361508561780751 0.064834827675979187 0.058145188819691003 0.3035272412979656 0.039661880902810871 0.035466729350051802 0.012965527203935985 0.13017444743632703 0.32074670629386887 0.13913970569425707 0.1169368277574976 0.01945768012318894 0.22223099302367841 0.11932618688098891 0.097840716662815838
decision_type=2 2 2 2 2 2 2 2 2 2 2 2 2 2 2 2 2 2 2 2 2 2 2 2 2 2 2 2 2 2
left_child=2 8 4 7 21 16 9 23 18 10 26 -9 -12 -11 -10 28 -4 -17 19 -2 -20 29 -6 -3 25 -15 -5 -24 -7 -1
right_child=1 3 5 6 22 15 -8 11 14 13 12 -13 -14 24 -16 17 -18 -19 20 -21 -22 -23 27 -25 -26 -27 -28 -29 -30 -31
leaf_value=-0.0021931707201207555 7.0032498545267362e-05 0.001292676810796062 -0.0015277016035785587 0.0011782524131100488 -0.0018216050111434677 -0.0004984037728583509 0.0022197557520743602 0.00074087549774028529 0.0014340870791957493 0.0013618311170665992 0.0013374650726129987 0.0015053305825075277 0.0019871629093741552 0.0013854988986118275 0.0006755692529063044 -5.396258041757761e-05 -0.00097578009110786158 -0.00044259918430312117 0.00019652463163418528 0.00064465330658892452 -0.00041700881500930892 -0.0023140866518299155 -0.0014714683857605312 0.0016721452323779945 0.0022505415756350908 0.0023088697521459491 0.00053829333290923394 -0.0019457761435346169 -0.0010256270478878702 -0.0019674047447034043
leaf_weight=205 44 48 24 27 88 54 449 89 21 21 53 26 58 22 89 79 251 88 110 65 23 214 198 155 78 21 20 22 21 137
leaf_count=205 44 48 24 27 88 54 449 89 21 21 53 26 58 22 89 79 251 88 110 65 23 214 198 155 78 21 20 22 21 137
internal_value=0 0.00146727 -0.00150764 0.00181331 -0.00197779 -0.000721952 0.00201402 0.00134059 0.000418329 0.00170609 0.00144759 0.000913709 0.00167695 0.00199372 0.000820377 -0.000378776 -0.00102395 -0.000258753 0.00023558 0.000412696 9.04249e-05 -0.00218408 -0.00160539 0.00158242 0.00210338 0.00183645 0.000905929 -0.0015189 -0.000646026 -0.00210273
internal_weight=0 1419 1381 1067 864 517 749 318 352 300 158 115 111 142 110 242 275 167 242 109 133 556 308 203 121 43 47 220 75 342
internal_count=2800 1419 1381 1067 864 517 749 318 352 300 158 115 111 142 110 242 275 167 242 109 133 556 308 203 121 43 47 220 75 342
is_linear=0
shrinkage=0.005


Tree=8
num_leaves=31
num_cat=0
split_feature=13 11 9 16 9 12 11 11 4 2 18 14 0 18 6 18 11 13 4 15 18 4 2 17 9 11 5 10 9 6
split_gain=245.286 20.3984 20.2014 4.00919 2.62855 2.12185 1.54005 1.53189 1.24472 0.890753 0.639036 0.500716 0.434406 0.335767 0.491612 0.332212 0.3074 0.264249 0.248993 0.246384 0.34309 0.283564 0.241425 0.232859 0.228088 0.208994 0.177232 0.166436 0.165757 0.162305
threshold=0.12571118493572872 0.27686718990187426 0.15948237260360917 0.079021571467844512 0.11865065917123221 0.15460306716459263 0.25502426393037053 0.32362839872257138 0.0078702108028536628 0.11546917738120922 0.096135808894164468 0.20373863648361726 0.055446070680843958 0.073261805977488673 0.124973861690456 0.078559281026692976 0.18361508561780751 0.064834827675979187 0.058145188819691003 0.3035272412979656 0.039661880902810871 0.035466729350051802 0.10089614296456752 0.012965527203935985 0.13017444743632703 0.32074670629386887 0.28878357702297891 0.11932618688098891 0.097840716662815838 0.062271737457729411
decision_type=2 2 2 2 2 2 2 2 2 2 2 2 2 2 2 2 2 2 2 2 2 2 2 2 2 2 2 2 2 2
left_child=2 6 4 8 23 17 19 9 25 10 15 -8 -10 14 -11 -5 27 -4 -18 20 -2 -21 -17 28 -6 -3 -26 -7 -1 -27
right_child=1 3 5 7 24 16 11 -9 12 13 -12 -13 -14 -15 -16 22 18 -19 -20 21 -22 -23 -24 -25 26 29 -28 -29 -30 -31
leaf_value=-0.002182204923615223 6.9682336708700121e-05 0.0012862134321282306 -0.0015200631075034229 0.00070310107027382954 -0.0018124969913200898 -0.00049591176293755843 0.0014512516489072192 0.0022086569232936692 0.0007248271068528993 0.0010945257917046548 0.0020855881087481977 0.00073321922406259022 0.0014918071955131987 0.0022034642109203906 0.0020088967860543302 0.0011653947203109662 -5.3692771670043091e-05 -0.00097090119205181491 -0.00044038617546902968 0.00019554200887002729 0.00064143004827201368 -0.00041492377002925974 0.0017567341641655989 -0.0023025162023640124 -0.0019600813235156238 0.0015945311528381728 -0.0014664270151406528 -0.0010204989303435599 -0.0019575677126863577 0.0020417922859390578
leaf_weight=205 44 48 24 23 88 54 31 449 80 21 28 112 24 84 49 45 79 251 88 110 65 23 28 214 20 131 200 21 137 24
leaf_count=205 44 48 24 23 88 54 31 449 80 21 28 112 24 84 49 45 79 251 88 110 65 23 28 214 20 131 200 21 137 24
internal_value=0 0.00145993 -0.00150011 0.00182574 -0.0019679 -0.000718343 0.000477493 0.00202806 0.00134663 0.00173637 0.00142096 0.000888877 0.000901823 0.00199034 0.00173459 0.00122711 -0.000376882 -0.00101883 -0.000257459 0.000234402 0.000410633 8.99727e-05 0.00139221 -0.00217316 -0.00159736 0.00157451 -0.0015113 -0.000642796 -0.00209222 0.00166378
internal_weight=0 1419 1381 1034 864 517 385 727 307 278 124 143 104 154 70 96 242 275 167 242 109 133 73 556 308 203 220 75 342 155
internal_count=2800 1419 1381 1034 864 517 385 727 307 278 124 143 104 154 70 96 242 275 167 242 109 133 73 556 308 203 220 75 342 155
is_linear=0
shrinkage=0.005


Tree=9
num_leaves=31
num_cat=0
split_feature=13 11 9 16 9 12 11 4 11 0 13 0 2 18 14 11 13 4 15 18 4 17 9 11 7 17 4 15 8 10
split_gain=242.84 20.1994 19.9999 3.96906 2.60233 2.10068 1.85943 1.28659 1.01235 0.875989 0.770524 0.462494 0.459028 0.387378 0.383701 0.304333 0.261613 0.246509 0.243926 0.339668 0.280736 0.230536 0.225813 0.206909 0.187537 0.360257 0.185334 0.17556 0.165534 0.164776
threshold=0.12571118493572872 0.27293455947699136 0.15948237260360917 0.079021571467844512 0.11865065917123221 0.15460306716459263 0.32362839872257138 0.0078702108028536628 0.25502426393037053 0.07758513298768234 0.19368359441530794 0.057703164292867155 0.10089614296456752 0.060602136223227084 0.19805775889984892 0.18361508561780751 0.064834827675979187 0.058145188819691003 0.3035272412979656 0.039661880902810871 0.035466729350051802 0.012965527203935985 0.13017444743632703 0.32074670629386887 0.13913970569425707 0.1169368277574976 0.01945768012318894 0.22223099302367841 0.30067429877993268 0.11932618688098891
decision_type=2 2 2 2 2 2 2 2 2 2 2 2 2 2 2 2 2 2 2 2 2 2 2 2 2 2 2 2 2 2
left_child=2 8 4 7 21 16 9 23 18 10 26 -9 -12 -11 -10 29 -4 -17 19 -2 -20 -1 -6 -3 25 -15 -5 -24 -14 -7
right_child=1 3 5 6 22 15 -8 11 14 13 12 -13 28 24 -16 17 -18 -19 20 -21 -22 -23 27 -25 -26 -27 -28 -29 -30 -31
leaf_value=-0.0020817575679972157 6.9333926287733699e-05 0.0012797823486228785 -0.0015124627819750459 0.0011666949345143856 -0.0018034345216371797 -0.00049343219501207824 0.0021976136696630704 0.00073332964324946987 0.0014196603736352353 0.0013473309288244873 0.0013239090647196995 0.0014913660724862263 0.0016259369948370891 0.0013707426838068801 0.00066828326931683694 -5.342429801468042e-05 -0.0009660466907423479 -0.00043818424451852808 0.00019456429900178179 0.0006382228982133362 -0.00041284914842158884 -0.0022910035805445966 -0.0014566667444270219 0.0016554655321543254 0.0022291472186453834 0.0022863080529939564 0.00053165728051681068 -0.0019274810498411004 0.0021764460785521399 -0.0010153964268309729
leaf_weight=342 44 48 24 27 88 54 449 89 21 21 53 26 22 22 89 79 251 88 110 65 23 214 198 155 78 21 20 22 36 21
leaf_count=342 44 48 24 27 88 54 449 89 21 21 53 26 22 22 89 79 251 88 110 65 23 214 198 155 78 21 20 22 36 21
internal_value=0 0.00145263 -0.00149261 0.00179527 -0.00195806 -0.000714751 0.00199398 0.00132726 0.000414011 0.0016892 0.00143306 0.000904712 0.00166027 0.0019742 0.000811728 -0.000374998 -0.00101373 -0.000256172 0.00023323 0.00040858 8.95229e-05 -0.00216229 -0.00158937 0.00156663 0.00208299 0.00181788 0.000896466 -0.00150375 0.00196763 -0.000639582
internal_weight=0 1419 1381 1067 864 517 749 318 352 300 158 115 111 142 110 242 275 167 242 109 133 556 308 203 121 43 47 220 58 75
internal_count=2800 1419 1381 1067 864 517 749 318 352 300 158 115 111 142 110 242 275 167 242 109 133 556 308 203 121 43 47 220 58 75
is_linear=0
shrinkage=0.005


Tree=10
num_leaves=31
num_cat=0
split_feature=13 11 9 16 9 12 11 4 11 0 13 0 2 18 14 11 13 4 15 18 4 17 9 11 7 17 4 5 9 8
split_gain=240.417 19.9979 19.8004 3.92947 2.57637 2.07973 1.84088 1.27376 1.00225 0.867251 0.762838 0.45788 0.454449 0.383513 0.379873 0.301298 0.259003 0.24405 0.241493 0.33628 0.277935 0.228237 0.22356 0.204846 0.185667 0.356663 0.183485 0.174633 0.164103 0.163882
threshold=0.12571118493572872 0.27293455947699136 0.15948237260360917 0.079021571467844512 0.11865065917123221 0.15460306716459263 0.32362839872257138 0.0078702108028536628 0.25502426393037053 0.07758513298768234 0.19368359441530794 0.057703164292867155 0.10089614296456752 0.060602136223227084 0.19805775889984892 0.18361508561780751 0.064834827675979187 0.058145188819691003 0.3035272412979656 0.039661880902810871 0.035466729350051802 0.012965527203935985 0.13017444743632703 0.32074670629386887 0.13913970569425707 0.1169368277574976 0.01945768012318894 0.28878357702297891 0.097840716662815838 0.30067429877993268
decision_type=2 2 2 2 2 2 2 2 2 2 2 2 2 2 2 2 2 2 2 2 2 2 2 2 2 2 2 2 2 2
left_child=2 8 4 7 21 16 9 23 18 10 26 -9 -12 -11 -10 -7 -4 -17 19 -2 -20 28 -6 -3 25 -15 -5 -24 -1 -14
right_child=1 3 5 6 22 15 -8 11 14 13 12 -13 29 24 -16 17 -18 -19 20 -21 -22 -23 27 -25 -26 -27 -28 -29 -30 -31
leaf_value=-0.0021608850945059846 6.898725765164604e-05 0.0012733834919830165 -0.0015049004747803942 0.0011608614662179241 -0.0017944173167713665 -0.00063638426909844083 0.0021866255564270813 0.00072966299945844359 0.0014125620662456468 0.0013405942681822039 0.001317289521531114 0.0014839092334016011 0.0016178073395382276 0.0013638889827680858 0.00066494185490575562 -5.3157178195830006e-05 -0.00096121644317840346 -0.00043599332417877369 0.00019359147614291444 0.00063503178725771321 -0.00041078490038078439 -0.002279548596973731 -0.0019417028571479024 0.0016471882347137699 0.00221800148821412 0.0022748764781724841 0.00052899898821488029 -0.001451682063192129 -0.0019373711078923984 0.0021655638184812334
leaf_weight=205 44 48 24 27 88 75 449 89 21 21 53 26 22 22 89 79 251 88 110 65 23 214 20 155 78 21 20 200 137 36
leaf_count=205 44 48 24 27 88 75 449 89 21 21 53 26 22 22 89 79 251 88 110 65 23 214 20 155 78 21 20 200 137 36
internal_value=0 0.00144537 -0.00148514 0.0017863 -0.00194827 -0.000711177 0.00198401 0.00132062 0.000411941 0.00168075 0.0014259 0.000900188 0.00165197 0.00196433 0.000807669 -0.000373123 -0.00100867 -0.000254891 0.000232064 0.000406537 8.90753e-05 -0.00215148 -0.00158143 0.0015588 0.00207258 0.00180879 0.000891984 -0.00149623 -0.00207135 0.00195779
internal_weight=0 1419 1381 1067 864 517 749 318 352 300 158 115 111 142 110 242 275 167 242 109 133 556 308 203 121 43 47 220 342 58
internal_count=2800 1419 1381 1067 864 517 749 318 352 300 158 115 111 142 110 242 275 167 242 109 133 556 308 203 121 43 47 220 342 58
is_linear=0
shrinkage=0.005


Tree=11
num_leaves=31
num_cat=0
split_feature=13 11 9 16 9 12 11 4 11 0 13 0 2 18 14 11 13 4 15 18 4 17 9 11 7 17 4 15 10 9
split_gain=238.019 19.7984 19.6029 3.89027 2.55067 2.05898 1.82252 1.26105 0.99225 0.8586 0.755229 0.453313 0.449916 0.379688 0.376084 0.298292 0.25642 0.241616 0.239084 0.332925 0.275163 0.22596 0.22133 0.202802 0.183814 0.353106 0.181655 0.172983 0.163132 0.162624
threshold=0.12571118493572872 0.27293455947699136 0.15948237260360917 0.079021571467844512 0.11865065917123221 0.15460306716459263 0.32362839872257138 0.0078702108028536628 0.25502426393037053 0.07758513298768234 0.19368359441530794 0.057703164292867155 0.10089614296456752 0.060602136223227084 0.19805775889984892 0.18361508561780751 0.064834827675979187 0.058145188819691003 0.3035272412979656 0.039661880902810871 0.035466729350051802 0.012965527203935985 0.13017444743632703 0.32074670629386887 0.13913970569425707 0.1169368277574976 0.01945768012318894 0.22223099302367841 0.11932618688098891 0.10146639011160062
decision_type=2 2 2 2 2 2 2 2 2 2 2 2 2 2 2 2 2 2 2 2 2 2 2 2 2 2 2 2 2 2
left_child=2 8 4 7 21 16 9 23 18 10 26 -9 -12 -11 -10 28 -4 -17 19 -2 -20 29 -6 -3 25 -15 -5 -24 -7 -1
right_child=1 3 5 6 22 15 -8 11 14 13 12 -13 -14 24 -16 17 -18 -19 20 -21 -22 -23 27 -25 -26 -27 -28 -29 -30 -31
leaf_value=-0.0021365715708438452 6.8642317677255376e-05 0.0012670165238281093 -0.0014973759839388855 0.0011550571434889678 -0.0017854452454908328 -0.00048778311678755997 0.0021756924253645746 0.00072601468430824189 0.0014054992298285166 0.0013338912983558008 0.0013107030605018703 0.0014764896801744516 0.0019480051633355947 0.0013570695273070175 0.00066161715418929 -5.2891400896154251e-05 -0.0009564103695111298 -0.0004338133610640811 0.00019262351737019012 0.00063185661858341732 -0.00040873098207394717 -0.0022681508512697487 -0.0014420136306528945 0.0016389523252484297 0.0022069114556488318 0.0022635021238099962 0.00052635400032158947 -0.0019093601405620576 -0.0010071375150056113 -0.0019037049512068431
leaf_weight=231 44 48 24 27 88 54 449 89 21 21 53 26 58 22 89 79 251 88 110 65 23 214 198 155 78 21 20 22 21 111
leaf_count=231 44 48 24 27 88 54 449 89 21 21 53 26 58 22 89 79 251 88 110 65 23 214 198 155 78 21 20 22 21 111
internal_value=0 0.00143814 -0.00147772 0.00177737 -0.00193853 -0.000707621 0.00197409 0.00131402 0.000409881 0.00167235 0.00141877 0.000895687 0.00164371 0.00195451 0.000803631 -0.000371257 -0.00100362 -0.000253617 0.000230904 0.000404504 8.86299e-05 -0.00214073 -0.00157352 0.00155101 0.00206222 0.00179975 0.000887524 -0.00148875 -0.000633202 -0.00206099
internal_weight=0 1419 1381 1067 864 517 749 318 352 300 158 115 111 142 110 242 275 167 242 109 133 556 308 203 121 43 47 220 75 342
internal_count=2800 1419 1381 1067 864 517 749 318 352 300 158 115 111 142 110 242 275 167 242 109 133 556 308 203 121 43 47 220 75 342
is_linear=0
shrinkage=0.005


Tree=12
num_leaves=31
num_cat=0
split_feature=13 11 9 16 9 12 11 11 4 2 18 14 2 18 6 18 11 13 4 15 18 4 2 17 9 11 5 10 9 6
split_gain=235.645 19.6014 19.4074 3.8502 2.52523 2.03845 1.47807 1.47155 1.19442 0.859491 0.623737 0.486264 0.420515 0.327278 0.475018 0.320412 0.295317 0.253862 0.239206 0.236699 0.329604 0.272418 0.232754 0.223706 0.219123 0.200779 0.172072 0.161505 0.161091 0.160686
threshold=0.12571118493572872 0.27686718990187426 0.15948237260360917 0.079021571467844512 0.11865065917123221 0.15460306716459263 0.25502426393037053 0.32362839872257138 0.0078702108028536628 0.11546917738120922 0.096135808894164468 0.20373863648361726 0.090448707275749066 0.073261805977488673 0.124973861690456 0.078559281026692976 0.18361508561780751 0.064834827675979187 0.058145188819691003 0.3035272412979656 0.039661880902810871 0.035466729350051802 0.10089614296456752 0.012965527203935985 0.13017444743632703 0.32074670629386887 0.28878357702297891 0.11932618688098891 0.097840716662815838 0.062271737457729411
decision_type=2 2 2 2 2 2 2 2 2 2 2 2 2 2 2 2 2 2 2 2 2 2 2 2 2 2 2 2 2 2
left_child=2 6 4 8 23 17 19 9 25 10 15 -8 -10 14 -11 -5 27 -4 -18 20 -2 -21 -17 28 -6 -3 -26 -7 -1 -27
right_child=1 3 5 7 24 16 11 -9 12 13 -12 -13 -14 -15 -16 22 18 -19 -20 21 -22 -23 -24 -25 26 29 -28 -29 -30 -31
leaf_value=-0.0021393977894288737 6.8299112608656291e-05 0.0012606814441581569 -0.0014898890780750663 0.00068596236205295384 -0.0017765180207788944 -0.00048534420425615585 0.0014251165560656978 0.0021648139789501382 0.00067711385355784704 0.0010697299091234095 0.002048720366188458 0.00071752208186191119 0.0013721947233763434 0.002161808523039023 0.0019685365217832888 0.001140016807243228 -5.2626932458362627e-05 -0.0009516283084241399 -0.00043164429647183831 0.0001916604031681676 0.00062869732612027564 -0.00040668732147542352 0.0017206409254244396 -0.0022568101568199764 -0.0019234990812838078 0.00156185046072964 -0.00143708508182317 -0.0010021018378791355 -0.0019179447702247733 0.0020068752889831863
leaf_weight=205 44 48 24 23 88 54 31 449 73 21 28 112 31 84 49 45 79 251 88 110 65 23 28 214 20 131 200 21 137 24
leaf_count=205 44 48 24 23 88 54 31 449 73 21 28 112 31 84 49 45 79 251 88 110 65 23 28 214 20 131 200 21 137 24
internal_value=0 0.00143095 -0.00147033 0.00178954 -0.00192883 -0.000704083 0.000467897 0.00198781 0.00132002 0.00170192 0.0013921 0.000870917 0.000884301 0.00195139 0.00169889 0.00120058 -0.000369401 -0.000998604 -0.000252349 0.000229749 0.000402482 8.81867e-05 0.00136272 -0.00213002 -0.00156565 0.00154325 -0.0014813 -0.000630036 -0.00205069 0.00163076
internal_weight=0 1419 1381 1034 864 517 385 727 307 278 124 143 104 154 70 96 242 275 167 242 109 133 73 556 308 203 220 75 342 155
internal_count=2800 1419 1381 1034 864 517 385 727 307 278 124 143 104 154 70 96 242 275 167 242 109 133 73 556 308 203 220 75 342 155
is_linear=0
shrinkage=0.005


Tree=13
num_leaves=31
num_cat=0
split_feature=13 11 9 16 9 12 11 4 11 0 13 0 2 18 14 11 13 4 15 18 4 17 9 11 7 17 4 15 15 10
split_gain=233.294 19.4108 19.2138 3.81315 2.50004 2.01811 1.78545 1.23558 0.970983 0.842981 0.741141 0.446251 0.44167 0.373681 0.36902 0.292371 0.25133 0.23682 0.234338 0.326317 0.269701 0.221475 0.216937 0.198776 0.181317 0.347155 0.178872 0.170444 0.161527 0.159894
threshold=0.12571118493572872 0.27293455947699136 0.15948237260360917 0.079021571467844512 0.11865065917123221 0.15460306716459263 0.32362839872257138 0.0078702108028536628 0.25502426393037053 0.07758513298768234 0.19368359441530794 0.057703164292867155 0.10089614296456752 0.060602136223227084 0.19805775889984892 0.18361508561780751 0.064834827675979187 0.058145188819691003 0.3035272412979656 0.039661880902810871 0.035466729350051802 0.012965527203935985 0.13017444743632703 0.32074670629386887 0.13913970569425707 0.1169368277574976 0.01945768012318894 0.22223099302367841 0.36164024313077958 0.11932618688098891
decision_type=2 2 2 2 2 2 2 2 2 2 2 2 2 2 2 2 2 2 2 2 2 2 2 2 2 2 2 2 2 2
left_child=2 8 4 7 21 16 9 23 18 10 26 -9 -12 -11 -10 29 -4 -17 19 -2 -20 -1 -6 -3 25 -15 -5 -24 -14 -7
right_child=1 3 5 6 22 15 -8 11 14 13 12 -13 28 24 -16 17 -18 -19 20 -21 -22 -23 27 -25 -26 -27 -28 -29 -30 -31
leaf_value=-0.0020404336472962335 6.7957609426230197e-05 0.0012543780620520315 -0.0014824396560046203 0.0011437374560369386 -0.0017676354250447317 -0.00048291748179407374 0.0021539899245120236 0.0007185213717768031 0.0013913461237791038 0.0013196838975307488 0.0012974207192870243 0.0014631275510272154 0.001591320721940561 0.0013426136170429262 0.00065448293391761659 -5.2363805331384085e-05 -0.00094687017428492053 -0.00042948607046458748 0.00019070209378630601 0.00062555385849572518 -0.00040465388938015247 -0.0022455261034943232 -0.001427507584378349 0.0016226037337534853 0.0021859338330343747 0.0022413755385648636 0.00051986919797491278 -0.0018914119018749757 0.0021351264789700509 -0.00099709132420165193
leaf_weight=342 44 48 24 27 88 54 449 89 21 21 53 26 22 22 89 79 251 88 110 65 23 214 198 155 78 21 20 22 36 21
leaf_count=342 44 48 24 27 88 54 449 89 21 21 53 26 22 22 89 79 251 88 110 65 23 214 198 155 78 21 20 22 36 21
internal_value=0 0.0014238 -0.00146298 0.00175968 -0.00191919 -0.000700563 0.00195444 0.00130095 0.000405649 0.00165579 0.00140453 0.000886867 0.00162736 0.00193537 0.000795157 -0.000367554 -0.000993611 -0.000251087 0.000228601 0.000400469 8.77458e-05 -0.00211937 -0.00155782 0.00153554 0.00204222 0.00178154 0.000878262 -0.0014739 0.00192886 -0.000626886
internal_weight=0 1419 1381 1067 864 517 749 318 352 300 158 115 111 142 110 242 275 167 242 109 133 556 308 203 121 43 47 220 58 75
internal_count=2800 1419 1381 1067 864 517 749 318 352 300 158 115 111 142 110 242 275 167 242 109 133 556 308 203 121 43 47 220 58 75
is_linear=0
shrinkage=0.005


Tree=14
num_leaves=31
num_cat=0
split_feature=13 11 9 16 11 9 12 11 2 2 4 18 18 14 11 13 4 15 18 4 17 9 11 5 5 2 4 18 9 6
split_gain=230.967 19.2181 19.0221 3.08844 2.65978 2.4751 1.99798 0.971969 0.807068 0.774678 0.774216 0.685408 0.513644 0.366239 0.289454 0.248823 0.234457 0.232001 0.323062 0.267011 0.219266 0.214773 0.196794 0.190654 0.169548 0.165484 0.191045 0.164753 0.159639 0.159084
threshold=0.12571118493572872 0.28796822074413742 0.15948237260360917 0.079021571467844512 0.25502426393037053 0.11865065917123221 0.15460306716459263 0.32362839872257138 0.11546917738120922 0.13371774588956878 0.0078702108028536628 0.060602136223227084 0.096135808894164468 0.19805775889984892 0.18361508561780751 0.064834827675979187 0.058145188819691003 0.3035272412979656 0.039661880902810871 0.035466729350051802 0.012965527203935985 0.13017444743632703 0.32074670629386887 0.089273471181897893 0.28878357702297891 0.11064072221444145 0.014473236235532207 0.067748000258089761 0.10146639011160062 0.062271737457729411
decision_type=2 2 2 2 2 2 2 2 2 2 2 2 2 2 2 2 2 2 2 2 2 2 2 2 2 2 2 2 2 2
left_child=2 4 5 10 17 20 15 8 12 25 22 13 -5 -11 -8 -4 -16 18 -2 -19 28 -7 -3 -12 -23 26 -6 -27 -1 -24
right_child=1 3 6 7 9 21 14 -9 -10 11 23 -13 -14 -15 16 -17 -18 19 -20 -21 -22 24 29 -25 -26 27 -28 -29 -30 -31
leaf_value=-0.0021051141242315243 6.7617830248888248e-05 0.0012481061633055409 -0.0014750274557930728 0.0012487743516069124 0.00082562550706788906 -0.0017587972474707801 -0.00062375172378184899 0.0021432199612890428 0.0020372349693561381 0.0015486248408874068 0.00072727447416542901 0.0021812431551516058 0.0020295961733375278 0.00074970255349398945 -5.2101990956624472e-05 -0.00094213582122182674 -0.00042733863940322241 0.00018974858674813402 0.00062242607557877472 -0.00040263061500255665 -0.0022342983988400933 -0.0019054683230351657 0.0015459281845970918 0.0013120249286293984 -0.001422634537704289 0.00078957613618315563 0.00034793005137342134 0.0013240609193841616 -0.0018743945161501566 0.0019887279098232589
leaf_weight=231 44 48 24 85 50 88 75 449 115 26 46 20 28 32 79 251 88 110 65 23 214 20 131 20 200 46 36 21 111 24
leaf_count=231 44 48 24 85 50 88 75 449 115 26 46 20 28 32 79 251 88 110 65 23 214 20 131 20 200 46 36 21 111 24
internal_value=0 0.00141668 -0.00145566 0.00182813 0.000593778 -0.00190959 -0.00069706 0.00200822 0.00174235 0.000977542 0.00137491 0.00138307 0.00144225 0.00110784 -0.000365716 -0.000988643 -0.000249831 0.000227458 0.000398467 8.73071e-05 -0.00210878 -0.00155003 0.00152786 0.000904472 -0.00146653 0.000770801 0.00062566 0.000957101 -0.00203023 0.00161449
internal_weight=0 1419 1381 946 473 864 517 677 228 231 269 78 113 58 242 275 167 242 109 133 556 308 203 66 220 153 86 67 342 155
internal_count=2800 1419 1381 946 473 864 517 677 228 231 269 78 113 58 242 275 167 242 109 133 556 308 203 66 220 153 86 67 342 155
is_linear=0
shrinkage=0.005


Tree=15
num_leaves=31
num_cat=0
split_feature=13 11 9 16 9 9 11 4 11 0 13 0 2 11 18 14 13 0 4 18 17 9 4 11 7 17 4 15 18 8
split_gain=228.663 19.0305 18.8324 3.73782 2.45041 1.97843 1.74906 1.21083 0.950263 0.828075 0.729803 0.439721 0.435672 0.395053 0.36478 0.361027 0.234549 0.230061 0.36179 0.293828 0.217079 0.21263 0.20803 0.194831 0.178509 0.342484 0.17661 0.167943 0.159991 0.158669
threshold=0.12571118493572872 0.27293455947699136 0.15948237260360917 0.079021571467844512 0.11865065917123221 0.20713317774632498 0.32362839872257138 0.0078702108028536628 0.25502426393037053 0.07758513298768234 0.19368359441530794 0.057703164292867155 0.10089614296456752 0.18361508561780751 0.060602136223227084 0.19805775889984892 0.064834827675979187 0.099639570039670181 0.034831835712308086 0.039661880902810871 0.012965527203935985 0.13017444743632703 0.058145188819691003 0.32074670629386887 0.13913970569425707 0.1169368277574976 0.01945768012318894 0.22223099302367841 0.10590773553396172 0.30067429877993268
decision_type=2 2 2 2 2 2 2 2 2 2 2 2 2 2 2 2 2 2 2 2 2 2 2 2 2 2 2 2 2 2
left_child=2 8 4 7 20 16 9 23 17 10 26 28 -12 -7 -11 -10 -4 18 -2 -19 -1 -6 -15 -3 25 -16 -5 -23 -9 -14
right_child=1 3 5 6 21 13 -8 11 15 14 12 -13 29 22 24 -17 -18 19 -20 -21 -22 27 -24 -25 -26 -27 -28 -29 -30 -31
leaf_value=-0.0020200802932618658 0.00019499720252667355 0.0012418655989070732 -0.0014676523078621054 0.0011319433335490801 -0.0017500032814727587 -0.00066038195804008339 0.0021325039368263864 0.00059316136566100314 0.0013764956504816101 0.0013081956146994518 0.001283805774226082 0.0014501089674349016 0.0015764034488661724 -5.1841472918049821e-05 0.0013274563385427677 0.00064765719291387817 -0.00094923709672972711 6.7279734331267808e-05 -0.00053764743870124226 0.00058728784736750887 -0.0022231269760109554 -0.0014131471293159959 -0.00040253129839554306 0.0016064182421372784 0.0021646702924791057 0.0022201523397650039 0.00051203130860812964 -0.0018736345930532975 0.0010924471950247176 0.0021153767324156229
leaf_weight=342 107 48 24 27 88 83 449 68 21 21 53 26 22 79 22 89 240 44 20 71 214 198 91 155 78 21 20 22 21 36
leaf_count=342 107 48 24 27 88 83 449 68 21 21 53 26 22 79 22 89 240 44 20 71 214 198 91 155 78 21 20 22 21 36
internal_value=0 0.0014096 -0.00144838 0.00174217 -0.00190005 -0.000693575 0.001935 0.001288 0.00040147 0.00163941 0.00139037 0.00087808 0.0016115 -0.000377619 0.0019165 0.000786799 -0.000996366 0.00022632 7.96201e-05 0.000388328 -0.00209823 -0.00154228 -0.000239564 0.00152022 0.00202208 0.00176342 0.000868151 -0.0014592 0.00071097 0.00191094
internal_weight=0 1419 1381 1067 864 517 749 318 352 300 158 115 111 253 142 110 264 242 127 115 556 308 170 203 121 43 47 220 89 58
internal_count=2800 1419 1381 1067 864 517 749 318 352 300 158 115 111 253 142 110 264 242 127 115 556 308 170 203 121 43 47 220 89 58
is_linear=0
shrinkage=0.005


Tree=16
num_leaves=31
num_cat=0
split_feature=13 11 9 16 9 12 11 4 11 0 13 0 2 18 14 11 13 4 11 17 9 11 7 17 4 5 18 10 4 9
split_gain=226.382 18.8407 18.6445 3.70054 2.42597 1.9587 1.73162 1.19876 0.940784 0.819815 0.722523 0.435335 0.431326 0.361141 0.357425 0.283338 0.243855 0.229905 0.227912 0.214913 0.210509 0.192887 0.176728 0.339068 0.174849 0.167061 0.158395 0.158299 0.158287 0.158134
threshold=0.12571118493572872 0.27293455947699136 0.15948237260360917 0.079021571467844512 0.11865065917123221 0.15460306716459263 0.32362839872257138 0.0078702108028536628 0.25502426393037053 0.07758513298768234 0.19368359441530794 0.057703164292867155 0.10089614296456752 0.060602136223227084 0.19805775889984892 0.18361508561780751 0.064834827675979187 0.058145188819691003 0.23266578684806624 0.012965527203935985 0.13017444743632703 0.32074670629386887 0.13913970569425707 0.1169368277574976 0.01945768012318894 0.28878357702297891 0.10590773553396172 0.11932618688098891 0.0092511986871843827 0.097840716662815838
decision_type=2 2 2 2 2 2 2 2 2 2 2 2 2 2 2 2 2 2 2 2 2 2 2 2 2 2 2 2 2 2
left_child=2 8 4 7 19 16 9 21 18 10 24 26 28 -11 -10 27 -4 -17 -2 29 -6 -3 23 -15 -5 -22 -9 -7 -12 -1
right_child=1 3 5 6 20 15 -8 11 14 13 12 -13 -14 22 -16 17 -18 -19 -20 -21 25 -23 -24 -25 -26 -27 -28 -29 -30 -31
leaf_value=-0.002097872695544871 5.7100645626302473e-05 0.0012356562850375969 -0.0014603140542749317 0.0011262836131370729 -0.0017412532400339841 -0.00047408222602421629 0.0021218414109341285 0.00059019556499312299 0.0013696132221126132 0.0013016546571937701 0.0016146899746464832 0.0014428583854952685 0.0019013839324229752 0.0013208190546455708 0.00064441890007125603 -5.1582268899000141e-05 -0.00093276856171509409 -0.0004231582240357635 0.00036526195885292542 -0.002212011313466268 -0.001887608875287697 0.001598386202007532 0.002153846950341876 0.0022090515707220352 0.00050947114918380978 -0.0014083289998117834 0.0010869849304712955 -0.00098568520020870945 0.0010560315758630168 -0.001878461576726315
leaf_weight=205 110 48 24 27 88 54 449 68 21 21 21 26 58 22 89 79 251 88 132 214 20 155 78 21 20 200 21 21 32 137
leaf_count=205 110 48 24 27 88 54 449 68 21 21 21 26 58 22 89 79 251 88 132 214 20 155 78 21 20 200 21 21 32 137
internal_value=0 0.00140255 -0.00144114 0.00173346 -0.00189055 -0.000690107 0.00192533 0.00128156 0.000399463 0.00163121 0.00138342 0.00087369 0.00160344 0.00190692 0.000782865 -0.000362036 -0.000978809 -0.000247383 0.000225189 -0.00208774 -0.00153457 0.00151262 0.00201197 0.00175461 0.00086381 -0.0014519 0.000707416 -0.000617331 0.00127739 -0.00200998
internal_weight=0 1419 1381 1067 864 517 749 318 352 300 158 115 111 142 110 242 275 167 242 556 308 203 121 43 47 220 89 75 53 342
internal_count=2800 1419 1381 1067 864 517 749 318 352 300 158 115 111 142 110 242 275 167 242 556 308 203 121 43 47 220 89 75 53 342
is_linear=0
shrinkage=0.005


Tree=17
num_leaves=31
num_cat=0
split_feature=13 11 9 16 9 9 11 4 11 0 13 0 2 11 18 14 13 0 4 18 17 9 4 11 7 17 4 15 6 11
split_gain=224.124 18.6528 18.4585 3.66363 2.40177 1.93997 1.71434 1.1868 0.9314 0.811637 0.715316 0.430992 0.427024 0.387522 0.357538 0.35386 0.229831 0.227566 0.357546 0.289877 0.212769 0.20841 0.203636 0.190963 0.174965 0.335686 0.173104 0.165478 0.157497 0.159222
threshold=0.12571118493572872 0.27293455947699136 0.15948237260360917 0.079021571467844512 0.11865065917123221 0.20713317774632498 0.32362839872257138 0.0078702108028536628 0.25502426393037053 0.07758513298768234 0.19368359441530794 0.057703164292867155 0.10089614296456752 0.18361508561780751 0.060602136223227084 0.19805775889984892 0.064834827675979187 0.099639570039670181 0.034831835712308086 0.039661880902810871 0.012965527203935985 0.13017444743632703 0.058145188819691003 0.32074670629386887 0.13913970569425707 0.1169368277574976 0.01945768012318894 0.22223099302367841 0.062271737457729411 0.37378563500889034
decision_type=2 2 2 2 2 2 2 2 2 2 2 2 2 2 2 2 2 2 2 2 2 2 2 2 2 2 2 2 2 2
left_child=2 8 4 7 20 16 9 23 17 10 26 -9 -12 -7 -11 -10 -4 18 -2 -19 -1 -6 -15 -3 25 -16 -5 -23 29 -25
right_child=1 3 5 6 21 13 -8 11 15 14 12 -13 -14 22 24 -17 -18 19 -20 -21 -22 27 -24 28 -26 -27 -28 -29 -30 -31
leaf_value=-0.0019999300213585122 0.00019285829961909171 0.0012294780074929197 -0.0014530124852899463 0.0011206521880295541 -0.0017325470058924771 -0.00065384138479312678 0.0021112322306596491 0.00070387844982546541 0.0013627651147544385 0.0012951463530771435 0.0012709998414974729 0.0014356441172556236 0.0018918769909390088 -5.1324353612299203e-05 0.0013142149652015755 0.00064119680744093531 -0.00093983768396962368 6.630764284636826e-05 -0.00053547582542523748 0.00058280721612596019 -0.0022009512336454659 -0.0013989308251143254 -0.0003982908521129003 0.0014024271690443661 0.0021430776934497631 0.002198006361722946 0.00050692379567772157 -0.0018560265614227815 0.0019627602522571883 0.0017759249181974503
leaf_weight=342 107 48 24 27 88 83 449 89 21 21 53 26 58 79 22 89 240 44 20 71 214 198 91 89 78 21 20 22 24 42
leaf_count=342 107 48 24 27 88 83 449 89 21 21 53 26 58 79 22 89 240 44 20 71 214 198 91 89 78 21 20 22 24 42
internal_value=0 0.00139554 -0.00143394 0.0017248 -0.00188109 -0.000686656 0.0019157 0.00127515 0.000397465 0.00162306 0.00137651 0.000869321 0.00159542 -0.000373786 0.00189739 0.000778951 -0.00098649 0.000224063 7.816e-05 0.00038519 -0.0020773 -0.0015269 -0.000237053 0.00150505 0.00200191 0.00174583 0.000859491 -0.00144464 0.00159039 0.00152217
internal_weight=0 1419 1381 1067 864 517 749 318 352 300 158 115 111 253 142 110 264 242 127 115 556 308 170 203 121 43 47 220 155 131
internal_count=2800 1419 1381 1067 864 517 749 318 352 300 158 115 111 253 142 110 264 242 127 115 556 308 170 203 121 43 47 220 155 131
is_linear=0
shrinkage=0.005


Tree=18
num_leaves=31
num_cat=0
split_feature=13 11 9 16 9 9 11 4 11 0 13 0 2 11 18 14 13 15 18 4 17 9 4 11 7 17 4 5 15 18
split_gain=221.889 18.4667 18.2744 3.62708 2.37781 1.92062 1.69724 1.17496 0.922109 0.803541 0.708181 0.426693 0.422764 0.383657 0.353972 0.35033 0.227539 0.22541 0.312756 0.26007 0.210647 0.206331 0.201605 0.189058 0.17322 0.332337 0.171378 0.164611 0.157202 0.156815
threshold=0.12571118493572872 0.27293455947699136 0.15948237260360917 0.079021571467844512 0.11865065917123221 0.20713317774632498 0.32362839872257138 0.0078702108028536628 0.25502426393037053 0.07758513298768234 0.19368359441530794 0.057703164292867155 0.10089614296456752 0.18361508561780751 0.060602136223227084 0.19805775889984892 0.064834827675979187 0.3035272412979656 0.039661880902810871 0.035466729350051802 0.012965527203935985 0.13017444743632703 0.058145188819691003 0.32074670629386887 0.13913970569425707 0.1169368277574976 0.01945768012318894 0.28878357702297891 0.36164024313077958 0.10590773553396172
decision_type=2 2 2 2 2 2 2 2 2 2 2 2 2 2 2 2 2 2 2 2 2 2 2 2 2 2 2 2 2 2
left_child=2 8 4 7 20 16 9 23 17 10 26 29 -12 -7 -11 -10 -4 18 -2 -19 -1 -6 -15 -3 25 -16 -5 -23 -14 -9
right_child=1 3 5 6 21 13 -8 11 15 14 12 -13 28 22 24 -17 -18 19 -20 -21 -22 27 -24 -25 -26 -27 -28 -29 -30 -31
leaf_value=-0.001989930339201152 6.5976117938672276e-05 0.0012233306405444939 -0.0014457474241498858 0.0011150489223224146 -0.0017238842577419497 -0.00065057216763372979 0.0021006759569330976 0.00058372519460082168 0.0013559512776278315 0.0012886706555616998 0.001264644841584465 0.0014284659216467004 0.0015494326366619628 -5.1067732746088053e-05 0.0013076438934711571 0.00063799082277521879 -0.00093513850684879196 0.00018589829573069106 0.00061186325761417926 -0.00039873125932543823 -0.0021899464392216407 -0.0018699191482737659 -0.00039629939049328828 0.0015824422876260455 0.0021323623123745889 0.002187016315403439 0.00050438918126747016 -0.0013941670008469373 0.0020859083967904248 0.0010780306249147369
leaf_weight=342 44 48 24 27 88 83 449 68 21 21 53 26 22 79 22 89 240 110 65 23 214 20 91 155 78 21 20 200 36 21
leaf_count=342 44 48 24 27 88 83 449 68 21 21 53 26 22 79 22 89 240 110 65 23 214 20 91 155 78 21 20 200 36 21
internal_value=0 0.00138856 -0.00142677 0.00171617 -0.00187169 -0.000683223 0.00190612 0.00126878 0.000395478 0.00161494 0.00136962 0.000864975 0.00158745 -0.000371917 0.0018879 0.000775056 -0.000981557 0.000222942 0.000391505 8.47969e-05 -0.00206691 -0.00151926 -0.000235868 0.00149753 0.0019919 0.0017371 0.000855194 -0.00143742 0.00188242 0.000700359
internal_weight=0 1419 1381 1067 864 517 749 318 352 300 158 115 111 253 142 110 264 242 109 133 556 308 170 203 121 43 47 220 58 89
internal_count=2800 1419 1381 1067 864 517 749 318 352 300 158 115 111 253 142 110 264 242 109 133 556 308 170 203 121 43 47 220 58 89
is_linear=0
shrinkage=0.005


Tree=19
num_leaves=31
num_cat=0
split_feature=13 11 9 16 9 9 11 4 11 0 13 0 2 11 18 14 13 0 4 18 4 9 4 11 7 17 4 15 4 16
split_gain=219.675 18.2825 18.0921 3.5909 2.3541 1.90146 1.68031 1.16324 0.912911 0.795525 0.701117 0.422437 0.418547 0.37983 0.350441 0.346836 0.225269 0.223562 0.351537 0.284453 0.209094 0.204273 0.199594 0.187172 0.171492 0.329022 0.169668 0.163049 0.156708 0.156067
threshold=0.12571118493572872 0.27293455947699136 0.15948237260360917 0.079021571467844512 0.11865065917123221 0.20713317774632498 0.32362839872257138 0.0078702108028536628 0.25502426393037053 0.07758513298768234 0.19368359441530794 0.057703164292867155 0.10089614296456752 0.18361508561780751 0.060602136223227084 0.19805775889984892 0.064834827675979187 0.099639570039670181 0.034831835712308086 0.039661880902810871 0.24744681423677869 0.13017444743632703 0.058145188819691003 0.32074670629386887 0.13913970569425707 0.1169368277574976 0.01945768012318894 0.22223099302367841 0.0092511986871843827 0.066372660944327824
decision_type=2 2 2 2 2 2 2 2 2 2 2 2 2 2 2 2 2 2 2 2 2 2 2 2 2 2 2 2 2 2
left_child=2 8 4 7 20 16 9 23 17 10 26 -9 28 29 -11 -10 -4 18 -2 -19 -1 -6 -15 -3 25 -16 -5 -23 -12 -7
right_child=1 3 5 6 21 13 -8 11 15 14 12 -13 -14 22 24 -17 -18 19 -20 -21 -22 27 -24 -25 -26 -27 -28 -29 -30 -31
leaf_value=-0.0019519946211043035 0.00019094461470703098 0.0012172140111215413 -0.0014385186659637839 0.0011094737018424051 -0.0017152648300609804 -0.00097755958884954445 0.0020901725757742646 0.00069685726988997858 0.0013491715357771942 0.0012822272839756415 0.0015939383116728139 0.001421323545062198 0.0018730055585760494 -5.0812396427168497e-05 0.0013011056686412881 0.00063480087252398506 -0.00093046279773140368 6.5646226390857586e-05 -0.00053124327259138223 0.00057729086392677164 -0.0021464751900039788 -0.0013848572206387128 -0.0003943178935774735 0.0015745300696261466 0.0021217004878398699 0.0021760812401771545 0.00050186723424121738 -0.0018385861949487168 0.0010380731528857722 -0.00050497437070589517
leaf_weight=257 107 48 24 27 88 25 449 89 21 21 21 26 58 79 22 89 240 44 20 71 299 198 91 155 78 21 20 22 32 58
leaf_count=257 107 48 24 27 88 25 449 89 21 21 21 26 58 79 22 89 240 44 20 71 299 198 91 155 78 21 20 22 32 58
internal_value=0 0.00138162 -0.00141963 0.00170759 -0.00186233 -0.000679807 0.00189659 0.00126243 0.0003935 0.00160687 0.00136278 0.00086065 0.00157951 -0.000370058 0.00187846 0.000771181 -0.00097665 0.000221828 7.72142e-05 0.000381531 -0.00205658 -0.00151167 -0.000234689 0.00149004 0.00198194 0.00172842 0.000850918 -0.00143023 0.00125832 -0.000647319
internal_weight=0 1419 1381 1067 864 517 749 318 352 300 158 115 111 253 142 110 264 242 127 115 556 308 170 203 121 43 47 220 53 83
internal_count=2800 1419 1381 1067 864 517 749 318 352 300 158 115 111 253 142 110 264 242 127 115 556 308 170 203 121 43 47 220 53 83
is_linear=0
shrinkage=0.005


Tree=20
num_leaves=31
num_cat=0
split_feature=13 11 12 16 9 9 11 11 4 2 18 14 11 2 18 5 18 13 0 4 18 4 2 17 11 15 5 9 9 6
split_gain=217.484 18.1013 17.9126 3.55107 2.22724 1.95354 1.36092 1.35755 1.09977 0.80116 0.592928 0.458991 0.436444 0.39928 0.312557 0.448236 0.30075 0.252256 0.221332 0.34803 0.281615 0.220879 0.217422 0.207496 0.185305 0.177967 0.163658 0.16311 0.156306 0.155926
threshold=0.12571118493572872 0.27686718990187426 0.10940358505181912 0.079021571467844512 0.20382204160639938 0.11865065917123221 0.25502426393037053 0.32362839872257138 0.0078702108028536628 0.11546917738120922 0.096135808894164468 0.20373863648361726 0.1507893145654797 0.090448707275749066 0.073261805977488673 0.156263086561128 0.078559281026692976 0.064834827675979187 0.099639570039670181 0.034831835712308086 0.039661880902810871 0.057347164688849823 0.10089614296456752 0.012965527203935985 0.32074670629386887 0.22223099302367841 0.16870836510067336 0.12831748196988282 0.10146639011160062 0.062271737457729411
decision_type=2 2 2 2 2 2 2 2 2 2 2 2 2 2 2 2 2 2 2 2 2 2 2 2 2 2 2 2 2 2
left_child=2 6 5 8 17 23 18 9 24 10 16 -8 -6 -10 15 -11 -5 -4 19 -2 -20 26 -18 28 -3 27 -14 -7 -1 -26
right_child=1 3 4 7 12 25 11 -9 13 14 -12 -13 21 -15 -16 -17 22 -19 20 -21 -22 -23 -24 -25 29 -27 -28 -29 -30 -31
leaf_value=-0.0020439878196427319 0.00018998988873595112 0.0012111279298551382 -0.0014480607165023684 0.00065068758700204924 -0.0011056491620838641 -0.0016956707829875607 0.001374388074186901 0.0020797217912963675 0.00064840101142579765 0.0011932183065800927 0.0019761950309787478 0.00068692362284179711 -0.00040910572009651285 0.0013257040137485152 0.0020816056543428983 0.0019963845532497784 0.0010911095730391227 -0.00097580352967217897 6.5318007784133608e-05 -0.00052858703676611182 0.00057440442467619941 -0.00045487655629255586 0.0016522838907050237 -0.002168405216848739 0.0014987787921230471 -0.0019333241194486616 1.0251296451315284e-05 -0.0014112277124077083 -0.0018156891692060609 0.0019371615474422775
leaf_weight=231 107 48 32 23 20 70 31 449 73 32 28 112 38 31 84 38 45 243 44 20 71 157 28 214 131 25 60 180 111 24
leaf_count=231 107 48 32 23 20 70 31 449 73 32 28 112 38 31 84 38 45 243 44 20 71 157 28 214 131 25 60 180 111 24
internal_value=0 0.00137471 -0.00141253 0.0017193 -0.000712578 -0.0018758 0.000449235 0.00190971 0.00126839 0.00163512 0.00133599 0.000835954 -0.000394398 0.000850289 0.00187598 0.00162922 0.00114927 -0.00103076 0.000220719 7.68282e-05 0.000379624 -0.000338614 0.00130635 -0.0020463 0.00148259 -0.00153109 -0.000152357 -0.00149087 -0.00196989 0.00156666
internal_weight=0 1419 1381 1034 550 831 385 727 307 278 124 143 275 104 154 70 96 275 242 127 115 255 73 556 203 275 98 250 342 155
internal_count=2800 1419 1381 1034 550 831 385 727 307 278 124 143 275 104 154 70 96 275 242 127 115 255 73 556 203 275 98 250 342 155
is_linear=0
shrinkage=0.005


Tree=21
num_leaves=31
num_cat=0
split_feature=13 11 9 16 9 12 11 4 11 0 13 0 2 18 14 11 13 15 18 4 4 9 4 11 7 17 4 5 18 15
split_gain=215.315 17.9247 17.7359 3.51972 2.3065 1.86405 1.64613 1.13975 0.893337 0.781314 0.688278 0.415835 0.410862 0.345048 0.340286 0.271074 0.231827 0.219319 0.303911 0.253808 0.205567 0.200233 0.188808 0.183457 0.169534 0.323758 0.167093 0.161434 0.155503 0.154829
threshold=0.12571118493572872 0.27293455947699136 0.15948237260360917 0.079021571467844512 0.11865065917123221 0.15460306716459263 0.32362839872257138 0.0078702108028536628 0.25502426393037053 0.07758513298768234 0.19368359441530794 0.057703164292867155 0.10089614296456752 0.060602136223227084 0.19805775889984892 0.18040603211375431 0.064834827675979187 0.3035272412979656 0.039661880902810871 0.035466729350051802 0.24744681423677869 0.13017444743632703 0.058145188819691003 0.32074670629386887 0.13913970569425707 0.1169368277574976 0.01945768012318894 0.28878357702297891 0.10590773553396172 0.36164024313077958
decision_type=2 2 2 2 2 2 2 2 2 2 2 2 2 2 2 2 2 2 2 2 2 2 2 2 2 2 2 2 2 2
left_child=2 8 4 7 20 16 9 23 17 10 26 28 -12 -11 -10 -7 -4 18 -2 -19 -1 -6 -17 -3 25 -15 -5 -23 -9 -14
right_child=1 3 5 6 21 15 -8 11 14 13 12 -13 29 24 -16 22 -18 19 -20 -21 -22 27 -24 -25 -26 -27 -28 -29 -30 -31
leaf_value=-0.0019323660728996367 6.4991413488645452e-05 0.0012050722485097748 -0.0014240857826856277 0.0010984937467232898 -0.0016982637438923121 -0.00063499328255328159 0.0020693231654251806 0.00057352113010197435 0.0013355537764506325 0.0012684884908334684 0.0012455724898224943 0.0014084482859247004 0.0015241240286691625 0.0012868451101663101 0.00062796052291549834 -8.4774577719440983e-05 -0.0009097153621501256 0.00018322556063702161 0.00060310476083451738 -0.0003943230530105369 -0.002125199445115284 -0.0018443692320724951 -0.00040979933166395755 0.0015588241084929437 0.0021017560892953322 0.0021547927175249375 0.00049551664106547836 -0.0013732310776133092 0.0010657529293426446 0.0020565363640586533
leaf_weight=257 44 48 24 27 88 63 449 68 21 21 53 26 22 22 89 86 251 110 65 23 299 20 93 155 78 21 20 200 21 36
leaf_count=257 44 48 24 27 88 63 449 68 21 21 53 26 22 22 89 86 251 110 65 23 299 20 93 155 78 21 20 200 21 36
internal_value=0 0.00136783 -0.00140547 0.0016906 -0.00184379 -0.000672965 0.00187772 0.00124988 0.000389437 0.00159096 0.00134906 0.000852173 0.0015638 0.00186012 0.000763047 -0.00035292 -0.000954606 0.000219615 0.000385885 8.33487e-05 -0.00203607 -0.00149669 -0.000253642 0.00147518 0.0019628 0.00171073 0.000841908 -0.00141606 0.000689666 0.00185459
internal_weight=0 1419 1381 1067 864 517 749 318 352 300 158 115 111 142 110 242 275 242 109 133 556 308 179 203 121 43 47 220 89 58
internal_count=2800 1419 1381 1067 864 517 749 318 352 300 158 115 111 142 110 242 275 242 109 133 556 308 179 203 121 43 47 220 89 58
is_linear=0
shrinkage=0.005


Tree=22
num_leaves=31
num_cat=0
split_feature=13 11 12 16 9 9 11 4 11 0 18 11 0 17 18 14 6 13 0 4 18 4 17 11 15 7 17 5 9 6
split_gain=213.167 17.7459 17.5596 3.48461 2.18421 1.91399 1.62971 1.12838 0.884426 0.773521 0.68302 0.430107 0.411687 0.38755 0.341606 0.336892 0.321094 0.247031 0.217438 0.342178 0.276346 0.215894 0.204392 0.181627 0.175642 0.167843 0.320529 0.162121 0.15984 0.15437
threshold=0.12571118493572872 0.27293455947699136 0.10940358505181912 0.079021571467844512 0.20382204160639938 0.11865065917123221 0.32362839872257138 0.0078702108028536628 0.25502426393037053 0.07758513298768234 0.096135808894164468 0.1507893145654797 0.057703164292867155 0.1169368277574976 0.060602136223227084 0.19805775889984892 0.094864961712707654 0.064834827675979187 0.099639570039670181 0.034831835712308086 0.039661880902810871 0.057347164688849823 0.012965527203935985 0.32074670629386887 0.22223099302367841 0.13913970569425707 0.1169368277574976 0.16870836510067336 0.12831748196988282 0.062271737457729411
decision_type=2 2 2 2 2 2 2 2 2 2 2 2 2 2 2 2 2 2 2 2 2 2 2 2 2 2 2 2 2 2
left_child=2 8 5 7 17 22 9 23 18 10 13 -6 -9 -5 -11 -10 -15 -4 19 -2 -20 27 -1 -3 28 26 -16 -13 -7 -25
right_child=1 3 4 6 11 24 -8 12 15 14 -12 21 -14 16 25 -17 -18 -19 20 -21 -22 -23 -24 29 -26 -27 -28 -29 -30 -31
leaf_value=-0.0019500526021185675 0.00018810419326595893 0.0011990469205193223 -0.0014334691135445611 0.00061927604507654914 -0.0010963965132832528 -0.001678701129875013 0.0020589765441709745 0.00068621738008066511 0.0013288759949639261 0.0012621460685373418 0.0019946437398903074 -0.00040634672451568283 0.0014014061063957904 0.0011269914047110693 0.0012804109057072887 0.0006248207145247588 0.0017382382577465427 -0.00096612781214378322 6.466645810922439e-05 -0.00052440565731376411 0.00056896788268153309 -0.00044989296927333328 -0.0021470769070019232 0.0014834907959314875 -0.0019155174672603607 0.0020912472937160581 0.0021440187309469498 1.103657577186823e-05 -0.0013971235445804067 0.0019196815943966308
leaf_weight=342 107 48 32 25 20 70 449 89 21 21 32 38 26 70 22 89 31 243 44 20 71 157 214 131 25 78 21 60 180 24
leaf_count=342 107 48 32 25 20 70 449 89 21 21 32 38 26 70 22 89 31 243 44 20 71 157 214 131 25 78 21 60 180 24
internal_value=0 0.00136099 -0.00139844 0.00168215 -0.000705419 -0.00185713 0.00186833 0.00124363 0.00038749 0.001583 0.00134231 -0.000390328 0.000847912 0.00117664 0.00185082 0.000759231 0.0013146 -0.00102051 0.000218517 7.58979e-05 0.000376018 -0.00033495 -0.00202589 0.0014678 -0.00151592 0.00195298 0.00170217 -0.000150806 -0.00147597 0.00155103
internal_weight=0 1419 1381 1067 550 831 749 318 352 300 158 275 115 126 142 110 101 275 242 127 115 255 556 203 275 121 43 98 250 155
internal_count=2800 1419 1381 1067 550 831 749 318 352 300 158 275 115 126 142 110 101 275 242 127 115 255 556 203 275 121 43 98 250 155
is_linear=0
shrinkage=0.005


Tree=23
num_leaves=31
num_cat=0
split_feature=13 11 9 16 11 9 12 11 2 2 11 18 18 14 11 0 13 0 4 18 4 9 4 16 4 2 4 5 18 18
split_gain=211.041 17.5692 17.3867 2.82008 2.42747 2.25987 1.82692 0.888363 0.785895 0.713539 0.705826 0.642164 0.515355 0.348358 0.266999 0.245757 0.227213 0.215269 0.338765 0.27359 0.202491 0.196272 0.185249 0.179671 0.179387 0.161421 0.182884 0.159072 0.155377 0.14636
threshold=0.12571118493572872 0.28796822074413742 0.15948237260360917 0.079021571467844512 0.25502426393037053 0.11865065917123221 0.15460306716459263 0.32440855633660809 0.11546917738120922 0.13371774588956878 0.32074670629386887 0.060602136223227084 0.096135808894164468 0.19805775889984892 0.18040603211375431 0.044870012008134237 0.064834827675979187 0.099639570039670181 0.034831835712308086 0.039661880902810871 0.24744681423677869 0.13017444743632703 0.058145188819691003 0.056933297528946387 0.0082018332851616655 0.11064072221444145 0.014473236235532207 0.28878357702297891 0.067748000258089761 0.078559281026692976
decision_type=2 2 2 2 2 2 2 2 2 2 2 2 2 2 2 2 2 2 2 2 2 2 2 2 2 2 2 2 2 2
left_child=2 4 5 10 17 20 16 8 12 25 15 13 -5 -11 -8 24 -4 18 -2 -19 -1 -7 -16 -12 -3 26 -6 -23 -27 -10
right_child=1 3 6 7 9 21 14 -9 29 11 23 -13 -14 -15 22 -17 -18 19 -20 -21 -22 27 -24 -25 -26 28 -28 -29 -30 -31
leaf_value=-0.0019128351461446702 0.00018716367251004712 0.0010360619885226091 -0.0014097980161507926 0.0011906002248443573 0.00078788743810146117 -0.0016814312618225814 -0.00062929618422732881 0.0020521743826002153 0.0017900530680931442 0.0014866836906339115 0.0011256002008914949 0.0020957831740379333 0.0019591566162376569 0.00070750792314356659 -8.3554033325378623e-05 0.0012612345468495851 -0.00090057246717698577 6.4343118997798733e-05 -0.00052178362943232067 0.00056612306001471539 -0.0021042202285998643 -0.00182719637293485 -0.00040550086610970559 0.001585521922291567 0.00047428894326677199 0.00075689857499167807 0.00032050640380475669 -0.0013595176189672201 0.001275951974093914 0.0021410648433262841
leaf_weight=257 107 30 24 88 50 88 63 441 62 26 25 20 29 32 86 46 251 44 20 71 299 20 93 141 27 46 36 200 21 57
leaf_count=257 107 30 24 88 50 88 63 441 62 26 25 20 29 32 86 46 251 44 20 71 299 20 93 141 27 46 36 200 21 57
internal_value=0 0.00135419 -0.00139145 0.00174759 0.000567381 -0.00182543 -0.000666193 0.00191968 0.00167209 0.000934003 0.00131451 0.0013232 0.0013811 0.00105679 -0.000349351 0.000989364 -0.000945014 0.000217424 7.55184e-05 0.000374138 -0.00201576 -0.00148186 -0.000250822 0.00151626 0.000769959 0.000735588 0.00059224 -0.00140203 0.000919587 0.00195818
internal_weight=0 1419 1381 946 473 864 517 677 236 231 269 78 117 58 242 103 275 242 127 115 556 308 179 166 57 153 86 220 67 119
internal_count=2800 1419 1381 946 473 864 517 677 236 231 269 78 117 58 242 103 275 242 127 115 556 308 179 166 57 153 86 220 67 119
is_linear=0
shrinkage=0.005


Tree=24
num_leaves=31
num_cat=0
split_feature=13 11 12 16 9 9 11 4 11 0 13 11 2 2 18 14 13 15 18 4 4 17 11 15 7 17 4 5 9 9
split_gain=208.935 17.3981 17.2136 3.41576 2.14202 1.87525 1.59665 1.10666 0.865567 0.760171 0.672797 0.423865 0.406273 0.402902 0.333487 0.329543 0.241913 0.213393 0.295318 0.247701 0.211016 0.201336 0.17775 0.173347 0.165653 0.315509 0.16328 0.160598 0.156636 0.153957
threshold=0.12571118493572872 0.27293455947699136 0.10940358505181912 0.079021571467844512 0.20382204160639938 0.11865065917123221 0.32362839872257138 0.0078702108028536628 0.25502426393037053 0.07758513298768234 0.19368359441530794 0.1507893145654797 0.090448707275749066 0.10089614296456752 0.060602136223227084 0.19805775889984892 0.064834827675979187 0.3035272412979656 0.039661880902810871 0.035466729350051802 0.057347164688849823 0.012965527203935985 0.32074670629386887 0.22223099302367841 0.13913970569425707 0.1169368277574976 0.01945768012318894 0.16870836510067336 0.12831748196988282 0.10146639011160062
decision_type=2 2 2 2 2 2 2 2 2 2 2 2 2 2 2 2 2 2 2 2 2 2 2 2 2 2 2 2 2 2
left_child=2 8 5 7 16 21 9 22 17 10 26 -6 -9 -12 -11 -10 -4 18 -2 -19 27 29 -3 28 25 -16 -5 -13 -7 -1
right_child=1 3 4 6 11 23 -8 12 15 14 13 20 -14 -15 24 -17 -18 19 -20 -21 -22 -23 -24 -25 -26 -27 -28 -29 -30 -31
leaf_value=-0.0020039516864787965 6.402140292762356e-05 0.0011873788052859406 -0.0014190233132103458 0.0010809485069303601 -0.0010872254995629191 -0.0016619004426257952 0.0020384466944714562 0.00062646517658370272 0.0013146531272546522 0.0012511846635468481 0.001225904349137739 -0.0004036099928137111 0.0012542180010141472 0.0018289902921894503 0.0012661471930120818 0.00061831920188616207 -0.00095654859492979726 0.00018059239176694642 0.00059447223905366496 -0.00038996562457886404 -0.00044496125747567133 -0.0021259590294038025 0.001535584628709682 -0.0018978789806365969 0.0020711222216964532 0.0021229665194238937 0.00048488988424651326 1.1808470667650302e-05 -0.001383159974589944 -0.0017773748363728995
leaf_weight=231 44 48 32 27 20 70 449 76 21 21 53 38 39 58 22 89 243 110 65 23 157 214 155 25 78 21 20 60 180 111
leaf_count=231 44 48 32 27 20 70 449 76 21 21 53 38 39 58 22 89 243 110 65 23 157 214 155 25 78 21 20 60 180 111
internal_value=0 0.00134742 -0.0013845 0.00166541 -0.000698331 -0.00183863 0.00184975 0.00123124 0.000383499 0.00156733 0.00132872 -0.000386299 0.000839355 0.00154103 0.00183282 0.000751256 -0.00101036 0.000216337 0.000380345 8.19245e-05 -0.000331324 -0.00200568 0.00145325 -0.0015009 0.00193376 0.00168459 0.000827307 -0.000149272 -0.00146121 -0.00193041
internal_weight=0 1419 1381 1067 550 831 749 318 352 300 158 275 115 111 142 110 275 242 109 133 255 556 203 275 121 43 47 98 250 342
internal_count=2800 1419 1381 1067 550 831 749 318 352 300 158 275 115 111 142 110 275 242 109 133 255 556 203 275 121 43 47 98 250 342
is_linear=0
shrinkage=0.005


Tree=25
num_leaves=31
num_cat=0
split_feature=13 11 9 16 9 9 11 4 11 0 18 0 17 11 18 14 6 13 0 4 18 17 9 4 11 7 17 5 18 6
split_gain=206.851 17.2246 17.0444 3.38169 2.21417 1.7908 1.58073 1.09562 0.856933 0.752589 0.667071 0.402816 0.378327 0.365649 0.33016 0.326256 0.314758 0.212029 0.211482 0.333065 0.268471 0.199327 0.192391 0.18875 0.175977 0.164001 0.312362 0.156744 0.153374 0.152633
threshold=0.12571118493572872 0.27293455947699136 0.15948237260360917 0.079021571467844512 0.11865065917123221 0.20713317774632498 0.32362839872257138 0.0078702108028536628 0.25502426393037053 0.07758513298768234 0.096135808894164468 0.057703164292867155 0.1169368277574976 0.18361508561780751 0.060602136223227084 0.19805775889984892 0.094864961712707654 0.064834827675979187 0.099639570039670181 0.034831835712308086 0.039661880902810871 0.012965527203935985 0.13017444743632703 0.058145188819691003 0.32074670629386887 0.13913970569425707 0.1169368277574976 0.28878357702297891 0.10590773553396172 0.062271737457729411
decision_type=2 2 2 2 2 2 2 2 2 2 2 2 2 2 2 2 2 2 2 2 2 2 2 2 2 2 2 2 2 2
left_child=2 8 4 7 21 17 9 24 18 10 12 28 -5 -7 -11 -10 -14 -4 19 -2 -20 -1 -6 -15 -3 26 -16 -24 -9 -26
right_child=1 3 5 6 22 13 -8 11 15 14 -12 -13 16 23 25 -17 -18 -19 20 -21 -22 -23 27 -25 29 -27 -28 -29 -30 -31
leaf_value=-0.0019207615061113013 0.00018530555139078159 0.0011814418854191899 -0.0013956539084513983 0.00060765860602259632 -0.0016647657133977522 -0.00063092458513070956 0.0020282544489360864 0.00055986829094335387 0.0013080798999622598 0.0012449287500099413 0.0019667469034902753 0.0013826569467066572 0.0011089103072881698 -4.7258634762720597e-05 0.0012598164458441632 0.00061522759825483042 0.0017140966437516674 -0.00090275478529846024 6.3701304448345175e-05 -0.00051765279192477463 0.00056076518311796541 -0.0021153291600329856 -0.0018101859394810164 -0.00038130247904049171 0.0014607486368330483 0.0020607665802041689 0.0021123516772474562 -0.0013459408010821788 0.0010487191379070283 0.0018944777641445398
leaf_weight=342 107 48 24 25 88 83 449 68 21 21 32 26 70 79 22 89 31 240 44 20 71 214 20 91 131 78 21 200 21 24
leaf_count=342 107 48 24 25 88 83 449 68 21 21 32 26 70 79 22 89 31 240 44 20 71 214 20 91 131 78 21 200 21 24
internal_value=0 0.00134068 -0.00137757 0.00165709 -0.00180726 -0.000659488 0.0018405 0.00122509 0.000381582 0.00155949 0.00132208 0.000835158 0.00115835 -0.000358888 0.00182365 0.000747499 0.00129466 -0.000947564 0.000215255 7.46035e-05 0.000370584 -0.00199565 -0.00146718 -0.00022607 0.00144598 0.00192409 0.00167617 -0.00138814 0.000675215 0.00152791
internal_weight=0 1419 1381 1067 864 517 749 318 352 300 158 115 126 253 142 110 101 264 242 127 115 556 308 170 203 121 43 220 89 155
internal_count=2800 1419 1381 1067 864 517 749 318 352 300 158 115 126 253 142 110 101 264 242 127 115 556 308 170 203 121 43 220 89 155
is_linear=0
shrinkage=0.005


Tree=26
num_leaves=31
num_cat=0
split_feature=13 11 12 16 9 9 11 4 11 0 13 11 2 2 18 14 13 15 18 4 4 4 11 15 7 17 4 5 9 6
split_gain=204.788 17.0528 16.8744 3.34796 2.10004 1.83728 1.56496 1.08469 0.848385 0.745081 0.66155 0.417774 0.39944 0.396811 0.326867 0.323001 0.236951 0.209438 0.289657 0.24348 0.206477 0.198069 0.174221 0.171083 0.162365 0.309246 0.16 0.159166 0.153495 0.15111
threshold=0.12571118493572872 0.27293455947699136 0.10940358505181912 0.079021571467844512 0.20382204160639938 0.11865065917123221 0.32362839872257138 0.0078702108028536628 0.25502426393037053 0.07758513298768234 0.19368359441530794 0.1507893145654797 0.090448707275749066 0.10089614296456752 0.060602136223227084 0.19805775889984892 0.064834827675979187 0.3035272412979656 0.039661880902810871 0.035466729350051802 0.057347164688849823 0.24744681423677869 0.32074670629386887 0.22223099302367841 0.13913970569425707 0.1169368277574976 0.01945768012318894 0.16870836510067336 0.12831748196988282 0.062271737457729411
decision_type=2 2 2 2 2 2 2 2 2 2 2 2 2 2 2 2 2 2 2 2 2 2 2 2 2 2 2 2 2 2
left_child=2 8 5 7 16 21 9 22 17 10 26 -6 -9 -12 -11 -10 -4 18 -2 -19 27 -1 -3 28 25 -16 -5 -13 -7 -24
right_child=1 3 4 6 11 23 -8 12 15 14 13 20 -14 -15 24 -17 -18 19 -20 -21 -22 -23 29 -25 -26 -27 -28 -29 -30 -31
leaf_value=-0.0018838796712429143 6.3382796731523499e-05 0.0011755347073388596 -0.0014047219121130184 0.0010693426219815457 -0.001078226998448372 -0.0016452671278800284 0.0020181131690848444 0.00061989028711028173 0.0013015394850489906 0.0012387041110057562 0.001213259125679714 -0.00040089485241639376 0.0012423422600691899 0.0018117693785963387 0.0012535173919340278 0.00061215146380971092 -0.00094701455793503198 0.0001788416943957352 0.00058872493898245288 -0.00038683417243073171 -0.00044018533130125943 -0.0020731635917488949 0.0014534449487709519 -0.0018804069370031357 0.0020504627649027569 0.0021017898832048692 0.00047930182609707119 1.2666668742895126e-05 -0.0013693356374278665 0.0018850052511940399
leaf_weight=257 44 48 32 27 20 70 449 76 21 21 53 38 39 58 22 89 243 110 65 23 157 299 131 25 78 21 20 60 180 24
leaf_count=257 44 48 32 27 20 70 449 76 21 21 53 38 39 58 22 89 243 110 65 23 157 299 131 25 78 21 20 60 180 24
internal_value=0 0.00133398 -0.00137068 0.0016488 -0.000691315 -0.00182033 0.0018313 0.00121896 0.000379674 0.00155169 0.00131547 -0.000382355 0.000830983 0.00152599 0.00181453 0.000743762 -0.00100028 0.000214179 0.00037666 8.1018e-05 -0.000327777 -0.00198567 0.00143875 -0.00148603 0.00191447 0.00166779 0.000818261 -0.000147694 -0.0014466 0.00152027
internal_weight=0 1419 1381 1067 550 831 749 318 352 300 158 275 115 111 142 110 275 242 109 133 255 556 203 275 121 43 47 98 250 155
internal_count=2800 1419 1381 1067 550 831 749 318 352 300 158 275 115 111 142 110 275 242 109 133 255 556 203 275 121 43 47 98 250 155
is_linear=0
shrinkage=0.005


Tree=27
num_leaves=31
num_cat=0
split_feature=13 11 9 16 11 9 12 11 2 2 11 18 11 11 0 13 4 0 4 18 14 17 18 9 16 4 5 10 9 4
split_gain=202.745 16.8849 16.7088 2.70742 2.33008 2.16941 1.75517 0.853911 0.758986 0.692406 0.67906 0.502574 0.333652 0.25904 0.240505 0.218235 0.208463 0.207762 0.327462 0.263449 0.197857 0.196345 0.189919 0.188586 0.174427 0.172952 0.154452 0.154385 0.152104 0.143588
threshold=0.12571118493572872 0.28796822074413742 0.15948237260360917 0.079021571467844512 0.25502426393037053 0.11865065917123221 0.15460306716459263 0.32440855633660809 0.11546917738120922 0.11477838951470577 0.32074670629386887 0.096135808894164468 0.27421912386805164 0.18361508561780751 0.044870012008134237 0.064834827675979187 0.058145188819691003 0.099639570039670181 0.034831835712308086 0.039661880902810871 0.19805775889984892 0.012965527203935985 0.059958204721301152 0.13017444743632703 0.056933297528946387 0.0082018332851616655 0.28878357702297891 0.11932618688098891 0.097840716662815838 0.014736373644304026
decision_type=2 2 2 2 2 2 2 2 2 2 2 2 2 2 2 2 2 2 2 2 2 2 2 2 2 2 2 2 2 2
left_child=2 4 5 10 17 21 15 8 11 -6 14 29 20 27 25 -4 -15 18 -2 -19 -11 28 -22 -7 -12 -3 -25 -8 -1 -5
right_child=1 3 6 7 9 23 13 -9 -10 12 24 -13 -14 16 -16 -17 -18 19 -20 -21 22 -23 -24 26 -26 -27 -28 -29 -30 -31
leaf_value=-0.0019876179440719323 0.00018346565406743401 0.0010139474806686243 -0.0013816520137091479 0.0012849027305682494 0.00062302925383307781 -0.0016482654455202547 -0.00044492904539327827 0.0020114894441588698 0.0019200023538247144 0.0013427282611585475 0.0011016017645597458 0.0019237270809966942 0.0014759677039602628 -4.6219423625476758e-05 0.0012386587873587142 -0.0008825883277472985 -0.00040004383286776086 6.30658820525489e-05 -0.00051355462241917853 0.00055545879554570797 0.00051344557127369378 -0.0020945238468245927 0.0011467870473861694 -0.0017933364195050672 0.001554761838691362 0.00046234322167475954 -0.0013324992797337472 -0.0009501681805011772 -0.0017724310073756824 0.00082522821572163826
leaf_weight=205 107 30 24 65 108 88 54 441 119 22 25 29 52 79 46 251 88 44 20 71 29 214 20 20 141 27 200 21 137 23
leaf_count=205 107 30 24 65 108 88 54 441 119 22 25 29 52 79 46 251 88 44 20 71 29 214 20 20 141 27 200 21 137 23
internal_value=0 0.00132731 -0.00136383 0.00171298 0.000555973 -0.00178927 -0.000652851 0.00188159 0.00163884 0.000915165 0.00128863 0.00135288 0.00117167 -0.000342293 0.000969709 -0.000926143 -0.000232666 0.000213108 7.36987e-05 0.000367065 0.000948812 -0.00197574 0.000771952 -0.00145264 0.00148651 0.000752661 -0.00137439 -0.000586396 -0.00190142 0.00116476
internal_weight=0 1419 1381 946 473 864 517 677 236 231 269 117 123 242 103 275 167 242 127 115 71 556 49 308 166 57 220 75 342 88
internal_count=2800 1419 1381 946 473 864 517 677 236 231 269 117 123 242 103 275 167 242 127 115 71 556 49 308 166 57 220 75 342 88
is_linear=0
shrinkage=0.005


Tree=28
num_leaves=31
num_cat=0
split_feature=13 11 9 16 9 9 11 11 4 2 18 14 2 11 18 5 18 2 13 0 4 18 4 9 4 11 5 16 6 11
split_gain=200.723 16.7186 16.5421 3.27482 2.14777 1.73808 1.25254 1.25228 1.01383 0.7461 0.557254 0.433256 0.37854 0.357287 0.297603 0.432198 0.285963 0.207663 0.205701 0.20569 0.324196 0.260821 0.194663 0.186705 0.183205 0.170499 0.152911 0.149995 0.14941 0.157074
threshold=0.12571118493572872 0.27686718990187426 0.15948237260360917 0.079021571467844512 0.11865065917123221 0.20713317774632498 0.32362839872257138 0.25502426393037053 0.0078702108028536628 0.11546917738120922 0.096135808894164468 0.20373863648361726 0.090448707275749066 0.18361508561780751 0.073261805977488673 0.156263086561128 0.078559281026692976 0.10089614296456752 0.064834827675979187 0.099639570039670181 0.034831835712308086 0.039661880902810871 0.24744681423677869 0.13017444743632703 0.058145188819691003 0.32074670629386887 0.28878357702297891 0.066372660944327824 0.062271737457729411 0.37378563500889034
decision_type=2 2 2 2 2 2 2 2 2 2 2 2 2 2 2 2 2 2 2 2 2 2 2 2 2 2 2 2 2 2
left_child=2 7 4 8 22 18 9 19 25 10 16 -9 -10 27 15 -11 -5 -18 -4 20 -2 -21 -1 -6 -15 -3 -25 -7 29 -27
right_child=1 3 5 6 23 13 -8 11 12 14 -12 -13 -14 24 -16 -17 17 -19 -20 21 -22 -23 -24 26 -26 28 -28 -29 -30 -31
leaf_value=-0.0018649516982327174 0.00018254833090310552 0.0011640957323834301 -0.0013747437546650569 0.00061508513784602932 -0.0016400241153314711 -0.00094610452502965931 0.0019979996053410697 0.0013253309110540055 0.00062081854236280319 0.0011344607382125105 0.0019029188395610877 0.00065741670520635259 0.0012802966977018984 -4.5988326420701003e-05 0.0020040226095755184 0.001923127556709867 0.0010440714097995725 0.0015925067636583532 -0.00088925558980554353 6.2750552103600719e-05 -0.00051098685339093209 0.00055268150150880851 -0.0020526008641839426 -0.0017843696968629958 -0.00037508875837135084 0.0013197438594927027 -0.0013258367796195672 -0.00048280396892143226 0.0018678064768513046 0.0016907133020105816
leaf_weight=257 107 48 24 23 88 25 449 31 73 32 28 112 31 79 84 38 45 28 240 44 20 71 299 20 91 89 200 58 24 42
leaf_count=257 107 48 24 23 88 25 449 31 73 32 28 112 31 79 84 38 45 28 240 44 20 71 299 20 91 89 200 58 24 42
internal_value=0 0.00132067 -0.00135701 0.00165184 -0.00178032 -0.000649587 0.0018347 0.000431247 0.00121883 0.00157094 0.00128227 0.000802209 0.000817394 -0.000353444 0.00180337 0.00156259 0.00110125 0.00125443 -0.000933391 0.000212043 7.33302e-05 0.00036523 -0.00196586 -0.00144538 -0.000222154 0.00142449 -0.00136752 -0.000622352 0.00150513 0.00143868
internal_weight=0 1419 1381 1034 864 517 727 385 307 278 124 143 104 253 154 70 96 73 264 242 127 115 556 308 170 203 220 83 155 131
internal_count=2800 1419 1381 1034 864 517 727 385 307 278 124 143 104 253 154 70 96 73 264 242 127 115 556 308 170 203 220 83 155 131
is_linear=0
shrinkage=0.005


Tree=29
num_leaves=31
num_cat=0
split_feature=13 11 12 16 9 9 11 4 11 0 13 11 0 2 18 14 13 11 4 17 11 15 7 17 5 4 18 9 9 6
split_gain=198.721 16.5563 16.3793 3.24761 2.03947 1.78141 1.51805 1.05185 0.820735 0.725811 0.645937 0.408389 0.392444 0.388606 0.319701 0.313859 0.229567 0.203967 0.200187 0.193408 0.168799 0.168325 0.160529 0.303798 0.15756 0.157022 0.151393 0.150367 0.148884 0.14792
threshold=0.12571118493572872 0.27293455947699136 0.10940358505181912 0.079021571467844512 0.20382204160639938 0.11865065917123221 0.32362839872257138 0.0078702108028536628 0.25502426393037053 0.07758513298768234 0.19368359441530794 0.1507893145654797 0.057703164292867155 0.10089614296456752 0.060602136223227084 0.19805775889984892 0.064834827675979187 0.23266578684806624 0.057347164688849823 0.012965527203935985 0.32074670629386887 0.22223099302367841 0.13913970569425707 0.1169368277574976 0.16870836510067336 0.01945768012318894 0.10590773553396172 0.10146639011160062 0.12831748196988282 0.062271737457729411
decision_type=2 2 2 2 2 2 2 2 2 2 2 2 2 2 2 2 2 2 2 2 2 2 2 2 2 2 2 2 2 2
left_child=2 8 5 7 16 19 9 20 17 10 25 -6 26 -12 -11 -10 -4 -2 24 27 -3 28 23 -16 -13 -5 -9 -1 -7 -22
right_child=1 3 4 6 11 21 -8 12 15 14 13 18 -14 -15 22 -17 -18 -19 -20 -21 29 -23 -24 -25 -26 -27 -28 -29 -30 -31
leaf_value=-0.0019549429248937799 5.1969463852318849e-05 0.0011582752363756298 -0.0013834642764413729 0.001052912551978672 -0.0010644381227903068 -0.0016205993300037725 0.0019880095695172391 0.00054639482412740647 0.001281691461945662 0.0012185704603879936 0.0011940259533881577 -0.00039706604457215256 0.0013592690843730593 0.0017863158020993758 0.0012309992768463087 0.00060212934719989846 -0.00093294533024208598 0.00034349343121214065 -0.00043314745318708838 -0.0020739241773001502 0.0014314872277047459 -0.0018552343219518661 0.0020221092919699658 0.0020717665056387584 1.4404099667444826e-05 0.00046838827477768062 0.0010320791912575562 -0.0017310231981111002 -0.0013488435209211376 0.0018584674720962843
leaf_weight=231 110 48 32 27 20 70 449 68 21 21 53 38 26 58 22 89 243 132 157 214 131 25 78 21 60 20 21 111 180 24
leaf_count=231 110 48 32 27 20 70 449 68 21 21 53 38 26 58 22 89 243 132 157 214 131 25 78 21 60 20 21 111 180 24
internal_value=0 0.00131407 -0.00135023 0.00162427 -0.000680898 -0.00179322 0.00180401 0.00120093 0.000373758 0.00152863 0.00129548 -0.000376426 0.000818865 0.00150351 0.00178805 0.000731864 -0.000985369 0.000210983 -0.000322464 -0.00195603 0.00141737 -0.00146405 0.00188689 0.00164161 -0.000145146 0.000804179 0.000660995 -0.00188227 -0.00142494 0.0014976
internal_weight=0 1419 1381 1067 550 831 749 318 352 300 158 275 115 111 142 110 275 242 255 556 203 275 121 43 98 47 89 342 250 155
internal_count=2800 1419 1381 1067 550 831 749 318 352 300 158 275 115 111 142 110 275 242 255 556 203 275 121 43 98 47 89 342 250 155
is_linear=0
shrinkage=0.005


Tree=30
num_leaves=31
num_cat=0
split_feature=13 11 9 16 9 12 11 4 11 0 18 0 17 18 14 6 11 13 15 18 4 17 9 4 11 7 18 11 5 18
split_gain=196.738 16.3912 16.2164 3.21521 2.10434 1.70351 1.5029 1.04136 0.812548 0.718571 0.643051 0.38853 0.363676 0.316512 0.310729 0.305604 0.252869 0.211725 0.203487 0.280413 0.237165 0.191479 0.183013 0.173453 0.167115 0.158928 0.301482 0.15077 0.150673 0.149883
threshold=0.12571118493572872 0.27293455947699136 0.15948237260360917 0.079021571467844512 0.11865065917123221 0.15460306716459263 0.32362839872257138 0.0078702108028536628 0.25502426393037053 0.07758513298768234 0.096135808894164468 0.057703164292867155 0.1169368277574976 0.060602136223227084 0.19805775889984892 0.094864961712707654 0.18040603211375431 0.064834827675979187 0.3035272412979656 0.039661880902810871 0.035466729350051802 0.012965527203935985 0.13017444743632703 0.058145188819691003 0.32074670629386887 0.13913970569425707 0.078559281026692976 0.24512306959907751 0.28878357702297891 0.10590773553396172
decision_type=2 2 2 2 2 2 2 2 2 2 2 2 2 2 2 2 2 2 2 2 2 2 2 2 2 2 2 2 2 2
left_child=2 8 4 7 21 17 9 24 18 10 12 29 -5 -11 -10 -14 -7 -4 19 -2 -20 -1 -6 -18 -3 26 -15 -21 -24 -9
right_child=1 3 5 6 22 16 -8 11 14 13 -12 -13 15 25 -16 -17 23 -19 20 27 -22 -23 28 -25 -26 -27 -28 -29 -30 -31
leaf_value=-0.0018728558805210199 6.1845672740177681e-05 0.0011524838550637166 -0.0013609527245474361 0.00058832885995507237 -0.0016237687556581062 -0.00060953377746045592 0.0019780694582149021 0.00054366285029305687 0.0012752830418979839 0.0012124775880060735 0.001921961387852207 0.0013524727679144306 0.0010788683801490281 0.0012048815455775531 0.00059911869590568328 0.0016751901444888883 -7.9355857302543031e-05 -0.00086938885071192421 0.00017521838938013058 0.00078172088527169673 -0.0003830723966593328 -0.0020635544961300966 -0.0017677602127660066 -0.00039088384078700417 0.0014901122787606812 0.0020119987471172445 0.0020424373989755456 0.00029305643505520294 -0.0013125955188646912 0.0010269188047164963
leaf_weight=342 44 48 24 25 88 63 449 68 21 21 32 26 70 21 89 31 86 251 110 38 23 214 20 93 155 78 22 27 200 21
leaf_count=342 44 48 24 25 88 63 449 68 21 21 32 26 70 21 89 31 86 251 110 38 23 214 20 93 155 78 22 27 200 21
internal_value=0 0.0013075 -0.00134348 0.00161615 -0.0017626 -0.00064305 0.00179499 0.00119492 0.000371889 0.00152099 0.001289 0.000814771 0.00112825 0.00177911 0.000728205 0.0012619 -0.000337097 -0.000912289 0.000209928 0.000370084 7.86719e-05 -0.00194625 -0.00143106 -0.000241211 0.00141028 0.00187745 0.0016334 0.000578737 -0.00135397 0.00065769
internal_weight=0 1419 1381 1067 864 517 749 318 352 300 158 115 126 142 110 101 242 275 242 109 133 556 308 179 203 121 43 65 220 89
internal_count=2800 1419 1381 1067 864 517 749 318 352 300 158 115 126 142 110 101 242 275 242 109 133 556 308 179 203 121 43 65 220 89
is_linear=0
shrinkage=0.005


Tree=31
num_leaves=31
num_cat=0
split_feature=13 11 12 16 9 9 11 4 11 0 18 11 2 17 18 14 6 13 0 4 18 4 4 15 11 5 18 5 6 11
split_gain=194.776 16.2277 16.0565 3.18314 2.00008 1.74534 1.48791 1.03097 0.804443 0.711403 0.636636 0.402472 0.385814 0.360049 0.313355 0.307629 0.302556 0.224805 0.201862 0.318186 0.25502 0.195651 0.19041 0.166129 0.165448 0.157439 0.374678 0.156079 0.146444 0.155507
threshold=0.12571118493572872 0.27293455947699136 0.10940358505181912 0.079021571467844512 0.20382204160639938 0.11865065917123221 0.32362839872257138 0.0078702108028536628 0.25502426393037053 0.07758513298768234 0.096135808894164468 0.1507893145654797 0.090448707275749066 0.1169368277574976 0.060602136223227084 0.19805775889984892 0.094864961712707654 0.064834827675979187 0.099639570039670181 0.034831835712308086 0.039661880902810871 0.057347164688849823 0.24744681423677869 0.22223099302367841 0.32074670629386887 0.14710484741470045 0.078559281026692976 0.16870836510067336 0.062271737457729411 0.37378563500889034
decision_type=2 2 2 2 2 2 2 2 2 2 2 2 2 2 2 2 2 2 2 2 2 2 2 2 2 2 2 2 2 2
left_child=2 8 5 7 17 22 9 24 18 10 13 -6 -9 -5 -11 -10 -15 -4 19 -2 -20 27 -1 -7 -3 26 -16 -13 29 -26
right_child=1 3 4 6 11 23 -8 12 15 14 -12 21 -14 16 25 -17 -18 -19 20 -21 -22 -23 -24 -25 28 -27 -28 -29 -30 -31
leaf_value=-0.0018367194033550383 0.00017966317050985853 0.001146721461166938 -0.0013695181744697038 0.00058538721874356269 -0.0010555485635995866 -0.0014106859014928342 0.001968179110661647 0.0006032364537455387 0.001268906653581542 0.0012064151995859686 0.001912351604551077 -0.00039440489668203033 0.0012149793994971193 0.0010734740323345511 0.0012906022285266469 0.00059612309588956533 0.0016668141921681744 -0.0009236963105832567 6.153644464740699e-05 -0.00050741375889629126 0.00054598852096807583 -0.00042839164197019296 -0.0020223074055036971 -0.0018381690293550489 0.001298537123817532 0.0020560384228632883 0.0020626631875832876 1.5126499657829604e-05 0.0018417245273788772 0.0016676518054945127
leaf_weight=257 107 48 32 25 20 250 449 76 21 21 32 38 39 70 30 89 31 243 44 20 71 157 299 25 89 58 33 60 24 42
leaf_count=257 107 48 32 25 20 250 449 76 21 21 32 38 39 70 30 89 31 243 44 20 71 157 299 25 89 58 33 60 24 42
internal_value=0 0.00130096 -0.00133676 0.00160807 -0.000674056 -0.00177537 0.00178602 0.00118895 0.00037003 0.00151338 0.00128256 -0.000372539 0.000810697 0.00112261 0.00177022 0.000724564 0.00125559 -0.000975574 0.000208878 7.14621e-05 0.000360633 -0.00031897 -0.00193652 -0.00144955 0.00140323 0.00186807 0.00169502 -0.000143671 0.00148266 0.00141688
internal_weight=0 1419 1381 1067 550 831 749 318 352 300 158 275 115 126 142 110 101 275 242 127 115 255 556 275 203 121 63 98 155 131
internal_count=2800 1419 1381 1067 550 831 749 318 352 300 158 275 115 126 142 110 101 275 242 127 115 255 556 275 203 121 63 98 155 131
is_linear=0
shrinkage=0.005


Tree=32
num_leaves=31
num_cat=0
split_feature=13 11 9 16 11 9 9 11 2 2 11 18 11 18 14 2 0 0 4 18 13 17 9 4 16 4 5 9 16 4
split_gain=192.833 16.0673 15.8971 2.57396 2.21373 2.0618 1.6697 0.812308 0.726215 0.66704 0.647169 0.48202 0.348144 0.318407 0.485674 0.431048 0.234465 0.199849 0.315012 0.252477 0.197583 0.188613 0.180764 0.176537 0.16803 0.16537 0.148583 0.148493 0.146837 0.141943
threshold=0.12571118493572872 0.28796822074413742 0.15948237260360917 0.079021571467844512 0.25502426393037053 0.11865065917123221 0.20713317774632498 0.32440855633660809 0.11546917738120922 0.11477838951470577 0.32074670629386887 0.096135808894164468 0.18361508561780751 0.059222621936146115 0.19805775889984892 0.13371774588956878 0.044870012008134237 0.099639570039670181 0.034831835712308086 0.039661880902810871 0.064834827675979187 0.012965527203935985 0.13017444743632703 0.058145188819691003 0.056933297528946387 0.0082018332851616655 0.28878357702297891 0.10146639011160062 0.066372660944327824 0.014736373644304026
decision_type=2 2 2 2 2 2 2 2 2 2 2 2 2 2 2 2 2 2 2 2 2 2 2 2 2 2 2 2 2 2
left_child=2 4 5 10 17 21 20 8 11 -6 16 29 28 14 -11 -15 25 18 -2 -19 -4 27 -7 -14 -12 -3 -24 -1 -8 -5
right_child=1 3 6 7 9 22 12 -9 -10 13 24 -13 23 15 -16 -17 -18 19 -20 -21 -22 -23 26 -25 -26 -27 -28 -29 -30 -31
leaf_value=-0.0019262146011188434 0.00017876485489944221 0.00098676207537452387 -0.0013473003668089708 0.0012538132047809018 0.00060540298499054865 -0.0016084021867506884 -0.00093209116533398632 0.0019617706810466339 0.0018733378203131823 0.0013923296789871528 0.0010723086424171925 0.001877645661347899 -4.3790075939761687e-05 0.0010225868793959554 0.00046221813388910962 0.0018367373757064342 0.0012111240805572142 6.1228763449683115e-05 -0.00050487668765708798 0.00054325860082237441 -0.00087148790842426637 -0.0020432595783304946 -0.0017511759148910642 -0.00036684603609431253 0.0015170805499036897 0.00044738433134086707 -0.0012991792512591931 -0.0017036948319490966 -0.00047369322002913545 0.00079678001570636814
leaf_weight=231 107 30 24 65 108 88 25 441 119 25 25 29 79 37 32 29 46 44 20 71 240 214 20 91 141 27 200 111 58 23
leaf_count=231 107 30 24 65 108 88 25 441 119 25 25 29 79 37 32 29 46 44 20 71 240 214 20 91 141 27 200 111 58 23
internal_value=0 0.00129446 -0.00133007 0.00167067 0.000542029 -0.00174505 -0.000636579 0.00183507 0.00159832 0.000892138 0.00125691 0.00131859 -0.00034632 0.00114391 0.000870162 0.00138032 0.000945572 0.000207834 7.11048e-05 0.00035883 -0.000914744 -0.00192684 -0.00141688 -0.00021672 0.0014501 0.000731267 -0.00134027 -0.00185399 -0.000611765 0.00113436
internal_weight=0 1419 1381 946 473 864 517 677 236 231 269 117 253 123 57 66 103 242 127 115 264 556 308 170 166 57 220 342 83 88
internal_count=2800 1419 1381 946 473 864 517 677 236 231 269 117 253 123 57 66 103 242 127 115 264 556 308 170 166 57 220 342 83 88
is_linear=0
shrinkage=0.005


Tree=33
num_leaves=31
num_cat=0
split_feature=13 11 9 16 9 9 11 4 11 0 13 11 2 2 18 13 6 18 4 2 18 0 4 4 15 11 7 17 5 4
split_gain=190.91 15.9112 15.7405 3.11907 2.06448 1.60137 1.45816 1.01021 0.786866 0.69807 0.626541 0.39565 0.381046 0.379855 0.307385 0.262418 0.246427 0.312626 0.277174 0.239135 0.238375 0.22396 0.191738 0.187191 0.166043 0.16191 0.155536 0.296051 0.154532 0.151837
threshold=0.12571118493572872 0.27293455947699136 0.15329766499786623 0.079021571467844512 0.20382204160639938 0.11865065917123221 0.32362839872257138 0.0078702108028536628 0.25309969601906551 0.07758513298768234 0.19368359441530794 0.1507893145654797 0.090448707275749066 0.10089614296456752 0.060602136223227084 0.066955977171076111 0.13582120386672916 0.039661880902810871 0.034831835712308086 0.1124845056858096 0.051917702501744996 0.093494955267976146 0.057347164688849823 0.24744681423677869 0.22223099302367841 0.32074670629386887 0.13913970569425707 0.1169368277574976 0.16870836510067336 0.01945768012318894
decision_type=2 2 2 2 2 2 2 2 2 2 2 2 2 2 2 2 2 2 2 2 2 2 2 2 2 2 2 2 2 2
left_child=2 8 5 7 15 23 9 25 16 10 29 -6 -9 -12 -11 -4 18 -18 -2 -10 -21 -22 28 -1 -7 -3 27 -16 -13 -5
right_child=1 3 4 6 11 24 -8 12 19 14 13 22 -14 -15 26 -17 17 -19 -20 20 21 -23 -24 -25 -26 -27 -28 -29 -30 -31
leaf_value=-0.0018182497326618039 0.00016349692513848333 0.0011355632481475672 -0.0012967657094570591 0.0010304077587055939 -0.0010459304703399539 -0.0014055531510611789 0.0019485630119947474 0.00059660376291599516 0.0003642999652871176 0.0011943466234065239 0.0011685871620847018 -0.00039157294680511486 0.001204554779598346 0.0017541700306123701 0.0012028903401964768 -0.00090408442814587659 6.0922620786269284e-05 0.00061983321089365776 -0.00042285020593553783 0.00038279711091447442 0.00079178439730423543 0.0014346368638798596 -0.0004239434620275038 -0.0020022624023383279 -0.0018501943706170374 0.0014678925906773657 0.0019827663528326996 0.00203286777649607 1.592416292987764e-05 0.00045561572071164849
leaf_weight=257 104 48 52 27 20 241 449 76 38 21 53 38 39 58 22 234 44 58 25 21 42 20 157 299 23 155 78 21 60 20
leaf_count=257 104 48 52 27 20 241 449 76 38 21 53 38 39 58 22 234 44 58 25 21 42 20 157 299 23 155 78 21 60 20
internal_value=0 0.00128798 -0.00132342 0.00159209 -0.000678056 -0.00176495 0.00176823 0.0011772 0.000366174 0.00149834 0.00126969 -0.000368735 0.000802778 0.00147457 0.00175275 -0.000975481 0.000195079 0.000378735 4.98638e-05 0.000692808 0.00084321 0.000999156 -0.000315621 -0.00191721 -0.00144429 0.00138931 0.00184967 0.00160823 -0.000142085 0.000785815
internal_weight=0 1419 1381 1067 561 820 749 318 352 300 158 275 115 111 142 286 231 102 129 121 83 62 255 556 264 203 121 43 98 47
internal_count=2800 1419 1381 1067 561 820 749 318 352 300 158 275 115 111 142 286 231 102 129 121 83 62 255 556 264 203 121 43 98 47
is_linear=0
shrinkage=0.005


Tree=34
num_leaves=31
num_cat=0
split_feature=13 11 9 16 9 12 11 4 11 0 18 0 17 18 14 6 11 13 15 18 4 4 17 9 11 5 18 10 11 18
