tree
version=v4
num_class=1
num_tree_per_iteration=1
label_index=0
max_feature_idx=19
objective=regression
feature_names=Column_0 Column_1 Column_2 Column_3 Column_4 Column_5 Column_6 Column_7 Column_8 Column_9 Column_10 Column_11 Column_12 Column_13 Column_14 Column_15 Column_16 Column_17 Column_18 Column_19
feature_infos=[0.00098528697384847597:0.44585877989854866] [0.0048364739680204494:0.52127953839572039] [0.050192292939756022:0.72218247372809252] [0.00047194437520814425:0.44313703573963165] [0.0002158989724905247:0.46011529149281755] [0.015452263394601706:0.63680519675616565] [0.0014386289071450786:0.39054293486598679] [0.0013027204219433486:0.40324949546308581] [0.0044152966560441764:0.49869753790969651] [0.034018737123113041:0.63070501342908125] [0.015466949038661526:0.38990740679377078] [0.04947576724455699:0.72015128267813389] [0.0041024681991415068:0.27260041916121225] [0.0029027687146965242:0.40963775860285789] [0.0076256345285453664:0.56933197403038405] [0.0094560452374099491:0.5302827541877938] [0.0017280181925772853:0.20527136203486207] [0.0030080040343712366:0.38099161768038725] [0.0023526390732558911:0.26292907075739624] [0.0037922842349956687:0.28288676891717646]
tree_sizes=2705 2794 2783 2811 2810 2806 2806 2808 2813 2813 2808 2798 2788 2806 2811 2807 2789 2798 2786 2810 2811 2820 2837 2829 2833 2835 2819 2830 2854 2838 2812 2852 2828 2841 2830 2812 2836 2863 2864 2810 2837 2824 2826 2831 2861 2871 2838 2841 2859 2841 2825 2848 2866 2853 2850 2845 2816 2863 2817 2856 2830 2838 2843 2834 2870 2830 2838 2788 2871 2868 2818 2817 2853 2846 2869 2834 2831 2868 2876 2864 2820 2878 2861 2828 2840 2816 2828 2847 2815 2819 2833 2896 2880 2889 2835 2851 2844 2822 2836 2856

Tree=0
num_leaves=31
num_cat=0
split_feature=10 3 10 4 3 18 10 6 12 10 10 1 12 17 10 6 12 10 19 10 12 19 6 6 10 10 18 16 10 6
split_gain=353727 49639.9 39177.2 9793.48 7962.29 7246.29 4523.71 2269.39 2119.64 1441.01 1336.56 925.149 763.52 623.621 608.029 516.092 379.382 335.34 312.748 270.297 263.582 255.073 279.794 243.903 199.937 176.498 134.203 170.955 96.7604 82.0592
threshold=0.11290599173957973 0.22319893848969494 0.18694851001583979 0.3202909993039631 0.15240989658240026 0.052228745390293492 0.14672196288205094 0.032572302323278686 0.02348800881603719 0.089504933643692206 0.053350863593826771 0.2232995744274486 0.049396585051333659 0.031332478082448885 0.16433257591881253 0.020766037435340227 0.075485985917697965 0.12916414720721064 0.050995784052525091 0.077963054694077119 0.012176545986266609 0.060408530096737863 0.0211637504153569 0.20260640656555937 0.040973867241947827 0.10378331352675978 0.017225734979825994 0.047087776907441044 0.097169487375081839 0.0097684882759401254
decision_type=2 2 2 2 2 2 2 2 2 2 2 2 2 2 2 2 2 2 2 2 2 2 2 2 2 2 2 2 2 2
left_child=1 4 6 8 9 15 11 21 20 19 24 17 -5 -12 -8 18 -9 -2 29 -1 -3 -7 -23 -10 -6 -11 -16 -28 -15 -4
right_child=2 3 5 12 10 7 14 16 23 25 13 -13 -14 28 26 -17 -18 -19 -20 -21 -22 22 -24 -25 -26 -27 27 -29 -30 -31
leaf_value=12.960394131148142 12.516183416074892 13.13592647874767 11.787985725933911 13.774437179093111 13.475161373374346 11.67034515888386 12.247647613658293 11.99939508006417 13.443898396180323 12.670547921250046 13.16602288033644 13.1132105946043 14.021514498670831 12.986524005185249 12.228408079463749 11.981178276130331 11.726882254605339 12.38614719010009 11.668789499217725 12.787333119340955 13.340492248177132 11.438873081991678 11.587306277965329 13.639909556446209 13.25353737176312 12.562410276499484 12.111586294385686 11.979128114490308 12.830839656541633 11.885695003760334
leaf_weight=182 427 94 181 234 72 96 372 87 119 346 274 21 474 342 61 356 170 370 116 192 402 893 223 403 192 268 288 178 54 513
leaf_count=182 427 94 181 234 72 96 372 87 119 346 274 21 474 342 61 356 170 370 116 192 402 893 223 403 192 268 288 178 54 513
internal_value=12.5398 13.266 11.9311 13.6551 12.9161 11.6889 12.303 11.5408 13.4547 12.718 13.1253 12.4733 13.9417 13.0487 12.1483 11.8762 11.8167 12.4557 11.8309 12.8724 13.303 11.483 11.4677 13.597 13.3173 12.6235 12.0788 12.0599 12.9661 11.8592
internal_weight=0 3648 4352 1726 1922 2635 1717 1469 1018 988 934 818 708 670 899 1166 257 797 810 374 496 1212 1116 522 264 614 527 466 396 694
internal_count=8000 3648 4352 1726 1922 2635 1717 1469 1018 988 934 818 708 670 899 1166 257 797 810 374 496 1212 1116 522 264 614 527 466 396 694
is_linear=0
shrinkage=1


Tree=1
num_leaves=31
num_cat=0
split_feature=17 10 3 4 18 10 10 12 12 17 4 10 12 10 6 10 6 19 19 10 12 10 10 17 12 6 16 18 15 6
split_gain=287133 37263.5 35170.8 6881.45 6088 6058.37 4323.53 2027.54 1580.05 1241.91 1087.8 782.274 632.463 592.36 480.465 363.495 347.954 295.793 277.593 275.927 221.291 203.949 202.556 169.785 163.363 139.174 111.857 147.586 96.071 92.1381
threshold=0.079343201144235029 0.18435748316293604 0.2311233027996337 0.3202909993039631 0.052228745390293492 0.077963054694077119 0.14179411723221236 0.096116063326187426 0.02348800881603719 0.052789700260697021 0.19675627883072047 0.097169487375081839 0.049396585051333659 0.1608734694774476 0.0211637504153569 0.040973867241947827 0.0211637504153569 0.055004420287156137 0.058894234760516313 0.05803607351312743 0.075485985917697965 0.12178505792772516 0.095878559884718176 0.029710985271230454 0.014808710586505904 0.14797486605775054 0.040937622218389293 0.016619171344090748 0.026495741054439612 0.012116923696777972
decision_type=2 2 2 2 2 2 2 2 2 2 2 2 2 2 2 2 2 2 2 2 2 2 2 2 2 2 2 2 2 2
left_child=2 6 5 8 14 10 11 20 24 25 19 -2 -5 -8 17 -12 18 29 -9 -1 -6 -13 -11 -17 -4 -7 -15 -28 -14 -3
right_child=1 4 3 12 7 9 13 16 -10 22 15 21 28 26 -16 23 -18 -19 -20 -21 -22 -23 -24 -25 -26 -27 27 -29 -30 -31
leaf_value=0.56385841876902487 0.21112188100514395 -0.66428841793175897 0.60282089543190731 1.1095816531423794 -0.47440238382135125 0.28371652098638672 -0.2357114884231305 -0.70386785585053113 0.96805068182298193 0.19253334230066399 0.85626482470282195 -0.0059625520733422362 1.1878780841827392 -0.31613379993759994 -0.49605678245425228 0.64914726002440271 -0.83575890549023946 -0.86136395266798671 -0.98661903877014034 0.38919615006975589 -0.70031270170674742 -0.10719106110097334 0.072737907235951804 0.4651286961259069 0.74947755986993969 0.43581259918433651 -0.27019730189750935 -0.45348409755307384 1.3704629730224609 -0.58134885999533503
leaf_weight=140 123 329 156 235 97 111 400 48 478 226 86 381 104 140 383 361 299 60 936 309 102 416 379 73 263 161 57 330 374 443
leaf_count=140 123 329 156 235 97 111 400 48 478 226 86 381 104 140 383 361 299 60 936 309 102 416 379 73 263 161 57 330 374 443
internal_value=0 -0.522406 0.686866 1.02838 -0.759328 0.388622 -0.176227 -0.895686 0.842095 0.197863 0.560887 -0.0225812 1.26122 -0.328524 -0.592404 0.660088 -0.942118 -0.636107 -0.973555 0.444789 -0.593118 -0.0588676 0.117732 0.619335 0.69644 0.375011 -0.398389 -0.427254 1.3333 -0.617509
internal_weight=0 4544 3456 1610 2697 1846 1847 1482 897 877 969 920 713 927 1215 520 1283 832 984 449 199 797 605 434 419 272 527 387 478 772
internal_count=8000 4544 3456 1610 2697 1846 1847 1482 897 877 969 920 713 927 1215 520 1283 832 984 449 199 797 605 434 419 272 527 387 478 772
is_linear=0
shrinkage=0.1


Tree=2
num_leaves=31
num_cat=0
split_feature=3 10 4 18 12 3 10 12 10 18 10 10 10 6 10 12 17 12 6 12 19 1 19 19 10 17 9 12 10 15
split_gain=232788 37629.8 22423 5574.89 4726.18 3682.61 3630.4 2305.33 988.016 934.435 829.943 596.874 573.609 490.883 387.924 359.55 350.677 324.498 298.29 237.39 211.206 216.641 170.348 150.199 147.514 116.708 105.232 96.4771 91.685 86.2264
threshold=0.125033097999485 0.17573526427146588 0.25522231293648884 0.050304961638518782 0.031692330716684765 0.17495656118199468 0.13028271761505023 0.096116063326187426 0.070446470793744012 0.1455400732396295 0.05218708867710279 0.15731720382162204 0.098147268888442205 0.022433168054716294 0.1017816679561631 0.02348800881603719 0.028933306385331873 0.057246524705284137 0.019429187928246109 0.068982656377923793 0.060408530096737863 0.049171616967769068 0.043979551320100847 0.063327468740990281 0.038147365618722902 0.051308078465298841 0.067346750998203406 0.012176545986266609 0.087279982467088638 0.06285396753695334
decision_type=2 2 2 2 2 2 2 2 2 2 2 2 2 2 2 2 2 2 2 2 2 2 2 2 2 2 2 2 2 2
left_child=1 6 5 13 15 8 12 19 -2 -6 24 -8 28 22 25 27 -12 26 20 -5 21 -9 -3 -20 -7 -10 -11 -4 -1 -29
right_child=2 3 4 7 9 10 11 18 14 17 16 -13 -14 -15 -16 -17 -18 -19 23 -21 -22 -23 -24 -25 -26 -27 -28 29 -30 -31
leaf_value=0.24110270357147479 0.42650023685316002 -0.52071020693371173 0.47433544529808896 -0.38210592209547761 0.93811254365963137 0.80153847752195417 -0.16386899016659315 -0.61408301788040365 0.30767082012468772 0.92482342781958649 0.54382519329767776 -0.32236051862925741 -0.0089443148876810173 -0.41772911929622403 0.057871363705110757 0.82457498060690393 0.38204095714319386 1.2462429371677413 -0.56250549852848053 -0.59025832822245938 -0.8965927574560224 -0.9030336232618853 -0.62398128579387735 -0.78518013154588095 0.63295933899578749 0.19034942314393583 1.1187849374321419 0.61830303703696987 0.11776685112501895 0.76984514701060769
leaf_weight=95 242 607 44 99 316 98 538 78 154 76 385 431 717 412 171 184 226 310 47 154 833 54 272 327 221 208 245 205 174 77
leaf_count=95 242 607 44 99 316 98 538 78 154 76 385 431 717 412 171 184 226 310 47 154 833 54 272 327 221 208 245 205 174 77
internal_value=0 -0.436018 0.667177 -0.665617 0.955216 0.420618 -0.0972659 -0.791072 0.259105 1.08797 0.55479 -0.234624 0.0378248 -0.510419 0.182445 0.707064 0.484706 1.16141 -0.84364 -0.510632 -0.875712 -0.738191 -0.553339 -0.758772 0.687092 0.24097 1.07588 0.63842 0.162056 0.662256
internal_weight=0 4838 3162 2883 1457 1705 1955 1592 775 947 930 969 986 1291 533 510 611 631 1339 253 965 132 879 374 319 362 321 326 269 282
internal_count=8000 4838 3162 2883 1457 1705 1955 1592 775 947 930 969 986 1291 533 510 611 631 1339 253 965 132 879 374 319 362 321 326 269 282
is_linear=0
shrinkage=0.1


Tree=3
num_leaves=31
num_cat=0
split_feature=17 16 4 18 3 12 10 6 10 10 12 10 16 17 18 16 6 19 1 10 15 2 10 19 10 10 12 1 6 16
split_gain=188963 25119.2 22584.6 4545.91 4483.26 3847.4 2730.07 1263.83 924.03 778.097 632.59 582.399 527.46 472.603 381.096 242.759 211.301 204.752 359.162 200.861 199.532 174.851 147.234 142.896 140.427 138.294 123.129 105.256 94.2627 94.1664
threshold=0.077981359364241068 0.050247636130369373 0.25522231293648884 0.050304961638518782 0.16111664096609515 0.037324539760935756 0.14491782433934278 0.0314130203072659 0.05218708867710279 0.077963054694077119 0.02348800881603719 0.10378331352675978 0.053432849687320989 0.030517785499667886 0.020458840792343728 0.038873757719308961 0.018423382495524779 0.063037978363503347 0.049171616967769068 0.095878559884718176 0.027945495922765299 0.64109064657089931 0.089504933643692206 0.019744668035907968 0.12916414720721064 0.038147365618722902 0.07637579973139054 0.071835650077001004 0.013371620472954262 0.0086726286779014745
decision_type=2 2 2 2 2 2 2 2 2 2 2 2 2 2 2 2 2 2 2 2 2 2 2 2 2 2 2 2 2 2
left_child=2 6 4 14 9 10 11 17 25 -1 -4 22 -7 -10 -3 -8 -16 18 -5 29 -14 -22 -2 -17 -13 -6 -9 -18 -19 -11
right_child=1 3 5 7 8 12 15 26 13 19 -12 24 20 -15 16 23 27 28 -20 -21 21 -23 -24 -25 -26 -27 -28 -29 -30 -31
leaf_value=0.32733103309526196 0.23788631518988257 -0.24141531229803437 0.57514784051737655 -0.54396098008969929 0.72219426764382266 0.87686735695483642 -0.20829253498911859 -0.42418554117391399 0.48356111666935359 0.14641661812420681 0.77855193187400573 -0.026718434928849462 0.94175721581776939 0.32313998369043778 -0.51703649240678173 -0.16064935188602519 -0.39455563813279582 -0.82936446652720353 -0.79522753206651609 0.062549043356936299 1.0537492165198692 1.2443656394792642 0.061384711277094633 -0.34025750119820275 -0.11170833807152053 0.56429037691139783 -0.57955925171032996 -0.51450222382503275 -0.75026671353394425 0.29612977203947527
leaf_weight=228 76 75 326 122 98 254 374 90 420 220 328 486 149 346 661 53 353 510 133 360 285 114 125 390 324 243 201 112 491 53
leaf_count=228 76 75 326 122 98 254 374 90 420 220 328 486 149 346 661 53 353 510 133 360 285 114 125 390 324 243 201 112 491 53
internal_value=0 -0.420276 0.56185 -0.611318 0.340671 0.860368 -0.132909 -0.724855 0.47373 0.169244 0.678194 -0.0229895 1.00789 0.411615 -0.46459 -0.268735 -0.479228 -0.768818 -0.677608 0.111876 1.06692 1.11119 0.128969 -0.31918 -0.0608102 0.611649 -0.533123 -0.424488 -0.791354 0.176456
internal_weight=0 4576 3424 2748 1968 1456 1828 1547 1107 861 654 1011 802 766 1201 817 1126 1256 255 633 548 399 201 443 810 341 291 465 1001 273
internal_count=8000 4576 3424 2748 1968 1456 1828 1547 1107 861 654 1011 802 766 1201 817 1126 1256 255 633 548 399 201 443 810 341 291 465 1001 273
is_linear=0
shrinkage=0.1


Tree=4
num_leaves=31
num_cat=0
split_feature=17 16 4 18 17 10 6 12 10 10 10 6 10 12 17 17 19 6 1 19 18 12 10 10 10 10 1 12 19 12
split_gain=153347 27274 13117.3 3964.03 3272.91 2696.12 1318.3 1157.38 743.838 685.097 680.123 429.552 329.355 258.181 251.819 201.971 196.609 180.706 170.816 533.608 169.458 163.364 146.111 127.201 110.883 101.762 97.7571 90.2639 90.001 81.2589
threshold=0.064765320081799457 0.046505351959788811 0.2918862457600831 0.050304961638518782 0.030517785499667886 0.13318119979093604 0.032572302323278686 0.045398110622726008 0.048136291527538268 0.09422881862542877 0.061452980439806383 0.024316614237935189 0.15435919589959049 0.020791660767058132 0.017376374381599727 0.043342541892668431 0.034847609884027082 0.010082497430093486 0.057764723265052782 0.073168827908257197 0.037959335953631441 0.071697673048697189 0.066717294258643076 0.042100823125973831 0.038147365618722902 0.12064480842380444 0.065265642936076299 0.010985363474028178 0.073549071566353721 0.063598682226416611
decision_type=2 2 2 2 2 2 2 2 2 2 2 2 2 2 2 2 2 2 2 2 2 2 2 2 2 2 2 2 2 2
left_child=2 5 4 11 8 9 17 13 24 22 23 20 -7 -4 -10 -12 -13 -5 19 -19 -3 -8 -2 -6 -1 -11 -22 -16 -23 -9
right_child=1 3 7 6 10 12 21 29 14 25 15 16 -14 -15 27 -17 -18 18 -20 -21 26 28 -24 -25 -26 -27 -28 -29 -30 -31
leaf_value=0.7360086685774343 0.36539388265874656 -0.41046316345401163 0.44909289463146318 -0.7495965060260561 0.55981995222861314 -0.12930193307787874 -0.33926981507163301 0.9138648977595798 0.54725544363858025 0.017324230589525022 0.30212357860368988 -0.18882096048790156 -0.25001819376207768 0.75435876225578724 0.34248778189066797 0.18639241011106764 -0.35968498242769209 -0.48152056543320576 -0.7209157237639795 -0.70062302017518574 -0.47727206120124227 -0.40921471923589703 0.14637831182129618 0.37890802573676063 0.59908313731570828 -0.0534427231413592 -0.64613855886459359 0.45631702817954101 -0.56109520648397615 1.0252068960719172
leaf_weight=150 35 603 36 431 56 429 94 361 348 616 239 96 487 337 111 434 260 192 337 310 311 79 228 197 181 302 49 332 133 226
leaf_count=150 35 603 36 431 56 429 94 361 348 616 239 96 487 337 111 434 260 192 337 310 311 79 228 197 181 302 49 332 133 226
internal_value=0 -0.339724 0.564018 -0.538607 0.420692 -0.0650324 -0.645832 0.869023 0.535596 0.0348314 0.28104 -0.410098 -0.193685 0.726176 0.481445 0.227879 -0.314267 -0.691048 -0.660115 -0.617947 -0.445161 -0.45653 0.176799 0.420998 0.663164 -0.00598922 -0.501983 0.428631 -0.506685 0.958403
internal_weight=0 4992 3008 2895 2048 2097 1576 960 1122 1181 926 1319 916 373 791 673 356 1270 839 502 963 306 263 253 331 918 360 443 212 587
internal_count=8000 4992 3008 2895 2048 2097 1576 960 1122 1181 926 1319 916 373 791 673 356 1270 839 502 963 306 263 253 331 918 360 443 212 587
is_linear=0
shrinkage=0.1


Tree=5
num_leaves=31
num_cat=0
split_feature=10 17 10 12 4 18 10 6 12 10 10 1 17 16 18 17 10 6 10 12 12 6 1 19 10 1 6 17 1 18
split_gain=124371 17137.5 14063.7 3982.16 2369.04 2173.37 2164.1 714.868 656.8 564.235 497.29 442.151 311.905 228.368 206.36 166.226 154.772 153.091 136.332 122.88 107.199 102.395 124.852 363.106 97.0138 89.5165 94.0722 83.0254 77.53 75.1797
threshold=0.11187804601894354 0.023605873741598036 0.19477583226043341 0.032123278559892728 0.16443828426357074 0.051831348736755219 0.15170628376205197 0.028713523714291592 0.051531642150274733 0.053350863593826771 0.087279982467088638 0.23096237139923401 0.010380159780040756 0.039509104472887142 0.017225734979825994 0.03584150765469641 0.12916414720721064 0.011066904726874551 0.028701181242020011 0.082265053186925188 0.015916445916522474 0.010082497430093486 0.057764723265052782 0.073988237756367273 0.070446470793744012 0.069737630835871714 0.02639993956280107 0.0086912530340256828 0.079701401133450936 0.067073644805649549
decision_type=2 2 2 2 2 2 2 2 2 2 2 2 2 2 2 2 2 2 2 2 2 2 2 2 2 2 2 2 2 2
left_child=1 3 6 12 10 17 11 21 27 18 24 16 -1 -8 -15 -11 -2 -4 -6 -9 -14 -7 23 -23 -3 26 -19 -5 29 -21
right_child=2 4 5 8 9 7 13 19 -10 15 -12 -13 20 14 -16 -17 -18 25 -20 28 -22 22 -24 -25 -26 -27 -28 -29 -30 -31
leaf_value=0.61705711533903418 -0.016805533055347675 0.29056916084249046 -0.46629513195819322 0.74814287439177318 0.64259691761761184 -0.67702103827497095 -0.18105411897111925 -0.35106095854461811 0.88582246735855774 0.33356781803867408 0.057756493217274663 0.40612035847845535 0.40486468643911427 -0.15905045073617388 -0.31204607169249376 0.22636475415387447 -0.098705535816274059 -0.37639983990849968 0.42850120414568238 -0.33531238799001661 0.49555274535578198 -0.44543907670087601 -0.66256289883663788 -0.63639277467955502 0.17168441465088971 -0.47566858088032582 -0.25617675462434458 0.63887995660649555 -0.5975639350378692 -0.50865935719156841
leaf_weight=178 459 102 287 315 40 416 277 96 454 336 626 20 247 107 608 275 464 532 214 50 422 171 284 292 235 88 85 172 66 82
leaf_count=178 459 102 287 315 40 416 277 96 454 336 626 20 247 107 608 275 464 532 214 50 422 171 284 292 235 88 85 172 66 82
internal_value=0 0.434197 -0.357939 0.654258 0.218711 -0.517109 -0.156326 -0.595087 0.796166 0.338757 0.110643 -0.0477755 0.495847 -0.259362 -0.289404 0.285766 -0.0580396 -0.402094 0.464605 -0.452235 0.462724 -0.630779 -0.604156 -0.56698 0.208421 -0.375335 -0.360279 0.710941 -0.499279 -0.446012
internal_weight=0 3616 4384 1788 1828 2449 1935 1457 941 865 963 943 847 992 715 611 923 992 254 294 669 1163 747 463 337 705 617 487 198 132
internal_count=8000 3616 4384 1788 1828 2449 1935 1457 941 865 963 943 847 992 715 611 923 992 254 294 669 1163 747 463 337 705 617 487 198 132
is_linear=0
shrinkage=0.1


Tree=6
num_leaves=31
num_cat=0
split_feature=17 16 4 18 17 10 6 12 10 10 10 6 16 19 1 12 17 17 10 19 12 19 19 10 4 14 14 10 10 6
split_gain=100989 17933 8621.48 2633.6 2146.45 1744.9 892.122 786.128 510.71 463.311 455.097 317.936 221.915 190.225 245.138 183.614 169.014 120.144 116.931 110.56 105.911 104.299 92.3781 90.3554 81.1724 188.527 147.385 80.639 78.7289 76.185
threshold=0.064765320081799457 0.046505351959788811 0.2918862457600831 0.048451258367008872 0.030517785499667886 0.13318119979093604 0.034036633455093453 0.045398110622726008 0.048136291527538268 0.092629238764609309 0.067168007542708116 0.024316614237935189 0.033632417843437741 0.063037978363503347 0.049171616967769068 0.025296843807119999 0.019471145568203039 0.051308078465298841 0.042100823125973831 0.035392612935466312 0.071697673048697189 0.037381508515302315 0.018607798764597509 0.066717294258643076 0.38564074324630093 0.017390279118477823 0.021643203770721573 0.038147365618722902 0.10896966665503992 0.013371620472954262
decision_type=2 2 2 2 2 2 2 2 2 2 2 2 2 2 2 2 2 2 2 2 2 2 2 2 2 2 2 2 2 2
left_child=2 5 4 11 8 9 13 15 27 23 18 21 -7 14 -5 -4 -10 -12 -6 -13 -8 -3 -14 -2 26 -26 -9 -1 -11 -15
right_child=1 3 7 6 10 12 20 24 16 28 17 19 22 29 -16 -17 -18 -19 -20 -21 -22 -23 -24 -25 25 -27 -28 -29 -30 -31
leaf_value=0.60161141070309077 0.29902990435560545 -0.31578906949916091 0.42666385752814162 -0.38745889588247373 0.45708763290915577 -0.1023186729878614 -0.27173438627352808 0.53388821579689205 0.43298187330365184 0.03403901602831929 0.21752748966513771 -0.14853697465450474 -0.09047507033409441 -0.60939811862378201 -0.56848984073190134 0.62235438159254741 0.33613658295085852 0.12623236499430901 0.2931125964154907 -0.27824934273551516 -0.40476480628762923 -0.38789063989535183 -0.21859053659718486 0.12502589066342826 0.7084509556110089 0.92911231238394976 0.76433074083009389 0.48630087722788801 -0.025949944207327016 -0.54407043174632541
leaf_weight=150 35 400 69 157 56 418 98 42 434 343 316 98 67 510 169 304 357 276 278 228 209 512 431 203 90 127 328 181 600 514
leaf_count=150 35 400 69 157 56 418 98 42 434 343 316 98 67 510 169 304 357 276 278 228 209 512 431 203 90 127 328 181 600 514
internal_value=0 -0.275681 0.457724 -0.43695 0.341527 -0.0529414 -0.519519 0.704997 0.434581 0.0273975 0.22843 -0.326105 -0.156439 -0.554745 -0.482758 0.587392 0.389753 0.175249 0.321888 -0.23983 -0.363319 -0.356648 -0.20157 0.151759 0.778601 0.841263 0.739682 0.540211 -0.00411705 -0.577169
internal_weight=0 4992 3008 2895 2048 2097 1657 960 1122 1181 926 1238 916 1350 326 373 791 592 334 326 307 912 498 238 587 217 370 331 943 1024
internal_count=8000 4992 3008 2895 2048 2097 1657 960 1122 1181 926 1238 916 1350 326 373 791 592 334 326 307 912 498 238 587 217 370 331 943 1024
is_linear=0
shrinkage=0.1


Tree=7
num_leaves=31
num_cat=0
split_feature=17 16 17 12 10 19 17 6 12 10 10 10 16 17 6 15 15 2 19 10 9 12 4 18 6 6 1 19 19 6
split_gain=81950.5 10888.7 9876.28 1980.58 1711.27 1672.88 1662.44 445.799 430.47 404.958 398.679 282.206 178.749 171.441 133.149 121.725 114.476 189.654 109.59 83.8325 82.2931 79.7272 76.4046 70.5506 70.5232 70.1181 98.5499 242.069 66.8116 74.2163
threshold=0.077981359364241068 0.057179308240438438 0.018790169084351053 0.043390108336859252 0.14672196288205094 0.055004420287156137 0.047112417266916763 0.02468945149436386 0.025998537281837823 0.077963054694077119 0.037081901772415778 0.10378331352675978 0.040937622218389293 0.029710985271230454 0.018423382495524779 0.09691955298017059 0.026495741054439612 0.64109064657089931 0.019744668035907968 0.045939536159078732 0.19756152455596693 0.015916445916522474 0.1478550665518413 0.025764497139704527 0.21394212379274549 0.012314923599483609 0.063952108453077319 0.070469346634291899 0.065561544378803197 0.054069636252191751
decision_type=2 2 2 2 2 2 2 2 2 2 2 2 2 2 2 2 2 2 2 2 2 2 2 2 2 2 2 2 2 2
left_child=2 4 3 8 11 14 10 25 21 19 -4 22 -6 15 -3 24 -5 -18 -14 -8 -15 -1 -2 -16 -12 -7 27 -27 -9 -30
right_child=1 5 6 16 12 7 9 28 -10 -11 13 -13 18 20 23 -17 17 -19 -20 -21 -22 -23 -24 -25 -26 26 -28 -29 29 -31
leaf_value=0.3218313442035155 0.065994572356998266 -0.33940033641364009 0.49030046440087838 0.58756838639577225 -0.14633590509980529 -0.54515223362134857 0.39067109864333582 -0.29692137022561665 0.53519794233726714 0.072912742591785693 0.27581081759069387 -0.044254307693695642 -0.10346720398520121 0.22115939976221111 -0.11894790844337361 0.43104329110760436 0.67839395401319813 0.83665284519047711 -0.24446043530074149 0.20339218651866681 0.34387843847165217 0.42197344724671332 0.26844115512711658 -0.27375227944634034 0.40485067911315387 -0.34128429241040176 -0.55472913340660135 -0.51384731440905085 -0.43490131603819987 -0.29069107127077176
leaf_weight=131 181 668 103 113 411 574 28 78 446 634 290 841 63 414 36 94 380 128 597 202 67 338 20 243 56 135 176 250 251 52
leaf_count=131 181 668 103 113 411 574 28 78 446 634 290 841 63 414 36 94 380 128 597 202 67 338 20 243 56 135 176 250 251 52
internal_value=0 -0.276703 0.370074 0.558324 -0.110082 -0.419543 0.216707 -0.484837 0.463716 0.114356 0.302871 -0.0188052 -0.198787 0.281401 -0.314615 0.32718 0.696751 0.719836 -0.231179 0.227784 0.238931 0.394746 0.0873677 -0.254274 0.297802 -0.516761 -0.486793 -0.454379 -0.388635 -0.41119
internal_weight=0 4576 3424 1536 2113 2463 1888 1516 915 864 1024 1042 1071 921 947 440 621 508 660 230 481 469 201 279 346 1135 561 385 381 303
internal_count=8000 4576 3424 1536 2113 2463 1888 1516 915 864 1024 1042 1071 921 947 440 621 508 660 230 481 469 201 279 346 1135 561 385 381 303
is_linear=0
shrinkage=0.1


Tree=8
num_leaves=31
num_cat=0
split_feature=17 16 17 18 10 12 17 12 12 10 10 16 6 12 12 19 1 15 2 19 12 19 12 13 19 10 6 15 19 13
split_gain=66508.6 11773.8 5696.96 1732.06 1161.6 1024.23 943.775 604.383 360.353 288.475 262.713 230.135 224.914 194.72 127.73 112.761 211.664 96.1276 141.747 87.691 82.5875 76.3461 74.6842 68.0696 67.9719 65.7231 64.8975 64.3289 136.566 134.741
threshold=0.064765320081799457 0.046505351959788811 0.014641921970264067 0.048451258367008872 0.12548211508654744 0.043390108336859252 0.033904546285219751 0.10163293247439766 0.031692330716684765 0.060454703767733188 0.090232881527570627 0.03287893307927376 0.025315663924418533 0.029222507210193708 0.010514569378900497 0.063037978363503347 0.057764723265052782 0.026495741054439612 0.64109064657089931 0.045559337946819829 0.052472750420701104 0.038384782108861266 0.055020350498249611 0.0060237324985111815 0.023444463131494734 0.095878559884718176 0.020066710254851409 0.03559542167056224 0.15391269498467106 0.0046497953216573249
decision_type=2 2 2 2 2 2 2 2 2 2 2 2 2 2 2 2 2 2 2 2 2 2 2 2 2 2 2 2 2 2
left_child=2 4 5 12 10 13 8 22 14 -8 -2 -6 19 -1 -4 16 -9 23 -19 -3 -10 -14 -5 -7 -13 -11 -17 -15 -29 -30
right_child=1 3 6 7 11 17 9 15 20 25 -12 24 21 27 -16 26 -18 18 -20 -21 -22 -23 -24 -25 -26 -27 -28 28 29 -31
leaf_value=0.39107042198791309 0.13677233631565874 -0.2719580365733138 0.20161746963723629 -0.12785866632724979 -0.069622331759398304 0.40625042887621143 0.28096191854622121 -0.32569525327437965 0.4035734376961127 0.16131348832776504 0.009080206482924456 -0.089712525653568187 -0.11371204144699443 0.38747297736731445 0.31109840071738465 -0.48359688071281681 -0.50482681893013626 0.61451231527035355 0.75426697055185876 -0.35128011896972255 0.57433428019285204 -0.22352110010739731 -0.30862726232714871 0.60137167414029447 -0.17962300691480615 0.087489151087557449 -0.41789036039056815 0.46897381654594628 0.45486699168880779 0.73609826836669656
leaf_weight=337 201 757 137 27 568 42 194 194 132 433 797 109 100 54 644 774 110 365 126 190 47 191 282 59 422 173 270 174 35 56
leaf_count=337 201 757 137 27 568 42 194 194 132 433 797 109 100 54 644 774 110 365 126 190 47 191 282 59 422 173 270 174 35 56
internal_value=0 -0.22366 0.371518 -0.354331 -0.0431792 0.534948 0.255392 -0.421293 0.322294 0.174807 0.0349089 -0.114058 -0.264439 0.44733 0.292176 -0.450395 -0.391955 0.631121 0.651836 -0.288226 0.451352 -0.186305 -0.293295 0.52501 -0.16137 0.140417 -0.46702 0.505357 0.527832 0.634052
internal_weight=0 4992 3008 2895 2097 1248 1760 1657 960 800 998 1099 1238 656 781 1348 304 592 491 947 179 291 309 101 531 606 1044 319 265 91
internal_count=8000 4992 3008 2895 2097 1248 1760 1657 960 800 998 1099 1238 656 781 1348 304 592 491 947 179 291 309 101 531 606 1044 319 265 91
is_linear=0
shrinkage=0.1


Tree=9
num_leaves=31
num_cat=0
split_feature=10 17 10 7 12 18 10 6 10 2 12 10 6 17 16 18 6 6 12 6 19 12 10 19 1 9 19 19 11 16
split_gain=53958.1 6821.71 6675.71 1264.64 1188.99 1111.65 868.054 404.146 371.118 324.758 266.013 212.659 147.008 121.517 106.663 118.263 95.7799 89.8999 89.8987 82.8517 123.156 80.1699 79.899 77.3168 206.583 66.9603 63.1379 56.0017 55.721 106.669
threshold=0.10807382423292515 0.017865724075240511 0.18694851001583979 0.13171724786950692 0.043390108336859252 0.052228745390293492 0.14491782433934278 0.039469805469648074 0.044491940260780356 0.42329352581873997 0.025998537281837823 0.077963054694077119 0.012888035557743984 0.03584150765469641 0.038873757719308961 0.017225734979825994 0.083986372951043012 0.013371620472954262 0.063598682226416611 0.0314130203072659 0.049171438723521761 0.01000936231817884 0.026662738123854921 0.08750417858262606 0.057037144224292964 0.18979978861848626 0.073168827908257197 0.05811252662769479 0.15206463179266699 0.029280160206597686
decision_type=2 2 2 2 2 2 2 2 2 2 2 2 2 2 2 2 2 2 2 2 2 2 2 2 2 2 2 2 2 2
left_child=1 4 6 11 10 12 9 17 22 16 28 -3 -4 21 -8 -16 -2 27 -6 20 -14 -10 -5 24 26 -15 -19 -7 29 -1
right_child=2 3 5 8 18 7 14 -9 13 -11 -12 -13 19 25 15 -17 -18 23 -20 -21 -22 -23 -24 -25 -26 -27 -28 -29 -30 -31
leaf_value=0.10705504851648584 -0.049264093100828757 0.17179100976326617 -0.30708199114086904 0.48427054784735857 0.53287405664952081 -0.27987423847461573 -0.11069322763600697 -0.24509842234283852 0.17031905955778293 0.29664827678352595 0.43869552092989716 0.058934275580252986 -0.21897750030393187 0.11736409149791122 -0.09142184813260601 -0.20466060982335113 0.020376504738588767 -0.22268957944103965 0.6266024665668678 -0.14446439087137725 -0.32277579034210013 0.26182617321534579 0.32780200023423228 -0.44953413934123765 -0.41289396305176224 0.21629285831004383 -0.33816555840628487 -0.44469849977461334 0.3608103552890638 0.31314446629934706
leaf_weight=31 629 222 403 48 404 28 374 178 129 31 430 673 505 156 120 436 287 107 210 102 156 490 169 146 310 129 104 596 226 171
leaf_count=31 629 222 403 48 404 28 374 178 129 31 430 673 505 156 120 436 287 107 210 102 156 490 169 146 310 129 104 596 226 171
internal_value=0 0.295507 -0.228147 0.17587 0.459128 -0.330783 -0.0839637 -0.388791 0.246611 -0.016535 0.382152 0.0870883 -0.257429 0.217947 -0.152534 -0.180429 -0.027446 -0.408398 0.565898 -0.230835 -0.243925 0.243061 0.364475 -0.380313 -0.360092 0.162742 -0.280933 -0.437762 0.324454 0.2822
internal_weight=0 3488 4512 2016 1472 2635 1877 1469 1121 947 858 895 1166 904 930 556 916 1291 614 763 661 619 217 667 521 285 211 624 428 202
internal_count=8000 3488 4512 2016 1472 2635 1877 1469 1121 947 858 895 1166 904 930 556 916 1291 614 763 661 619 217 667 521 285 211 624 428 202
is_linear=0
shrinkage=0.1


Tree=10
num_leaves=31
num_cat=0
split_feature=17 16 17 19 10 12 17 6 10 12 10 6 17 11 6 1 19 15 19 11 19 13 12 19 6 2 11 18 6 1
split_gain=43814.9 7737.69 3777.03 1155.74 767.414 663.153 610.881 478.474 238.421 231.521 205.659 161.544 132.031 125.304 90.6113 90.378 158.952 83.2957 141.009 137.737 121.184 93.3652 79.7082 77.877 73.4508 83.8543 66.9831 71.1768 58.7688 58.0628
threshold=0.064765320081799457 0.046505351959788811 0.014641921970264067 0.055411435741648925 0.13723248044863642 0.043390108336859252 0.032331825670938209 0.035980794255629729 0.09422881862542877 0.034727853696620022 0.067168007542708116 0.020766037435340227 0.0094817360847168648 0.16620933767357526 0.013371620472954262 0.075468992631727363 0.068079395239755661 0.027945495922765299 0.18784969824349027 0.10231184543329815 0.21464451458746114 0.0060237324985111815 0.010514569378900497 0.031951165361916174 0.036603605043070038 0.21178381736044519 0.11380934355934784 0.1455400732396295 0.0095440152585390976 0.083021997564998742
decision_type=2 2 2 2 2 2 2 2 2 2 2 2 2 2 2 2 2 2 2 2 2 2 2 2 2 2 2 2 2 2
left_child=2 4 5 11 8 12 9 14 -2 22 -8 28 -1 -14 -5 16 -16 21 26 20 -20 -7 -4 -13 25 -6 -19 -28 -3 -25
right_child=1 3 6 7 24 17 10 -9 -10 -11 -12 23 13 -15 15 -17 -18 18 19 -21 -22 -23 -24 29 -26 -27 27 -29 -30 -31
leaf_value=0.40972369353064519 0.098118601003211972 -0.29413149933966382 0.16474738176604195 -0.3979115922056784 -0.11619821432622449 0.31945780281509673 0.21301817366181586 -0.22436178013682367 -0.0086065629631145949 0.3825843054076864 0.11046230172001344 -0.098419566275324777 0.27745867732973623 0.4266635870124087 -0.24030353170533419 -0.41001403992434587 -0.35937486345874531 0.35072832335717979 0.44531692646051707 0.70970993186288245 0.63924365604625033 0.50880644321441648 0.25651281857642727 -0.17895731107225712 -0.093400946677965488 -0.25661385163777706 0.42361128799278625 0.56908803003582553 -0.22734727807743638 -0.32687391023482049
leaf_weight=334 263 188 120 634 130 55 304 284 1010 143 560 122 242 80 178 165 357 49 94 78 67 69 633 315 629 65 87 93 622 30
leaf_count=334 263 188 120 634 130 55 304 284 1010 143 560 122 242 80 178 165 357 49 94 78 67 69 633 315 629 65 87 93 622 30
internal_value=0 -0.181487 0.301592 -0.28742 -0.0351759 0.434664 0.207039 -0.343638 0.0135024 0.264945 0.146751 -0.215976 0.364139 0.315734 -0.368844 -0.341987 -0.320281 0.512066 0.533367 0.591003 0.529467 0.428049 0.242127 -0.168353 -0.110304 -0.164074 0.470906 0.501503 -0.243191 -0.192727
internal_weight=0 4992 3008 2895 2097 1248 1760 1618 1273 896 864 1277 656 322 1334 700 535 592 468 239 161 124 753 467 824 195 229 180 810 345
internal_count=8000 4992 3008 2895 2097 1248 1760 1618 1273 896 864 1277 656 322 1334 700 535 592 468 239 161 124 753 467 824 195 229 180 810 345
is_linear=0
shrinkage=0.1


Tree=11
num_leaves=31
num_cat=0
split_feature=3 17 16 6 16 19 10 17 10 10 6 15 18 15 19 17 18 19 10 19 1 11 6 18 8 6 6 6 2 6
split_gain=35588.6 4945.66 4152.19 1214.36 713.744 660.712 632.601 216.003 211.233 176.49 173.033 121.23 174.64 172.777 149.198 115.301 114.2 111.33 100.407 74.9728 115.914 71.6991 125.323 71.1496 66.1316 62.9154 62.8133 61.1169 87.1558 69.7358
threshold=0.10592304225937411 0.024353759681661567 0.060660683171160253 0.2593331971342151 0.03287893307927376 0.055004420287156137 0.080678802447685452 0.056500927676413022 0.042100823125973831 0.05142440332156762 0.0211637504153569 0.044289292033179863 0.1685582116604869 0.031450073143918129 0.21760493246136386 0.0094817360847168648 0.020458840792343728 0.16181099690482428 0.10896966665503992 0.073168827908257197 0.071835650077001004 0.15206463179266699 0.2155354116495907 0.11780368776893348 0.0093522947348723701 0.0097684882759401254 0.061630910853450745 0.030908450154136239 0.20902336995992823 0.038490459128432193
decision_type=2 2 2 2 2 2 2 2 2 2 2 2 2 2 2 2 2 2 2 2 2 2 2 2 2 2 2 2 2 2
left_child=2 3 4 8 18 25 9 -8 -2 -3 -7 12 -5 14 -14 -10 -6 -13 -1 20 -12 23 -23 -17 -16 -4 -21 -18 -29 -30
right_child=1 6 5 11 16 10 7 -9 15 -11 19 17 13 -15 24 21 27 -19 -20 26 -22 22 -24 -25 -26 -27 -28 28 29 -31
leaf_value=0.034558847445754479 0.36966271482641927 0.25663912974091041 -0.26207041519880298 0.31028526014052948 -0.07704759518159196 -0.34605412049988526 0.1255021369055612 0.024505239878988432 0.33334726317425001 0.15053214985578522 -0.13653132955127575 0.3944356747211949 0.31258741379114652 0.53503296894597863 0.31900447607040405 0.070103742681782363 -0.1959587459924006 0.57485881292157703 -0.043599350487530823 -0.31830525187051989 -0.30522640908693344 0.24146351328075882 0.40567944022742186 0.21794400622970178 0.51425896707703089 -0.19560640308409236 -0.14011734378337862 -0.068059802734594152 -0.24399677532560685 -0.14117797977328195
leaf_weight=206 222 215 199 121 207 1035 319 628 172 610 93 61 123 167 29 43 315 134 800 241 76 446 54 151 101 642 24 132 84 350
leaf_count=206 222 215 199 121 207 1035 319 628 172 610 93 61 123 167 29 43 315 134 800 241 76 446 54 151 101 642 24 132 84 350
internal_value=0 0.233565 -0.190382 0.349123 -0.0883358 -0.282808 0.114486 0.0586229 0.281508 0.178461 -0.323389 0.448557 0.421634 0.4529 0.396793 0.258509 -0.144439 0.520719 -0.0275764 -0.268665 -0.213743 0.239509 0.259973 0.185703 0.47347 -0.211626 -0.302755 -0.160168 -0.139939 -0.161594
internal_weight=0 3596 4404 1824 2094 2310 1772 947 1088 825 1469 736 541 420 253 866 1088 195 1006 434 169 694 500 194 130 841 265 881 566 434
internal_count=8000 3596 4404 1824 2094 2310 1772 947 1088 825 1469 736 541 420 253 866 1088 195 1006 434 169 694 500 194 130 841 265 881 566 434
is_linear=0
shrinkage=0.1


Tree=12
num_leaves=31
num_cat=0
split_feature=10 17 16 6 10 16 19 17 10 10 7 15 19 18 19 17 9 6 1 19 6 0 11 12 14 16 9 10 11 18
split_gain=28872 4875.4 2500.16 979.525 679.434 436.228 401.534 189.774 171.16 149.444 132.017 109.456 173.775 108.639 96.868 93.5227 91.3477 71.5459 110.154 182.344 69.4306 64.7414 60.4787 69.3043 55.497 55.4006 77.9421 95.2172 54.7726 72.1583
threshold=0.12178505792772516 0.024353759681661567 0.0680540023921309 0.2593331971342151 0.080678802447685452 0.038873757719308961 0.055004420287156137 0.056500927676413022 0.042100823125973831 0.042100823125973831 0.055611383095096951 0.037951889537799328 0.20800073970056673 0.1685582116604869 0.025970248113258657 0.0094817360847168648 0.069151763119821644 0.011654865063658317 0.063952108453077319 0.086544884008421488 0.018747537487230684 0.011959828133016994 0.20069482831631602 0.027747782970037885 0.032999787754041783 0.056223509877422369 0.075630463664007427 0.062597913027010191 0.1309678999047888 0.12044261181382011
decision_type=2 2 2 2 2 2 2 2 2 2 2 2 2 2 2 2 2 2 2 2 2 2 2 2 2 2 2 2 2 2
left_child=1 3 5 8 9 -2 -4 -6 -1 -3 17 12 25 24 -7 28 -14 -8 19 20 21 -19 23 -17 -13 -5 -27 -28 -10 -30
right_child=2 4 6 11 7 14 10 -9 15 -11 -12 13 16 -15 -16 22 -18 18 -20 -21 -22 -23 -24 -25 -26 26 27 -29 29 -31
leaf_value=0.33286221389736537 -0.055523766228107667 0.26704963432705919 -0.19743020531711084 0.14271504353158748 0.11069091902223155 -0.077910763340343359 -0.32871996529485337 0.021184780918797899 0.21713675378311065 0.14314993526270617 -0.043325733461163266 0.23276080059056936 0.37486567571272261 0.54251373544335368 -0.16005098310318719 0.21669158473106595 0.5216263993006004 -0.15036281575759253 -0.32775876026720774 -0.33243106473339062 -0.15102570512607483 -0.27794298814360502 0.37385664296150212 0.063452516473603976 0.42292815553597535 0.23838402112809623 0.26248048512559191 0.50316814835134316 0.22846705941039894 0.40672405983360727
leaf_weight=222 900 114 630 25 316 171 525 940 61 712 21 21 152 99 1002 638 75 59 309 182 141 156 24 32 207 81 37 37 41 70
leaf_count=222 900 114 630 25 316 171 525 940 61 712 21 21 152 99 1002 638 75 59 309 182 141 156 24 32 207 81 37 37 41 70
internal_value=0 0.194766 -0.185243 0.314187 0.0901587 -0.107984 -0.26432 0.043774 0.253508 0.160552 -0.294408 0.403663 0.366056 0.449211 -0.148153 0.232805 0.42543 -0.298217 -0.278944 -0.250351 -0.207576 -0.243791 0.215692 0.209478 0.406506 0.289242 0.311809 0.387929 0.300205 0.343509
internal_weight=0 3904 4096 1822 2082 2073 2023 1256 1088 826 1393 734 407 327 1173 866 227 1372 847 538 356 215 694 670 228 180 155 74 172 111
internal_count=8000 3904 4096 1822 2082 2073 2023 1256 1088 826 1393 734 407 327 1173 866 227 1372 847 538 356 215 694 670 228 180 155 74 172 111
is_linear=0
shrinkage=0.1


Tree=13
num_leaves=31
num_cat=0
split_feature=4 7 16 7 10 19 10 10 12 6 17 1 19 12 13 1 9 18 10 19 18 6 2 2 6 2 19 9 10 17
split_gain=23509.9 3439.37 2595.93 644.839 612.755 435.087 426.816 155.062 126.32 121.485 112.474 83.9577 178.25 81.9913 98.584 72.4984 70.6976 110.769 69.9773 67.3724 67.2639 64.3687 88.5002 77.0006 59.718 60.9101 58.037 99.3731 54.7812 54.3465
threshold=0.11350218266380198 0.19959507938533058 0.060660683171160253 0.26782558546534829 0.079355290949449084 0.050092303362665298 0.15170628376205197 0.054509905234806928 0.015509772322752026 0.02468945149436386 0.056500927676413022 0.046552589116747985 0.067113257766705028 0.029222507210193708 0.0046497953216573249 0.075468992631727363 0.069151763119821644 0.1455400732396295 0.030875212541415984 0.082032902048977466 0.20899903445537121 0.030424012582869423 0.18781907193251693 0.20902336995992823 0.043643565304107408 0.22664134548740769 0.085381981004750876 0.15689739539549671 0.10896966665503992 0.010048912265202744
decision_type=2 2 2 2 2 2 2 2 2 2 2 2 2 2 2 2 2 2 2 2 2 2 2 2 2 2 2 2 2 2
left_child=2 4 6 8 7 -4 28 -2 -3 11 -6 12 -7 -5 -15 19 20 -18 -10 -11 -16 22 -8 -23 25 -25 -9 -28 -1 -20
right_child=1 3 5 13 10 9 21 26 18 15 -12 -13 -14 14 16 -17 17 -19 29 -21 -22 23 -24 24 -26 -27 27 -29 -30 -31
leaf_value=0.02459051290086911 0.20812852308840066 0.16668805274575091 -0.16526168843858863 0.19138370939800819 0.094698927772773153 -0.17168495724953359 -0.095979970552544036 0.10452735022949387 0.34318919172303547 -0.11959354939126923 0.022003492491470801 -0.30617140580244101 -0.28306686255167807 0.30275842016864873 0.26092045077281756 -0.25958273778700786 0.28948080536210913 0.44522001987353699 0.28100993216155085 -0.24115650496880214 0.39863887185073765 -0.044822272807115433 -0.19368461985582425 -0.12934120925664902 -0.094890383442895215 -0.26590738702327649 0.13567165935659684 0.31680222718339218 -0.036602026689720034 0.21703889945155788
leaf_weight=181 352 207 729 30 305 209 172 447 89 128 702 513 509 184 81 148 63 304 253 74 82 195 210 124 355 46 172 37 749 350
leaf_count=181 352 207 729 30 305 209 172 447 89 128 702 513 509 184 81 148 63 304 253 74 82 195 210 124 355 46 172 37 749 350
internal_value=0 0.186967 -0.157104 0.294319 0.0993322 -0.229608 -0.0746087 0.154418 0.236795 -0.259154 0.0440936 -0.27418 -0.250929 0.363416 0.370366 -0.205676 0.393223 0.419345 0.257495 -0.165095 0.33221 -0.116685 -0.150057 -0.0987953 -0.118719 -0.167633 0.125324 0.169094 -0.0246789 0.2443
internal_weight=0 3658 4342 1643 2015 2310 2032 1008 899 1581 1007 1231 718 744 714 350 530 367 692 202 163 1102 382 720 525 170 656 209 930 603
internal_count=8000 3658 4342 1643 2015 2310 2032 1008 899 1581 1007 1231 718 744 714 350 530 367 692 202 163 1102 382 720 525 170 656 209 930 603
is_linear=0
shrinkage=0.1


Tree=14
num_leaves=31
num_cat=0
split_feature=6 6 16 7 10 19 10 10 6 9 16 18 6 9 19 15 19 1 19 18 17 1 19 9 11 10 6 10 6 2
split_gain=19082.5 2561.68 2340.35 503.354 466.686 465.216 336.116 171.815 125.127 120.527 111.354 96.8644 83.871 74.2058 114.391 95.7341 101.169 72.6473 81.7818 71.7888 71.1445 67.7557 161.004 63.4321 62.1527 82.1451 59.5932 58.79 56.5984 60.4395
threshold=0.08897863033577165 0.19485619918430289 0.054490452671657592 0.26782558546534829 0.061452980439806383 0.050995784052525091 0.14179411723221236 0.098147268888442205 0.023529307937089742 0.11786682723520768 0.011400343384819435 0.11780368776893348 0.020766037435340227 0.092564248191643786 0.18784969824349027 0.031450073143918129 0.21760493246136386 0.086582639898678107 0.074960293522158564 0.1455400732396295 0.013579013486260035 0.042974741339372631 0.069298113334403458 0.10056428039373831 0.18263319617242404 0.060075635713294447 0.0077981119077253922 0.10378331352675978 0.030424012582869423 0.2161609364059304
decision_type=2 2 2 2 2 2 2 2 2 2 2 2 2 2 2 2 2 2 2 2 2 2 2 2 2 2 2 2 2 2
left_child=2 4 6 9 -2 12 27 10 21 11 -6 -3 -4 14 -5 16 -16 18 -10 -15 -11 22 26 -13 25 -22 -7 -1 -8 -30
right_child=1 3 5 13 7 8 28 -9 17 20 -12 23 -14 19 15 -17 -18 -19 -20 -21 24 -23 -24 -25 -26 -27 -28 -29 29 -31
leaf_value=0.037124748560383398 0.17198232672632241 0.087300772766335577 -0.15834075432081895 0.21987705317254252 0.063934688905880735 -0.23272833017202524 -0.13675276714918005 0.015792803556650598 -0.11544777224189602 0.29870058901416952 0.13896803215229381 0.14510954420300989 -0.085467204889594514 0.28089136506502443 0.22142476199660452 0.39911298865363715 0.35326793840281051 -0.24996948515822132 -0.21321398743907727 0.41801157342089762 0.089466070296133279 -0.27595861652201514 -0.26166991603302669 0.23619652479680539 0.28833556102636532 0.23708476636396802 -0.11528542461387557 -0.022765899724327028 -0.038136564807989354 -0.098863457645437358
leaf_weight=214 566 97 714 129 570 64 228 481 184 194 305 131 208 64 119 146 132 138 168 154 67 540 414 211 77 91 144 689 242 519
leaf_count=214 566 97 714 129 570 64 228 481 184 194 305 131 208 64 119 146 132 138 168 154 67 540 414 211 77 91 144 689 242 519
internal_value=0 0.173814 -0.137153 0.266754 0.0957655 -0.199201 -0.0526779 0.063849 -0.231015 0.214518 0.090218 0.176781 -0.142011 0.327327 0.305141 0.332224 0.291887 -0.187651 -0.162581 0.379223 0.252633 -0.249123 -0.22542 0.201831 0.213499 0.175443 -0.152362 -0.00854718 -0.0929218 -0.0796275
internal_weight=0 3534 4466 1612 1922 2574 1892 1356 1652 868 875 439 922 744 526 397 251 490 352 218 429 1162 622 342 235 158 208 903 989 761
internal_count=8000 3534 4466 1612 1922 2574 1892 1356 1652 868 875 439 922 744 526 397 251 490 352 218 429 1162 622 342 235 158 208 903 989 761
is_linear=0
shrinkage=0.1


Tree=15
num_leaves=31
num_cat=0
split_feature=10 17 16 12 10 16 19 18 15 19 12 10 9 17 10 18 6 1 19 18 11 10 6 1 12 6 19 11 2 17
split_gain=15496 2762.35 1282.74 632.24 305.071 222.583 198.222 119.435 95.3327 92.0929 89.0481 80.4639 76.4268 92.6364 91.1437 72.7132 72.0842 90.9554 143.411 68.075 68.0154 66.5347 58.8057 58.6906 134.881 80.2489 56.3603 105.053 55.4777 53.058
threshold=0.12410723490757357 0.028933306385331873 0.069198672191033025 0.032123278559892728 0.086763598479957751 0.040014424962614432 0.048276883250193477 0.1455400732396295 0.037951889537799328 0.20800073970056673 0.015509772322752026 0.030875212541415984 0.1046792964436717 0.0063856525008744456 0.038147365618722902 0.013972991422457228 0.0095440152585390976 0.062741353538435921 0.086544884008421488 0.076975260913288671 0.091933105213550012 0.061062826676941719 0.054069636252191751 0.086582639898678107 0.069712631832614183 0.028320335341324169 0.18784969824349027 0.12179247448884832 0.18211690289783936 0.0049948811845599026
decision_type=2 2 2 2 2 2 2 2 2 2 2 2 2 2 2 2 2 2 2 2 2 2 2 2 2 2 2 2 2 2
left_child=1 3 5 10 11 -2 -4 12 9 -9 -1 -3 29 -14 -15 -7 -8 18 -18 -6 -11 26 -19 25 -25 28 27 -10 -17 -5
right_child=2 4 6 7 19 15 16 8 21 20 -12 -13 13 14 -16 23 17 22 -20 -21 -22 -23 -24 24 -26 -27 -28 -29 -30 -31
leaf_value=0.12499971873962375 -0.043812991865356109 0.27259834519139042 -0.13826977767255474 0.20792501036976946 0.013652356292411464 -0.016280123708659233 -0.24938937154554186 0.21358318590640049 0.22665652521106458 0.28614169946393453 0.18843058445574651 0.095959542912693513 0.38089126185799138 0.25757444946467878 0.11029202911937447 -0.094704765764208068 -0.14940361647907571 -0.24972226808752335 -0.250739399703021 0.095500144283328439 0.43291326045989992 0.5186789371349193 -0.073133663494478571 -0.097258143913871387 -0.23119300224564296 -0.063251610869770977 0.41492706470086543 0.41167492425212499 -0.16316325570125198 0.006634062707424164
leaf_weight=339 864 26 471 28 1015 77 419 160 91 184 694 801 48 199 56 251 517 349 196 112 44 26 21 181 131 320 70 51 235 24
leaf_count=339 864 26 471 28 1015 77 419 160 91 184 694 801 48 199 56 251 517 349 196 112 44 26 21 181 131 320 70 51 235 24
internal_value=0 0.140496 -0.13783 0.222654 0.0557453 -0.0825546 -0.195443 0.280233 0.307062 0.274561 0.167755 0.101835 0.232193 0.25153 0.225787 -0.110505 -0.213268 -0.199076 -0.177572 0.0218638 0.316233 0.358676 -0.239924 -0.116974 -0.154053 -0.102448 0.33671 0.295521 -0.128074 0.1169
internal_weight=0 3968 4032 2014 1954 2059 1973 981 626 388 1033 827 355 303 255 1195 1502 1083 713 1127 228 238 370 1118 312 806 212 142 486 52
internal_count=8000 3968 4032 2014 1954 2059 1973 981 626 388 1033 827 355 303 255 1195 1502 1083 713 1127 228 238 370 1118 312 806 212 142 486 52
is_linear=0
shrinkage=0.1


Tree=16
num_leaves=31
num_cat=0
split_feature=6 6 16 10 18 12 10 10 18 15 9 11 19 6 1 19 14 18 18 11 11 19 13 6 12 6 1 10 17 9
split_gain=12622.7 1701.52 1533.35 334.379 313.845 300.45 220.852 112.178 107.322 106.626 98.1562 88.5845 82.8357 82.1611 82.4192 143.361 71.3993 67.159 66.9027 69.8818 64.1308 65.4126 62.0632 57.2824 59.8886 56.2077 55.7638 55.6872 53.9099 109.154
threshold=0.08897863033577165 0.20007682908328142 0.054490452671657592 0.077963054694077119 0.04256682637380161 0.029222507210193708 0.14179411723221236 0.050888855970986586 0.1455400732396295 0.039115584334973232 0.12382823332167496 0.12868454482151961 0.21760493246136386 0.028713523714291592 0.042336534398361388 0.069298113334403458 0.017390279118477823 0.099838236828053165 0.13193716706248174 0.1395102524935444 0.091933105213550012 0.18553902375223508 0.0061909200357196667 0.14797486605775054 0.010985363474028178 0.016771080122791496 0.086582639898678107 0.056804540067908478 0.010048912265202744 0.13376146443626433
decision_type=2 2 2 2 2 2 2 2 2 2 2 2 2 2 2 2 2 2 2 2 2 2 2 2 2 2 2 2 2 2
left_child=2 3 6 7 25 10 -1 -2 11 12 -3 -7 20 14 15 -6 -14 -9 19 -13 -10 -22 -23 -5 -25 -4 -15 -11 -21 -30
right_child=1 5 4 23 13 8 -8 17 9 27 -12 18 16 26 -16 -17 -18 -19 -20 28 21 22 -24 24 -26 -27 -28 -29 29 -31
leaf_value=-0.0073495223483357134 0.16827325804947088 0.13901231749260087 -0.13242531667650589 0.025540169553419589 -0.11913244816387775 0.074252472140664313 -0.075744002582505354 0.091747391294241074 0.13905722669918427 0.30746603648471571 0.25687730709069417 0.039778005272150044 0.24264956388664857 -0.10986610589388231 -0.22102681360426077 -0.20825053513182978 0.38839617164722129 0.2534737784829405 0.33316835728115762 0.27581503591858425 0.14345797864975882 0.31594039366186205 0.1415212270771635 0.06342372240656069 0.22699050729473436 -0.077984906424298561 -0.19591256635529655 0.44622548068332119 -0.0079935183127721153 0.22123504502803781
leaf_weight=903 324 433 442 766 310 45 989 732 87 180 86 24 87 225 685 451 66 26 51 103 50 110 28 141 26 343 118 42 26 101
leaf_count=903 324 433 442 766 310 45 989 732 87 180 86 24 87 225 685 451 66 26 51 103 50 110 28 141 26 343 118 42 26 101
internal_value=0 0.141414 -0.1115 0.081105 -0.161724 0.22131 -0.0431223 0.118914 0.253458 0.277944 0.158999 0.207321 0.247325 -0.184887 -0.195441 -0.172151 0.307634 0.0976214 0.226647 0.204037 0.212779 0.245978 0.281824 0.037178 0.0900888 -0.108767 -0.139952 0.335601 0.22093 0.174611
internal_weight=0 3534 4466 2015 2574 1519 1892 1082 1000 650 519 350 428 1789 1446 761 153 758 305 254 275 188 138 933 167 785 343 222 230 127
internal_count=8000 3534 4466 2015 2574 1519 1892 1082 1000 650 519 350 428 1789 1446 761 153 758 305 254 275 188 138 933 167 785 343 222 230 127
is_linear=0
shrinkage=0.1


Tree=17
num_leaves=31
num_cat=0
split_feature=10 17 6 19 6 10 19 15 9 18 15 10 6 10 19 8 10 15 12 0 19 6 1 18 6 1 10 9 19 6
split_gain=10281.6 1325.49 1280.71 415.075 284.559 148.704 147.331 132.722 103.32 114.512 139.856 100.266 96.3286 82.6594 81.7223 75.1355 81.7857 74.8432 74.211 71.163 67.9638 51.8888 87.895 108.446 51.8911 61.193 50.6184 60.1418 41.9063 61.2707
threshold=0.10719076756035846 0.014641921970264067 0.036603605043070038 0.0472062591326416 0.14406424548976279 0.15964981886752089 0.16181099690482428 0.044289292033179863 0.106900536656292 0.11909155956397328 0.070392912860355414 0.026662738123854921 0.13878208656660521 0.070446470793744012 0.18187422997002511 0.018118171711951795 0.062597913027010191 0.036806128832959008 0.01000936231817884 0.34832847564320307 0.031951165361916174 0.0077981119077253922 0.063952108453077319 0.083684274158286678 0.017734096205564102 0.041547345086886851 0.045262316717530594 0.10349804710781603 0.06742820684117691 0.068544876898534626
decision_type=2 2 2 2 2 2 2 2 2 2 2 2 2 2 2 2 2 2 2 2 2 2 2 2 2 2 2 2 2 2
left_child=1 6 3 20 13 12 8 14 -1 10 -10 -6 -4 -3 -8 19 17 -17 -13 -16 -2 -5 23 24 25 -23 27 -9 -7 -30
right_child=2 4 5 21 11 28 7 26 9 -11 -12 18 -14 -15 15 16 -18 -19 -20 -21 -22 22 -24 -25 -26 -27 -28 -29 29 -31
leaf_value=0.11126450977598629 -0.062799586533980947 0.094754341856205945 -0.018916598704032443 -0.21185179628813877 0.25112601450777483 -0.04713785012373356 0.13511857788544149 0.13441993944622851 0.10976194099549737 0.28116847241128035 0.2550703456456011 0.048786599099173385 0.1090311822579092 0.032232195410372304 0.078196607865393175 0.10066755230891432 0.38613093862004466 0.29270209404913822 0.12406242273988169 0.22731227545185134 -0.11337046731775097 -0.1146468604077362 -0.20265415815395468 -0.21465038896902749 -0.086643607161804304 -0.19053973930853385 0.39142319216550175 0.34002380563240303 -0.1388557370313197 -0.039784690055996184
leaf_weight=179 408 283 1158 311 55 269 95 26 174 131 109 156 61 836 39 31 63 67 878 221 788 262 424 183 220 188 76 37 173 99
leaf_count=179 408 283 1158 311 55 269 95 26 174 131 109 156 61 836 39 31 63 67 878 221 788 262 424 183 220 188 76 37 173 99
internal_value=0 0.130217 -0.0986137 -0.140814 0.0835953 -0.0318177 0.212568 0.245564 0.175771 0.203326 0.16643 0.119976 -0.0124298 0.0481148 0.221277 0.240352 0.295293 0.233587 0.112764 0.20533 -0.0961857 -0.174345 -0.165052 -0.146145 -0.127142 -0.146705 0.333499 0.258598 -0.0753996 -0.103075
internal_weight=0 3456 4544 2784 2208 1760 1248 655 593 414 283 1089 1219 1119 516 421 161 98 1034 260 1196 1588 1277 853 670 450 139 63 541 272
internal_count=8000 3456 4544 2784 2208 1760 1248 655 593 414 283 1089 1219 1119 516 421 161 98 1034 260 1196 1588 1277 853 670 450 139 63 541 272
is_linear=0
shrinkage=0.1


Tree=18
num_leaves=31
num_cat=0
split_feature=6 16 17 18 17 10 19 6 15 11 19 12 11 17 9 17 19 9 19 11 12 19 11 18 10 9 10 6 1 6
split_gain=8347.57 1247.18 914.025 240.173 184.464 133.087 120.077 117.923 108.343 89.7283 100.19 85.8746 76.6433 102.742 73.7636 89.2276 69.7481 74.108 66.3581 65.3322 67.0845 63.8215 63.662 62.3261 61.4777 58.978 57.5508 55.5091 53.26 70.9227
threshold=0.10021076736065017 0.046505351959788811 0.014641921970264067 0.042180069567667573 0.03584150765469641 0.12916414720721064 0.16181099690482428 0.039469805469648074 0.044289292033179863 0.1309678999047888 0.1500278075248144 0.066543003561933614 0.15206463179266699 0.0084137390105560889 0.16374016475299136 0.024353759681661567 0.089036612509633253 0.14941881104692942 0.18187422997002511 0.10739585994560803 0.037324539760935756 0.1065785205736773 0.22751527239944369 0.11909155956397328 0.045262316717530594 0.1355546063758826 0.05505384330973865 0.032572302323278686 0.084737074406779037 0.01410654550949675
decision_type=2 2 2 2 2 2 2 2 2 2 2 2 2 2 2 2 2 2 2 2 2 2 2 2 2 2 2 2 2 2
left_child=1 5 6 27 11 -1 9 28 18 -2 12 14 13 -11 16 -16 -4 21 -8 20 -20 -18 -17 25 -6 -14 -15 -3 29 -5
right_child=2 3 4 7 24 -7 8 -9 -10 10 -12 -13 23 26 15 22 17 -19 19 -21 -22 -23 -24 -25 -26 -27 -28 -29 -30 -31
leaf_value=0.0065480916037432757 0.066582963479462492 -0.091206684637074167 0.002573890786436273 -0.17040543547700338 0.14290267275785334 -0.046539993818828007 0.12174747003688634 -0.078702924148751185 0.30076737930732117 0.19386081841363703 0.31577262050927957 0.30837135971947149 0.14590547965897713 -0.073496087267994878 0.26737319073053423 0.091585520865944778 0.02826631642670396 0.17120590843866026 0.041237901140434241 0.32845861811418925 0.21268667379458553 0.10630625331095214 0.21486614372973381 0.34247768478734153 0.043355702578164679 0.26600118506762943 0.090428439824170967 0.0071208942951934964 -0.22503662195718177 -0.12683559965644897
leaf_weight=928 92 939 81 837 66 960 95 232 139 92 46 21 159 27 53 172 147 122 25 48 348 372 56 27 886 58 92 61 106 713
leaf_count=928 92 939 81 837 66 960 95 232 139 92 46 21 159 27 53 172 147 122 25 48 348 372 56 27 886 58 92 61 106 713
internal_value=0 -0.0836742 0.124553 -0.124981 0.08217 -0.0204562 0.191539 -0.145991 0.221325 0.158321 0.175001 0.111628 0.160108 0.115005 0.107206 0.150815 0.0900485 0.101081 0.199385 0.216574 0.201336 0.0842993 0.122671 0.198483 0.0503998 0.179078 0.052933 -0.0852076 -0.155365 -0.150458
internal_weight=0 4776 3224 2888 1976 1888 1248 1888 655 593 501 1024 455 211 1003 281 722 641 516 421 373 519 228 244 952 217 119 1000 1656 1550
internal_count=8000 4776 3224 2888 1976 1888 1248 1888 655 593 501 1024 455 211 1003 281 722 641 516 421 373 519 228 244 952 217 119 1000 1656 1550
is_linear=0
shrinkage=0.1


Tree=19
num_leaves=31
num_cat=0
split_feature=10 6 17 19 6 10 19 15 0 9 18 15 9 17 19 19 9 19 15 19 10 15 9 6 1 19 10 2 6 11
split_gain=6828.89 974.267 761.845 275.272 134.179 117.322 100.379 85.4039 79.5625 73.4473 84.0151 105.995 69.305 70.1561 59.8911 56.6695 56.4576 55.7352 56.1127 60.5665 58.412 64.256 55.413 54.628 50.9186 95.1773 47.7126 46.9103 49.8482 45.3844
threshold=0.1017816679561631 0.036603605043070038 0.014641921970264067 0.045559337946819829 0.14797486605775054 0.14179411723221236 0.16181099690482428 0.044289292033179863 0.2097652794367014 0.1046792964436717 0.11909155956397328 0.070392912860355414 0.16374016475299136 0.024353759681661567 0.092681800142732709 0.06742820684117691 0.14941881104692942 0.18187422997002511 0.031450073143918129 0.21760493246136386 0.062597913027010191 0.036806128832959008 0.059584819932578588 0.078032804262896896 0.057764723265052782 0.065260126539431432 0.067168007542708116 0.22057916135503355 0.02468945149436386 0.22313833357281004
decision_type=2 2 2 2 2 2 2 2 2 2 2 2 2 2 2 2 2 2 2 2 2 2 2 2 2 2 2 2 2 2
left_child=2 3 6 27 26 8 9 17 -3 -1 11 -11 14 -14 -6 -7 -16 -8 19 -19 21 -20 -21 -17 25 -5 -4 28 -2 -15
right_child=1 5 4 24 12 15 7 -9 -10 10 -12 -13 13 29 16 23 -18 18 20 22 -22 -23 -24 -25 -26 -27 -28 -29 -30 -31
leaf_value=0.082727360146311241 -0.086776053086655092 -0.0068766453105573808 0.083518441429450405 -0.087491731481794996 0.020182943243819935 -0.029683270446559815 0.10969954334432259 0.27090547645697372 0.11650757513263009 0.083531862417061037 0.22505364650984605 0.20900496706684035 0.24267374615777626 0.076391607838390524 0.081231070298479424 -0.11257230155762921 0.16487011808074184 0.11223146527309001 0.063097238969622244 0.11418882591458851 0.29928039994768124 0.23745834377101241 0.26788780408566948 -0.026336252576622528 -0.16447952327858689 -0.1495493472621853 0.034497786714810401 -0.19227256061824261 -0.040475835559011297 0.16305191356427315
leaf_weight=155 745 1049 272 394 129 523 95 139 54 180 149 109 54 136 477 213 98 122 32 38 87 67 72 113 580 690 740 33 342 113
leaf_count=155 745 1049 272 394 129 523 95 139 54 180 149 109 54 136 477 213 98 122 32 38 87 67 72 113 580 690 740 33 342 113
internal_value=0 -0.0764356 0.111531 -0.114404 0.0735339 -0.0222526 0.173042 0.200364 -0.000736015 0.142716 0.163708 0.131413 0.09938 0.139476 0.0819495 -0.0501728 0.0957476 0.18076 0.19661 0.16229 0.238321 0.182294 0.216299 -0.0828526 -0.140216 -0.127095 0.0477427 -0.0759638 -0.0722593 0.116214
internal_weight=0 4736 3264 2784 2019 1952 1245 652 1103 593 438 289 1007 303 704 849 575 513 418 232 186 99 110 326 1664 1084 1012 1120 1087 249
internal_count=8000 4736 3264 2784 2019 1952 1245 652 1103 593 438 289 1007 303 704 849 575 513 418 232 186 99 110 326 1664 1084 1012 1120 1087 249
is_linear=0
shrinkage=0.1


Tree=20
num_leaves=31
num_cat=0
split_feature=10 6 17 19 18 10 19 15 15 13 10 17 11 12 10 19 17 11 18 17 10 9 19 10 10 1 6 19 11 19
split_gain=5538.37 789.592 624.671 222.936 126.722 95.1581 70.2369 75.5948 72.0387 69.6533 67.0431 55.1574 56.4265 52.2397 50.3525 47.2978 58.4654 55.6586 46.2217 45.7973 60.1564 45.7706 77.9162 46.0399 45.1342 61.2198 101.773 44.6465 53.2575 43.6446
threshold=0.1017816679561631 0.036603605043070038 0.013579013486260035 0.045559337946819829 0.04683460429257897 0.14179411723221236 0.16181099690482428 0.053967101822401116 0.044289292033179863 0.020825399095968564 0.026662738123854921 0.0063856525008744456 0.15206463179266699 0.010985363474028178 0.046646709181862873 0.21760493246136386 0.0081529912096638141 0.084834807827511974 0.052641088159162693 0.0089405925294492889 0.061062826676941719 0.078099484593243049 0.18784969824349027 0.06205410531066561 0.33655030146354936 0.057764723265052782 0.0095440152585390976 0.14156813869787341 0.1309678999047888 0.073988237756367273
decision_type=2 2 2 2 2 2 2 2 2 2 2 2 2 2 2 2 2 2 2 2 2 2 2 2 2 2 2 2 2 2
left_child=2 3 6 -2 -4 9 7 27 15 -3 -6 -9 19 -12 -10 16 21 -17 -7 -13 -21 -8 23 -23 25 26 -5 -1 -29 -28
right_child=1 5 4 24 10 18 8 11 14 -11 13 12 -14 -15 -16 17 -18 -19 -20 20 -22 22 -24 -25 -26 -27 29 28 -30 -31
leaf_value=-0.034050839211070737 -0.06839591910826652 0.17973082957434514 0.03356184015019005 -0.14627611720225384 0.1922582196039066 -0.024587924729106213 0.11445331097227232 0.27575265036241431 0.18704303266774669 -0.0041463923621862589 0.032845218230765881 0.15738986949351702 0.17769034999746039 0.089029277471429372 0.31446839834243295 0.16407340081551902 0.067191159913811513 0.30958178790079227 -0.071689516572392184 -0.044517902284860612 0.14385145152437276 0.082986833970957949 0.27129372502734633 0.22207996282726528 -0.19462984413542647 -0.14805988101032203 -0.058615080149352232 0.053174773038675384 0.18481042274118711 -0.11431896658136675
leaf_weight=30 1120 20 708 393 56 479 115 36 75 1083 195 54 192 1154 63 77 78 44 370 40 28 64 80 39 93 580 365 89 47 233
leaf_count=30 1120 20 708 393 56 479 115 36 75 1083 195 54 192 1154 63 77 78 44 370 40 28 64 80 39 93 580 365 89 47 233
internal_value=0 -0.0688085 0.100468 -0.10299 0.068127 -0.0200304 0.159729 0.131723 0.182244 -0.000652484 0.0855087 0.15812 0.1438 0.0809381 0.247059 0.163787 0.145456 0.219089 -0.0451753 0.0894545 0.0340066 0.165648 0.197022 0.137282 -0.126219 -0.122048 -0.10669 0.0754554 0.0996834 -0.0804737
internal_weight=0 4736 3264 2784 2113 1952 1151 516 635 1103 1405 350 314 1349 138 497 376 121 849 122 68 298 183 103 1664 1571 991 166 136 598
internal_count=8000 4736 3264 2784 2113 1952 1151 516 635 1103 1405 350 314 1349 138 497 376 121 849 122 68 298 183 103 1664 1571 991 166 136 598
is_linear=0
shrinkage=0.1


Tree=21
num_leaves=31
num_cat=0
split_feature=6 17 16 16 16 17 9 17 11 19 1 19 11 18 1 6 1 6 9 10 19 17 11 18 11 19 17 11 8 19
split_gain=4517.06 618.42 540.7 129.246 111.508 94.1828 93.4914 89.7845 62.5986 62.3191 66.0557 60.6305 50.4435 85.0075 48.8238 90.4909 76.4773 62.5612 46.2765 44.465 44.2196 43.5523 60.8364 77.4319 59.3543 51.8908 43.6296 42.264 40.7336 64.5268
threshold=0.08897863033577165 0.019471145568203039 0.069198672191033025 0.034130744081429971 0.046505351959788811 0.049687420843478998 0.14190802013634926 0.010380159780040756 0.13312529138645901 0.062689778727123571 0.058401662265583749 0.026953640531064419 0.15206463179266699 0.11780368776893348 0.093088419907048317 0.052919759038835841 0.12394872288988425 0.040192866547115298 0.20455902479678806 0.063853297296201553 0.10764429934239901 0.03584150765469641 0.20510615116091449 0.069760275588422918 0.22751527239944369 0.1065785205736773 0.028219105066456338 0.18877632665105057 0.0093522947348723701 0.21464451458746114
decision_type=2 2 2 2 2 2 2 2 2 2 2 2 2 2 2 2 2 2 2 2 2 2 2 2 2 2 2 2 2 2
left_child=2 4 3 -1 6 18 7 -2 28 10 -4 -5 19 20 17 -16 -17 -13 21 -9 -14 22 25 24 26 27 -24 -3 -6 -30
right_child=1 5 9 11 8 -7 -8 12 -10 -11 -12 14 13 -15 15 16 -18 -19 -20 -21 -22 -23 23 -25 -26 -27 -28 -29 29 -31
leaf_value=-0.010503622935691992 0.13631496687610559 -0.054156382988777854 -0.070935891533353543 -0.011763460183375707 0.032832894208175797 0.023709584124034636 0.19405972587303558 -0.097446102262647064 0.30767049568480465 -0.12106187302712679 -0.14276661023672205 -0.064755839814313099 -0.0071222670818284406 0.23445271849632265 -0.16590354461073875 0.0062587148132782506 -0.12927028385708361 0.014321189216811907 0.14477312084134311 0.043549710882557491 0.091932552212383611 0.028517230296533809 0.12099510157975008 0.18674991383411729 0.16549456803197113 0.087084412278655252 0.0066490217583157337 0.04383717205055291 0.14157297555826598 0.21703035101028428
leaf_weight=1125 304 61 676 251 27 910 108 26 28 1135 159 712 58 35 124 95 73 116 72 130 199 282 48 90 53 194 105 151 500 153
leaf_count=1125 304 61 676 251 27 910 108 26 28 1135 159 712 58 35 124 95 73 116 72 130 199 282 48 90 53 194 105 151 500 153
internal_value=0 0.0847218 -0.0665732 -0.0356387 0.13155 0.0473258 0.107095 0.0943647 0.161061 -0.105729 -0.0847682 -0.0562411 0.0656583 0.0901249 -0.0661895 -0.101376 -0.0530483 -0.0536735 0.0676351 0.0195794 0.0696368 0.0618496 0.07518 0.109645 0.0752187 0.0498452 0.043075 0.015519 0.154582 0.159558
internal_weight=0 3534 4466 2496 1568 1966 860 752 708 1970 835 1371 448 292 1120 292 168 828 1056 156 257 984 702 296 206 406 153 212 680 653
internal_count=8000 3534 4466 2496 1568 1966 860 752 708 1970 835 1371 448 292 1120 292 168 828 1056 156 257 984 702 296 206 406 153 212 680 653
is_linear=0
shrinkage=0.1


Tree=22
num_leaves=31
num_cat=0
split_feature=10 6 18 6 10 19 19 9 9 19 16 16 1 19 6 15 16 9 18 17 2 6 19 19 9 19 10 12 12 12
split_gain=3678.13 617.541 379.808 132.243 105.636 104.409 88.4135 75.1524 70.6697 93.443 68.0501 52.1805 47.8648 63.1326 53.3554 47.1529 51.0539 60.7335 60.4569 43.2764 42.7017 49.3328 52.2428 41.0091 40.1896 81.4223 50.6533 71.0814 39.2923 37.7602
threshold=0.095878559884718176 0.028320335341324169 0.11909155956397328 0.063820724377823282 0.05218708867710279 0.039267476341854464 0.073988237756367273 0.36411911084346177 0.11110616951232803 0.15391269498467106 0.090791506563475274 0.0086726286779014745 0.052326488060504668 0.069298113334403458 0.0075552507607198347 0.06808365022811784 0.021247252891234695 0.15689739539549671 0.076975260913288671 0.021606182113075471 0.27216806504552477 0.078032804262896896 0.069298113334403458 0.03377740850827133 0.092564248191643786 0.16960809203849272 0.049391055223588477 0.019001029151105745 0.012176545986266609 0.025296843807119999
decision_type=2 2 2 2 2 2 2 2 2 2 2 2 2 2 2 2 2 2 2 2 2 2 2 2 2 2 2 2 2 2
left_child=2 5 4 6 -1 -2 7 23 9 -4 20 -6 13 14 -7 -13 17 -17 28 -18 -5 22 -22 -3 25 -11 -26 -28 -19 -30
right_child=1 3 8 10 11 12 -8 -9 -10 24 -12 15 -14 -15 -16 16 19 18 -20 -21 21 -23 -24 -25 26 -27 27 -29 29 -31
leaf_value=0.097093531003527023 -0.053240574074102209 -0.020036911676878801 0.058968263552657198 0.05061760147433042 0.025506597554161455 -0.11939014743100729 -0.10733537292480469 0.020420641423605678 0.20166655666673453 0.0016893223688310506 0.18254523674647016 0.0119403562635522 -0.12429720828637142 -0.11573729458888611 -0.050570188253440278 0.027250327322060081 0.2010242343355309 -0.020793025982048779 0.2149870118579349 0.074015132107224588 -0.027807294889116443 0.0061766283815738073 -0.17029117940571803 -0.061430310240714305 0.12678784483140057 0.13842894081460408 0.070970742730423808 0.27426723886281251 0.13426035969728992 0.045433720568665764
leaf_weight=585 579 428 174 151 646 150 174 228 143 48 20 142 641 508 458 253 54 35 36 56 235 814 28 546 100 471 23 79 105 90
leaf_count=585 579 428 174 151 646 150 174 228 143 48 20 142 641 508 458 253 54 35 36 56 235 814 28 546 100 471 23 79 105 90
internal_value=0 -0.0528268 0.0868487 -0.019522 0.0613459 -0.0902132 -0.04089 -0.0311903 0.13593 0.125213 0.00405149 0.0465297 -0.10236 -0.0896597 -0.067717 0.0640885 0.0758235 0.0624877 0.0957754 0.137614 0.00099826 -0.00599909 -0.0435643 -0.0432802 0.141096 0.12581 0.179558 0.22956 0.0762663 0.0937044
internal_weight=0 4960 3040 2624 2002 2336 1376 1202 1038 895 1248 1417 1757 1116 608 771 629 519 266 110 1228 1077 263 974 721 519 202 102 230 195
internal_count=8000 4960 3040 2624 2002 2336 1376 1202 1038 895 1248 1417 1757 1116 608 771 629 519 266 110 1228 1077 263 974 721 519 202 102 230 195
is_linear=0
shrinkage=0.1


Tree=23
num_leaves=31
num_cat=0
split_feature=10 17 16 16 10 11 16 9 17 11 10 11 19 6 1 19 17 6 2 6 2 2 18 2 6 12 2 11 10 19
split_gain=2986.9 548.128 247.754 105.599 82.8628 73.3341 53.2952 53.0056 69.5151 60.3869 67.6412 54.8888 69.7665 47.1721 64.1968 75.6378 46.7908 45.7493 74.1554 56.7771 75.5098 48.3273 47.127 43.6989 50.034 40.6139 38.5188 38.1892 60.8292 58.0993
threshold=0.12410723490757357 0.024353759681661567 0.07203783151161626 0.059262799293766884 0.09422881862542877 0.10739585994560803 0.065063435281678086 0.16374016475299136 0.010048912265202744 0.11989728941345369 0.066155436560806843 0.15206463179266699 0.13468661370709958 0.0095440152585390976 0.069737630835871714 0.086544884008421488 0.0054433627949943561 0.060766106494911883 0.24430615719865037 0.034036633455093453 0.20416179282328542 0.2566894500038836 0.039866908165671518 0.14395659255908658 0.02639993956280107 0.048989726694358283 0.21178381736044519 0.091933105213550012 0.058765169929977941 0.21464451458746114
decision_type=2 2 2 2 2 2 2 2 2 2 2 2 2 2 2 2 2 2 2 2 2 2 2 2 2 2 2 2 2 2
left_child=1 3 17 7 -3 6 -5 8 9 16 -11 -10 -13 -4 15 23 -1 18 19 20 -2 -19 -20 -15 -25 -23 -21 29 -29 -8
right_child=2 4 13 5 -6 -7 27 -9 11 10 -12 12 -14 14 -16 -17 -18 21 22 26 -22 25 -24 24 -26 -27 -28 28 -30 -31
leaf_value=0.099643658527306153 -0.040394287527075808 0.044755899068543971 -0.11078584059471452 0.017493943068320337 0.0050987286503164208 0.21329257309428484 0.025686464057071135 0.1838832126659426 0.01920063319148042 0.11989141364581885 0.28115422013376296 0.068994272713346669 0.1897529146721903 -0.028863601101598635 -0.12345728432123043 -0.12027072862369344 -0.031385104970799556 0.072863178156682709 -0.068556187111992864 0.025271416686713524 -0.11584743614558404 -0.010392282364902077 -0.18332465435459949 -0.086082489877630328 0.015327045519370586 -0.10089075716963986 -0.030398645462185139 0.04794085336228212 0.21440989425405863 0.13994215261191131
leaf_weight=69 707 1212 576 45 932 111 63 54 200 334 28 541 52 410 236 205 44 60 102 171 163 384 56 403 55 56 448 29 99 155
leaf_count=69 707 1212 576 45 932 111 63 54 200 334 28 541 52 410 236 205 44 60 102 171 163 384 56 403 55 56 448 29 99 155
internal_value=0 0.0618287 -0.0603667 0.102111 0.0275273 0.141248 0.120303 0.0871538 0.0828928 0.113193 0.133105 0.0646236 0.0798852 -0.0868189 -0.0761963 -0.0656962 0.0487958 -0.0371128 -0.0451524 -0.0381882 -0.0546477 -0.0105931 -0.110131 -0.0526835 -0.0738976 -0.0221129 -0.0150037 0.133585 0.177358 0.107191
internal_weight=0 3968 4032 1824 2144 502 391 1322 1268 475 362 793 593 1885 1309 1073 113 2147 1647 1489 870 500 158 868 458 440 619 346 128 218
internal_count=8000 3968 4032 1824 2144 502 391 1322 1268 475 362 793 593 1885 1309 1073 113 2147 1647 1489 870 500 158 868 458 440 619 346 128 218
is_linear=0
shrinkage=0.1


Tree=24
num_leaves=31
num_cat=0
split_feature=6 6 18 10 19 19 6 9 6 17 11 15 18 14 12 14 16 11 10 10 17 1 19 6 2 2 6 10 2 2
split_gain=2435.67 370.173 277.881 93.3386 91.8879 74.3454 53.4132 58.5455 43.8841 63.5309 76.2639 49.1879 49.9844 47.2533 43.5551 41.6499 59.5916 59.0294 42.7726 41.436 41.2922 37.5262 45.2326 45.6579 36.6957 35.5304 48.405 43.0798 39.3265 35.3503
threshold=0.10021076736065017 0.028320335341324169 0.11909155956397328 0.053350863593826771 0.073988237756367273 0.039267476341854464 0.063820724377823282 0.36206678708324869 0.32900195877198207 0.0089405925294492889 0.14120730714854335 0.053967101822401116 0.13193716706248174 0.017390279118477823 0.013662286057403107 0.021643203770721573 0.065605581141957067 0.11380934355934784 0.058765169929977941 0.062597913027010191 0.0061468650631897334 0.055409049655814176 0.069684086431120409 0.00689428410868942 0.18781907193251693 0.33453645624722789 0.11220121877773777 0.10558127838580041 0.35222793898047555 0.27216806504552477
decision_type=2 2 2 2 2 2 2 2 2 2 2 2 2 2 2 2 2 2 2 2 2 2 2 2 2 2 2 2 2 2
left_child=1 5 3 -2 6 24 7 -3 9 11 19 12 -4 -10 -12 -14 17 20 -19 -11 -17 22 23 -7 -1 -5 27 28 -27 -8
right_child=2 4 8 25 -6 21 29 -9 13 10 14 -13 15 -15 -16 16 -18 18 -20 -21 -22 -23 -24 -25 -26 26 -28 -29 -30 -31
leaf_value=-0.029298135091516155 0.078009630520099113 -0.035946172226804525 -0.013827166085441909 0.10335327157222514 -0.070286299008876091 -0.10552017467625037 0.057356518425894759 0.018366541095686507 0.10332451837855471 -0.086776670248344026 0.051000515786839319 0.18803103619151645 0.024612033367156984 0.21605646608246343 0.16169698163462076 0.080645601238523212 0.17953196821639139 0.10154845426797637 0.20711092993231683 0.042639814509654095 -0.047480555559907642 -0.10501388056952371 -0.095951983073338104 -0.042455537719863726 -0.091151994642358833 0.0393005604756477 0.036562193602660296 -0.091384548878466546 -0.074976358443964275 -0.00031958985033755504
leaf_weight=458 635 952 32 66 293 147 121 250 82 28 60 89 47 73 91 90 136 128 57 169 34 570 513 527 121 121 1193 54 39 824
leaf_count=458 635 952 32 66 293 147 121 250 82 28 60 89 47 73 91 90 136 128 57 169 34 570 513 527 121 121 1193 54 39 824
internal_value=0 -0.0451039 0.0673736 0.0459761 -0.0178521 -0.0735491 -0.0106671 -0.024644 0.107714 0.0995346 0.0650986 0.118946 0.106876 0.157462 0.118337 0.114739 0.124182 0.0993197 0.135012 0.0239002 0.0454154 -0.0837974 -0.0735293 -0.0563459 -0.0423593 0.0321231 0.0287107 -0.0150257 0.0111529 0.00711822
internal_weight=0 4776 3224 2108 2440 2336 2147 1202 1116 961 348 613 524 155 151 492 445 309 185 197 124 1757 1187 674 579 1473 1407 214 160 945
internal_count=8000 4776 3224 2108 2440 2336 2147 1202 1116 961 348 613 524 155 151 492 445 309 185 197 124 1757 1187 674 579 1473 1407 214 160 945
is_linear=0
shrinkage=0.1


Tree=25
num_leaves=31
num_cat=0
split_feature=6 17 18 16 11 6 19 19 19 1 6 1 11 17 9 17 11 11 8 10 10 12 1 19 2 15 17 11 16 6
split_gain=1992.41 345.01 210.177 86.3539 58.1684 56.7788 56.109 45.5332 41.842 40.6845 68.5381 56.0253 40.1141 59.6815 58.8084 40.9421 47.4056 46.2024 47.8063 43.8415 42.3541 40.099 39.4862 50.5859 39.2336 36.9834 34.0599 33.9104 33.5562 32.467
threshold=0.078032804262896896 0.028933306385331873 0.037197303651498433 0.059262799293766884 0.10739585994560803 0.015285441733668638 0.018607798764597509 0.20800073970056673 0.074960293522158564 0.067901454498810923 0.048253893440666558 0.10210599648107867 0.20331170776141663 0.016425696124220516 0.14190802013634926 0.0094817360847168648 0.11989728941345369 0.15206463179266699 0.039915942525776162 0.066155436560806843 0.06205410531066561 0.06413061357293158 0.037183113327482371 0.069684086431120409 0.28067241611804344 0.071554711353802078 0.0054433627949943561 0.091933105213550012 0.02253737754616281 0.036603605043070038
decision_type=2 2 2 2 2 2 2 2 2 2 2 2 2 2 2 2 2 2 2 2 2 2 2 2 2 2 2 2 2 2
left_child=2 3 6 12 7 22 -1 -5 9 -7 11 -11 13 14 15 16 26 18 -17 -18 25 -3 23 -4 -12 28 -2 -9 -19 -8
right_child=1 21 5 4 -6 8 29 27 -10 10 24 -13 -14 -15 -16 17 19 20 -20 -21 -22 -23 -24 -25 -26 -27 -28 -29 -30 -31
leaf_value=0.017687704323632075 0.07922952611265438 0.017698934256859235 -0.028431837896842067 0.054265927696159399 0.18022029396080602 -0.015095687207699354 -0.043067118311432534 0.10321696612630338 -0.081049173703459418 -0.073583427664771314 0.0033226584769272937 -0.22425120296301665 0.12021743797332696 0.034962887128661434 0.17930516383864664 0.037664260756787214 0.10246172729207843 -0.092405926465988164 -0.087638409550373386 0.25397842015538896 0.15345900245664412 0.095999466760686658 -0.10448517578604416 -0.093041142843422492 -0.11644201339913707 0.098153521933338872 -0.034066641659930695 0.19331425330519938 0.045837478317572913 -0.013609332098015365
leaf_weight=295 69 1761 217 151 112 349 839 186 396 336 188 26 137 484 54 138 304 24 38 20 56 67 525 277 31 87 42 56 58 677
leaf_count=295 69 1761 217 151 112 349 839 186 396 336 188 26 137 484 54 138 304 24 38 20 56 67 525 277 31 87 42 56 58 677
internal_value=0 0.0520983 -0.0477752 0.080617 0.11647 -0.0675334 -0.0221677 0.0978906 -0.0538135 -0.0421418 -0.0583343 -0.0849928 0.0685653 0.0633314 0.0787023 0.0719975 0.0932697 0.0487472 0.010268 0.112567 0.0786679 0.0206197 -0.0853165 -0.0647749 -0.0140826 0.0531281 0.0364393 0.124776 0.00475016 -0.0299298
internal_weight=0 3844 4156 2016 505 2345 1811 393 1326 930 581 362 1511 1374 890 836 435 401 176 324 225 1828 1019 494 219 169 111 242 82 1516
internal_count=8000 3844 4156 2016 505 2345 1811 393 1326 930 581 362 1511 1374 890 836 435 401 176 324 225 1828 1019 494 219 169 111 242 82 1516
is_linear=0
shrinkage=0.1


Tree=26
num_leaves=31
num_cat=0
split_feature=10 6 19 19 9 19 10 9 19 9 9 18 19 9 1 6 18 9 10 16 9 19 17 2 1 18 11 10 15 19
split_gain=1636.08 275.111 169.163 79.1563 61.3489 71.9557 59.1286 49.5923 59.8533 69.1664 55.8633 57.1239 48.9789 48.8575 38.9696 53.3148 43.0282 38.3821 36.9067 38.8826 36.5007 61.6005 37.4563 32.1183 31.3221 30.53 36.8065 29.824 55.1828 32.9023
threshold=0.095878559884718176 0.036603605043070038 0.13967140306223605 0.037381508515302315 0.10349804710781603 0.16181099690482428 0.030875212541415984 0.11264367403187224 0.10764429934239901 0.1355546063758826 0.14190802013634926 0.076975260913288671 0.11412514104269796 0.15689739539549671 0.083021997564998742 0.01410654550949675 0.097318713728494224 0.062598128290424618 0.040973867241947827 0.042344366175474775 0.16988576481300974 0.071192909518765571 0.027193999713561599 0.21178381736044519 0.045152440925050892 0.11909155956397328 0.16178770350674487 0.045939536159078732 0.044289292033179863 0.2267667214157042
decision_type=2 2 2 2 2 2 2 2 2 2 2 2 2 2 2 2 2 2 2 2 2 2 2 2 2 2 2 2 2 2
left_child=2 3 6 23 5 -4 -1 -8 10 12 -9 20 -10 -13 15 24 -17 -3 -6 -20 22 -22 -12 -2 -5 26 -14 -7 29 -29
right_child=1 17 4 14 18 27 7 8 9 -11 11 13 25 -15 -16 16 -18 -19 19 -21 21 -23 -24 -25 -26 -27 -28 28 -30 -31
leaf_value=0.11314006929730509 -0.019569865376062125 0.11223464542999864 0.016945517620984087 -0.06449639121406521 0.08912199248450918 -0.0093471913977905552 -0.034205911404729547 -0.041503176799196073 -0.032203361564981089 0.15528049926922127 0.028697070491674182 0.057840510722445816 0.025466266132396043 0.17444188861797255 -0.1131442335608881 -0.039727770429596021 -0.13260280669860122 -0.010009209829763763 0.14636908759211384 0.29168062290320029 0.024344652739762215 0.092083514392699892 -0.065767160702783323 -0.10298842842876912 -0.10201318882470581 0.15166672273539006 0.099432169047317331 0.07680703017294678 0.17695198904400991 0.15055539663881065
leaf_weight=110 616 25 146 637 76 26 90 97 55 83 90 151 157 47 159 920 52 2151 85 25 817 160 77 49 351 39 118 440 80 71
leaf_count=110 616 25 146 637 76 26 90 97 55 83 90 151 157 47 159 920 52 2151 85 25 817 160 77 49 351 39 118 440 80 71
internal_value=0 -0.0351992 0.0579562 -0.056015 0.0929657 0.0802142 0.0420303 0.0380267 0.0414807 0.0732074 0.0314713 0.0367728 0.0543767 0.0862561 -0.0654612 -0.0615373 -0.0448276 -0.00855384 0.144566 0.181725 0.0281406 0.0355208 -0.0149905 -0.0258619 -0.0779144 0.0695961 0.0574496 0.0951337 0.0997382 0.0873279
internal_weight=0 4960 3040 2784 949 763 2091 1981 1891 452 1439 1342 369 198 2119 1960 972 2176 186 110 1144 977 167 665 988 314 275 617 591 511
internal_count=8000 4960 3040 2784 949 763 2091 1981 1891 452 1439 1342 369 198 2119 1960 972 2176 186 110 1144 977 167 665 988 314 275 617 591 511
is_linear=0
shrinkage=0.1


Tree=27
num_leaves=31
num_cat=0
split_feature=10 17 6 19 17 11 18 11 7 10 14 2 6 10 15 1 19 9 16 16 6 2 6 19 4 2 6 2 15 9
split_gain=1331.89 247.214 125.152 47.1929 44.7322 55.6516 43.4832 54.6332 43.1516 41.0379 53.6509 40.889 75.2377 40.6994 40.4969 35.1386 33.1351 41.4646 32.7474 32.5618 32.2526 31.8864 36.2538 42.0566 34.862 31.8732 52.6844 55.3858 30.1319 28.883
threshold=0.12410723490757357 0.021606182113075471 0.017734096205564102 0.073988237756367273 0.010380159780040756 0.18263319617242404 0.093533388554178767 0.1696906223045935 0.33993621736472351 0.067168007542708116 0.09432616871515144 0.18706773980287808 0.033215381505062209 0.056236049534106693 0.067228347877725345 0.091091047388865767 0.084888612785031639 0.16988576481300974 0.019744372055785945 0.017094825025599506 0.12746671070320129 0.162031688810538 0.00689428410868942 0.076874835525059984 0.0073903380986226628 0.2161609364059304 0.049981440179612376 0.23792045835033473 0.022904891367853179 0.11264367403187224
decision_type=2 2 2 2 2 2 2 2 2 2 2 2 2 2 2 2 2 2 2 2 2 2 2 2 2 2 2 2 2 2
left_child=1 4 21 11 -1 6 -6 8 13 10 -3 -4 15 14 -8 -13 17 -12 -11 -7 -5 22 -2 24 -24 -14 27 -27 -10 -15
right_child=2 9 3 20 5 19 7 -9 28 18 16 12 25 29 -16 -17 -18 -19 -20 -21 -22 -23 23 -25 -26 26 -28 -29 -30 -31
leaf_value=0.086176471290679249 -0.085419737915181981 -0.066810593842750496 0.006067092973550404 -0.05886912698086532 -0.023378012163771524 0.077546377276245623 -0.13751265643923372 0.12620562548150444 0.034402801380271006 0.006064063598094591 -0.032143696532226526 -0.050710239827202346 0.020583367858599461 0.016435877223178977 0.0098148218676692156 -0.13447067365050316 0.12680983147942101 0.053659720187088256 0.045965020637765218 0.18251093541356653 0.062832170530505813 -0.085721265622844545 0.041042464155526391 -0.080562643306877679 -0.037589174621907827 -0.031103341991411605 -0.0015199323980523911 -0.13058913172765946 0.14917716594343935 0.075954493934208223
leaf_weight=864 270 41 477 489 89 100 26 83 41 1442 64 397 224 199 60 57 51 435 239 43 22 435 62 220 549 256 503 71 53 138
leaf_count=864 270 41 477 489 89 100 26 83 41 1442 64 397 224 199 60 57 51 435 239 43 22 435 62 220 549 256 503 71 53 138
internal_value=0 0.0413228 -0.0402751 -0.0264371 0.0702026 0.0535307 0.0416354 0.0513019 0.0390564 0.0197433 0.0423891 -0.0194424 -0.0275101 0.0253083 -0.0357947 -0.0614988 0.050636 0.0426126 0.011761 0.110157 -0.0535171 -0.06273 -0.0535766 -0.0431403 -0.0295562 -0.0128254 -0.0218556 -0.0530365 0.100005 0.0409611
internal_weight=0 3968 4032 2496 1696 832 689 600 517 2272 591 1985 1508 423 86 454 550 499 1681 143 511 1536 1101 831 611 1054 830 327 94 337
internal_count=8000 3968 4032 2496 1696 832 689 600 517 2272 591 1985 1508 423 86 454 550 499 1681 143 511 1536 1101 831 611 1054 830 327 94 337
is_linear=0
shrinkage=0.1


Tree=28
num_leaves=31
num_cat=0
split_feature=6 17 18 16 11 19 2 10 19 6 1 6 1 12 1 19 6 11 19 9 19 5 6 9 16 17 12 9 16 11
split_gain=1094.07 194.927 121.566 52.7637 47.8905 48.6729 44.4024 41.4902 34.5584 41.3086 45.0769 34.9059 43.7252 80.7927 43.3527 32.8387 32.0214 31.4616 39.5135 50.7199 53.8453 34.1249 31.4025 30.9187 51.7636 33.0951 46.6006 35.3478 58.9496 34.5456
threshold=0.074569012791828662 0.028933306385331873 0.034037294853991824 0.059262799293766884 0.10231184543329815 0.20398077318798297 0.28876347456116519 0.13723248044863642 0.08750417858262606 0.011351773733713212 0.040561395397488938 0.039469805469648074 0.10484469699692446 0.056558007706206566 0.075468992631727363 0.018607798764597509 0.02639993956280107 0.20734199440164916 0.092681800142732709 0.14190802013634926 0.10764429934239901 0.38742274028279272 0.17552196373098269 0.12977013401928461 0.02253737754616281 0.0073941817378050121 0.034727853696620022 0.11676011901890261 0.029280160206597686 0.1309678999047888
decision_type=2 2 2 2 2 2 2 2 2 2 2 2 2 2 2 2 2 2 2 2 2 2 2 2 2 2 2 2 2 2
left_child=2 3 15 17 5 -5 -3 -8 9 -4 -11 14 -13 -14 16 -1 -12 18 21 20 -20 22 -2 24 -22 29 27 -27 -29 -26
right_child=1 6 8 4 -6 -7 7 -9 -10 10 11 12 13 -15 -16 -17 -18 -19 19 -21 23 -23 -24 -25 25 26 -28 28 -30 -31
leaf_value=0.016770106554395172 -0.018487045278444008 0.088361419384851106 -0.066264485581195062 0.0025970696989032959 0.1333403751454493 0.088305873919027653 0.015784893569226337 -0.044342815835119752 -0.08536120128033485 -0.00036147480134811111 -0.054367091253638748 0.013841202095941162 -0.021237149850418004 -0.17576064192468213 -0.089147432819251193 -0.020797251771695707 -0.0045196535306749868 0.10472278614537885 -0.032199089718318877 0.10185969758326607 -0.067285880210196103 -0.10486667933208603 0.10172047214582564 0.092124856026427546 0.048905807475951552 0.025215451363162746 -0.046339080287859991 0.04660159777551412 0.18804554916918279 0.12051975384842013
leaf_weight=287 67 78 686 89 157 259 1721 122 243 279 498 197 176 41 268 1214 174 98 86 172 40 27 31 148 189 328 64 116 39 106
leaf_count=287 67 78 686 89 157 259 1721 122 243 279 498 197 176 41 268 1214 174 98 86 172 40 27 31 148 189 328 64 116 39 106
internal_value=0 0.0377431 -0.0362188 0.0594568 0.0874724 0.0664563 0.0149365 0.0117828 -0.0494554 -0.0456578 -0.0369659 -0.0445027 -0.0202418 -0.0511051 -0.0551549 -0.0136078 -0.0414861 0.0500419 0.046178 0.0513841 0.0435204 -0.00744707 0.0201812 0.0498678 0.0426807 0.0479784 0.0333176 0.0439465 0.083168 0.0749585
internal_weight=0 3937 4063 2016 505 348 1921 1843 2562 2319 1633 1354 414 217 940 1501 672 1511 1413 1288 1116 125 98 1030 882 842 547 483 155 295
internal_count=8000 3937 4063 2016 505 348 1921 1843 2562 2319 1633 1354 414 217 940 1501 672 1511 1413 1288 1116 125 98 1030 882 842 547 483 155 295
is_linear=0
shrinkage=0.1


Tree=29
num_leaves=31
num_cat=0
split_feature=10 6 19 9 11 16 10 12 7 1 6 19 6 2 6 2 2 10 15 19 11 10 15 19 14 12 9 10 2 17
split_gain=896.089 154.91 97.4895 75.6438 47.729 52.0124 42.1037 39.158 36.7405 35.741 39.2528 35.1963 34.9856 43.1295 48.0519 47.3406 42.6257 33.0559 32.4463 45.3064 34.9277 37.8986 49.3296 43.5308 56.5985 32.271 32.1037 37.0464 30.5296 29.8664
threshold=0.095878559884718176 0.025315663924418533 0.14600145912027454 0.10349804710781603 0.14120730714854335 0.0086726286779014745 0.045939536159078732 0.010985363474028178 0.24259365049762174 0.070285471184827322 0.01410654550949675 0.094944269341249346 0.06299496998942046 0.2161609364059304 0.044470107882824579 0.26001149225371262 0.26835482454231213 0.040973867241947827 0.044289292033179863 0.18187422997002511 0.10520268940493983 0.058765169929977941 0.034254580286141152 0.21760493246136386 0.017390279118477823 0.064721697213767707 0.16988576481300974 0.070446470793744012 0.23605356654535495 0.0054433627949943561
decision_type=2 2 2 2 2 2 2 2 2 2 2 2 2 2 2 2 2 2 2 2 2 2 2 2 2 2 2 2 2 2
left_child=2 9 4 6 -1 26 -4 -7 -8 10 -2 -12 13 -3 28 -16 -14 -5 19 29 21 -21 23 -23 -25 -18 -6 -28 -15 -10
right_child=1 12 3 17 5 7 8 -9 18 -11 11 -13 16 14 15 -17 25 -19 -20 20 -22 22 -24 24 -26 -27 27 -29 -30 -31
leaf_value=-0.046860398838296541 -0.053217085865267279 -0.0036121653702318388 -0.049765428687062338 0.090813652916500967 -0.080120823319469181 -0.0012279306642050225 -0.048385238514414862 0.052348101845710586 0.050974862513077618 -0.079402961598669886 -0.017075283536859186 -0.095195515742081974 0.054534316726494586 -0.05851607633319994 -0.0053233093846870895 -0.081741985574131842 -0.0070206036074397463 0.19954279210355322 0.11154463613509305 -0.051823420037648504 0.13848703426175885 0.0208280117175309 0.17900165323470091 0.038095100608694817 0.1745896603596131 0.11527611747892066 0.040071774743412024 -0.0050728571329250183 -0.15976887685911997 -0.045405378882757953
leaf_weight=74 1105 750 33 59 34 154 27 1191 67 283 694 62 135 224 429 99 1124 58 143 27 69 159 36 68 55 21 370 356 34 60
leaf_count=74 1105 750 33 59 34 154 27 1191 67 283 694 62 135 224 429 99 1124 58 143 27 69 159 36 68 55 21 370 356 34 60
internal_value=0 -0.0260336 0.0429081 0.07139 0.0316264 0.0344065 0.059485 0.0462174 0.0646185 -0.0462812 -0.0412045 -0.0235993 -0.0106068 -0.0207768 -0.0371299 -0.0197792 0.00160387 0.145948 0.0691433 0.0577504 0.073745 0.0604337 0.0700976 0.0556115 0.100045 -0.00467897 0.0134709 0.0179582 -0.0724248 0.00544189
internal_weight=0 4960 3040 861 2179 2105 744 1345 711 2144 1861 756 2816 1536 786 528 1280 117 684 541 414 345 318 282 123 1145 760 726 258 127
internal_count=8000 4960 3040 861 2179 2105 744 1345 711 2144 1861 756 2816 1536 786 528 1280 117 684 541 414 345 318 282 123 1145 760 726 258 127
is_linear=0
shrinkage=0.1


Tree=30
num_leaves=31
num_cat=0
split_feature=6 17 18 4 10 2 19 10 9 12 19 11 19 11 7 18 19 11 11 17 19 11 10 10 10 9 16 6 19 1
split_gain=732.845 122.772 96.903 42.7069 36.4879 31.4973 31.2309 27.7929 27.3785 26.8677 26.6643 44.4509 48.5118 37.272 32.6257 28.4649 25.7399 79.265 34.8656 35.0609 31.7197 31.6654 51.4269 28.4216 27.7789 26.5405 25.6026 25.4053 29.4067 40.2757
threshold=0.080104923093511096 0.010746834152827347 0.037197303651498433 0.41024703115770073 0.089504933643692206 0.2995324017666991 0.018607798764597509 0.028701181242020011 0.12708368478078139 0.037324539760935756 0.14156813869787341 0.13312529138645901 0.16181099690482428 0.14120730714854335 0.27166072490583687 0.12044261181382011 0.18784969824349027 0.10231184543329815 0.11135291435290991 0.0073941817378050121 0.19801518076803598 0.091933105213550012 0.062597913027010191 0.068170179488275542 0.057496192116895335 0.067346750998203406 0.059262799293766884 0.0044712205776145106 0.082032902048977466 0.037183113327482371
decision_type=2 2 2 2 2 2 2 2 2 2 2 2 2 2 2 2 2 2 2 2 2 2 2 2 2 2 2 2 2 2
left_child=2 8 6 4 7 -6 -1 -3 10 -7 13 12 -12 -2 -14 -15 18 20 -16 24 -18 23 -23 -22 26 -25 -20 -4 29 -29
right_child=1 3 27 -5 5 9 -8 -9 -10 -11 11 -13 14 15 16 -17 17 -19 19 -21 21 22 -24 25 -26 -27 -28 28 -30 -31
leaf_value=0.018269411867465373 -0.072245093106346969 0.084906646278908565 -0.092163445954163051 0.10704452114115502 0.060238779453630813 0.004424480519770675 -0.017032917313134152 0.025939020650550287 0.13131246467056717 -0.056984340849642962 -0.007156048342585564 0.14000072566008098 0.18498696411649387 0.017352871631125085 -0.015951633894851863 0.13907163211932549 -0.031736508031954637 0.17195190297145593 0.028262704794035583 -0.044593708848823674 -0.0590317341654251 -0.0058703888080675502 0.18148102757210535 0.021704768055033956 0.18788366249452038 0.1248758056087465 0.14937448129057884 -0.0062373678530692174 -0.064966383106075234 -0.042091462869703652
leaf_weight=298 33 83 96 57 92 822 1551 1755 57 77 95 75 23 75 77 25 36 75 60 22 23 21 47 65 23 40 24 397 384 1492
leaf_count=298 33 83 96 57 92 822 1551 1755 57 77 95 75 23 75 77 25 36 75 60 22 23 21 47 65 23 40 24 397 384 1492
internal_value=0 0.0321134 -0.0285019 0.0220604 0.0203109 0.00483748 -0.0113365 0.0286466 0.0644333 -0.000892701 0.0597387 0.0674712 0.0586426 0.0184951 0.0702963 0.0488582 0.0648043 0.0831549 0.037187 0.0687842 0.0538341 0.0696325 0.124376 0.0398113 0.0922925 0.0618153 0.0642163 -0.041889 -0.0397261 -0.0345635
internal_weight=0 3782 4218 2886 2829 991 1849 1838 896 899 839 706 631 133 536 100 513 307 206 129 232 196 68 128 107 105 84 2369 2273 1889
internal_count=8000 3782 4218 2886 2829 991 1849 1838 896 899 839 706 631 133 536 100 513 307 206 129 232 196 68 128 107 105 84 2369 2273 1889
is_linear=0
shrinkage=0.1


Tree=31
num_leaves=31
num_cat=0
split_feature=6 18 18 10 2 9 19 10 6 2 6 1 5 6 1 19 1 6 15 17 14 18 11 17 11 19 9 19 6 4
split_gain=599.634 114.042 73.6512 45.9086 43.5637 31.1281 45.1487 33.1448 29.9336 24.9183 42.8765 55.8824 29.5297 24.8365 29.3572 26.5684 33.4597 28.9505 22.6434 32.461 44.0511 25.6205 37.9514 27.5635 36.0361 33.052 31.2399 21.7446 24.9845 23.998
threshold=0.071486979101987938 0.11909155956397328 0.034037294853991824 0.067168007542708116 0.28876347456116519 0.1046792964436717 0.16181099690482428 0.049391055223588477 0.079247324228227625 0.27001450907683339 0.056361122620849476 0.10210599648107867 0.17487798316766182 0.017425411451059029 0.046552589116747985 0.10092642860958757 0.062741353538435921 0.046571138260168794 0.067228347877725345 0.014217694968688939 0.073443245353507977 0.098641662033169888 0.17719998095613429 0.019471145568203039 0.19151287961872307 0.091697549160789552 0.16374016475299136 0.076423179653346177 0.0051241757118708495 0.0073903380986226628
decision_type=2 2 2 2 2 2 2 2 2 2 2 2 2 2 2 2 2 2 2 2 2 2 2 2 2 2 2 2 2 2
left_child=2 3 -1 18 -5 6 7 -3 -6 10 11 13 -12 14 27 16 -15 -18 -2 -20 -21 22 -22 -24 -25 26 -26 28 -4 -30
right_child=1 5 9 4 8 -7 -8 -9 -10 -11 12 -13 -14 15 -16 -17 17 -19 19 20 21 -23 23 24 25 -27 -28 -29 29 -31
leaf_value=-0.0094867785865673966 -0.0062910329113065296 -0.11716460175715232 -0.071053490183855358 0.058927319215837159 -0.049913961188506016 0.084815249268422307 0.057143177684584427 0.016268314724140687 0.0057634586520556325 -0.10933090067992453 0.095120866037905219 -0.13265426699367783 -0.0093876694185966881 0.0022574919338746642 -0.067282550250158904 -0.095655362570987029 -0.044555574009641719 0.022470099312832226 0.082041193482016661 -0.11278793182933616 -0.056287483997801514 0.14069589652459732 0.084334010333539211 -0.051228142758974665 -0.035405723801390697 0.12477852965776737 0.037835754694130558 -0.059514772851424806 0.03635676530697806 -0.02464706853599892
leaf_weight=1451 131 20 94 147 102 260 673 163 1544 47 35 62 108 366 439 50 516 73 142 20 46 21 103 51 65 38 506 253 76 398
leaf_count=1451 131 20 94 147 102 260 673 163 1544 47 35 62 108 366 439 50 516 73 142 20 46 21 103 51 65 38 506 253 76 398
internal_value=0 0.027311 -0.0274394 0.0168963 0.00695911 0.0544842 0.0451833 0.00112797 0.00228501 -0.0377809 -0.0363757 -0.0396415 0.0166743 -0.0370381 -0.0463964 -0.0252707 -0.0214895 -0.0362245 0.0327419 0.0378976 0.0304353 0.034018 0.0310786 0.0364125 0.0288176 0.035594 0.029451 -0.03516 -0.0242263 -0.0148099
internal_weight=0 4032 3968 2916 1793 1116 856 183 1646 2517 2470 2327 143 2265 1260 1005 955 589 1123 992 850 830 809 763 660 609 571 821 568 474
internal_count=8000 4032 3968 2916 1793 1116 856 183 1646 2517 2470 2327 143 2265 1260 1005 955 589 1123 992 850 830 809 763 660 609 571 821 568 474
is_linear=0
shrinkage=0.1


Tree=32
num_leaves=31
num_cat=0
split_feature=10 6 16 2 6 12 10 11 16 17 15 12 10 9 16 9 18 2 17 14 9 17 12 0 19 17 10 9 19 17
split_gain=490.986 98.6389 54.9506 37.1828 42.5149 31.6126 30.2831 32.4188 35.1725 31.9092 61.0865 38.464 62.7237 27.9043 29.8416 26.5186 29.3763 25.1571 32.0724 43.048 40.0525 34.2964 29.0103 24.787 24.1934 24.0407 31.7215 23.421 28.1275 27.5105
threshold=0.093554915702589683 0.031969883205625667 0.0086726286779014745 0.20287251836213563 0.016429565856797671 0.012884803630726529 0.065792664454460706 0.093891823106228248 0.080210343333840931 0.0063856525008744456 0.053967101822401116 0.068394604482806112 0.055466539460975607 0.106900536656292 0.065063435281678086 0.16988576481300974 0.06087165836956155 0.44545127535054385 0.018790169084351053 0.084329085718266736 0.13899663692453718 0.012777482393461439 0.019001029151105745 0.38604405406976322 0.099882433880893642 0.019954887418135146 0.023796179768829005 0.092564248191643786 0.15391269498467106 0.0049948811845599026
decision_type=2 2 2 2 2 2 2 2 2 2 2 2 2 2 2 2 2 2 2 2 2 2 2 2 2 2 2 2 2 2
left_child=2 3 15 4 -2 -4 7 -7 9 13 11 12 -11 14 27 -1 -17 -12 20 -20 21 -19 -23 -3 -22 -21 -27 29 -29 -9
right_child=1 23 5 -5 -6 6 -8 8 -10 10 17 -13 -14 -15 -16 16 -18 18 19 25 24 22 -24 -25 -26 26 -28 28 -30 -31
leaf_value=-0.076099756950778627 -0.040170703037522626 -0.0055967377275338145 0.0077503760807386794 -0.074573628447997642 -0.012865765249376696 -0.08778327902158102 0.061966440016355651 0.033085639661146422 0.16630577359880722 -0.18750180563438335 0.077843392003435374 0.056357166479373805 -0.0087144012348009999 0.12767910190990991 0.12953791786462834 0.0080559306261706477 0.096330325864255439 0.046125323966696184 -0.12082463737045016 0.11316521613016016 0.03909145812585689 0.036351485821333802 -0.060754393203782724 0.096525741772105308 0.12718767070186299 0.10701914617548819 -0.020535810913133903 -0.0076559935809998982 0.093664741842076182 -0.085872741467480015
leaf_weight=34 1404 2473 261 194 962 20 676 58 20 31 120 28 51 55 38 661 39 251 27 20 56 54 69 23 73 22 127 40 85 28
leaf_count=34 1404 2473 261 194 962 20 676 58 20 31 120 28 51 55 38 661 39 251 27 20 56 54 69 23 73 22 127 40 85 28
internal_value=0 -0.0187663 0.032596 -0.0325542 -0.0290788 0.040467 0.044842 0.0357069 0.0377465 0.0355281 0.026276 -0.0434131 -0.0777495 0.063623 0.04902 0.00887449 0.0131045 0.0356774 0.0283378 -0.00595819 0.0416869 0.0249869 -0.0181732 -0.00461743 0.0895392 0.012996 -0.00111429 0.0339765 0.0614387 -0.00618686
internal_weight=0 5056 2944 2560 2366 2210 1949 1273 1253 1233 929 110 82 304 249 734 700 819 699 196 503 374 123 2496 129 169 149 211 125 86
internal_count=8000 5056 2944 2560 2366 2210 1949 1273 1253 1233 929 110 82 304 249 734 700 819 699 196 503 374 123 2496 129 169 149 211 125 86
is_linear=0
shrinkage=0.1


Tree=33
num_leaves=31
num_cat=0
split_feature=6 6 17 2 19 2 6 2 7 1 1 7 6 10 16 10 10 2 10 6 16 11 19 11 17 19 14 10 11 16
split_gain=403.231 65.5488 59.3995 38.7864 37.3448 33.5188 44.6911 36.1337 30.7983 26.7835 26.4932 34.4056 25.3844 25.3967 24.9457 22.72 21.5528 21.1999 20.9053 20.8575 20.1197 33.0268 44.4693 43.8191 36.0194 29.4012 55.8163 36.4184 35.3848 28.6529
threshold=0.095879014796234799 0.02468945149436386 0.010380159780040756 0.32434191584485356 0.068363325986290871 0.33102802822024918 0.11220121877773777 0.34265182122939725 0.10278975593355717 0.070285471184827322 0.19483685531368775 0.12189093851591039 0.0077981119077253922 0.33655030146354936 0.099058162250932238 0.084407982444838228 0.028701181242020011 0.29624954184443092 0.10647149160711354 0.080104923093511096 0.086906072159663297 0.091933105213550012 0.18784969824349027 0.11380934355934784 0.0061468650631897334 0.15869554153425494 0.043216313395743729 0.056804540067908478 0.13312529138645901 0.038423623818143467
decision_type=2 2 2 2 2 2 2 2 2 2 2 2 2 2 2 2 2 2 2 2 2 2 2 2 2 2 2 2 2 2
left_child=1 9 20 4 15 -4 7 8 -7 12 -8 -12 -1 -14 16 -3 -13 19 -9 -6 21 -2 23 24 -23 28 27 -27 -25 -30
right_child=2 3 5 -5 17 6 10 18 -10 -11 11 14 13 -15 -16 -17 -18 -19 -20 -21 -22 22 -24 25 -26 26 -28 -29 29 -31
leaf_value=-0.050458057795487982 -0.0039046073530231958 0.068686730301250595 0.07170826086545723 -0.088925566627033825 -0.033575640258606564 -0.069517735156841814 0.07739817374845806 -0.037978337392772371 0.035668199340532711 -0.061383826016465685 -0.060536577450638673 0.068803556642473437 -0.01819390234916345 -0.073660803793675525 0.11853767341146103 -0.0023806973530791243 0.017538975269575454 -0.10532294404938032 -0.13582563501383579 0.054965040074854067 0.14408261769197203 0.018373017798044854 0.0999695801063748 -0.021008586331650064 -0.11244306700496838 0.027969842632546239 0.21512221735099268 0.14916924675378729 0.038486552693553874 0.12875789271836932
leaf_weight=384 112 45 113 57 335 35 80 106 122 269 52 85 1372 87 25 2038 1839 37 27 28 21 76 165 80 28 94 28 33 184 43
leaf_count=384 112 45 113 57 335 35 80 106 122 269 52 85 1372 87 25 2038 1839 37 27 28 21 76 165 80 28 94 28 33 184 43
internal_value=0 -0.0189135 0.0265908 -0.00808423 -0.00619338 0.018722 0.0161675 -0.0205576 0.0119275 -0.0319273 0.0212928 0.0190122 -0.0275969 -0.0215496 0.0211645 -0.000813173 0.0198383 -0.0341389 -0.0587075 -0.0266138 0.0491659 0.0466335 0.0543715 0.0409259 -0.0175822 0.054106 0.0895348 0.0603819 0.0359859 0.0560761
internal_weight=0 4652 3348 2540 2483 2484 2371 290 157 2112 2081 2001 1843 1459 1949 2083 1924 400 133 363 864 843 731 566 104 462 155 127 307 227
internal_count=8000 4652 3348 2540 2483 2484 2371 290 157 2112 2081 2001 1843 1459 1949 2083 1924 400 133 363 864 843 731 566 104 462 155 127 307 227
is_linear=0
shrinkage=0.1


Tree=34
num_leaves=31
num_cat=0
split_feature=10 16 6 10 19 2 6 6 2 6 2 1 2 8 19 9 17 10 2 16 18 9 14 18 15 10 8 12 9 2
split_gain=333.932 60.5373 39.8593 33.0067 24.6113 34.669 38.8661 33.9925 24.4826 46.5208 25.2617 25.2601 23.9237 22.7351 34.4841 24.5674 45.0891 27.7078 22.5343 48.7299 29.8076 35.5349 22.4157 27.5699 21.4544 38.7842 23.9743 39.6583 33.8615 29.9991
threshold=0.12064480842380444 0.019744372055785945 0.018423382495524779 0.05803607351312743 0.073988237756367273 0.19018771129967929 0.033215381505062209 0.13878208656660521 0.22472661823232479 0.049981440179612376 0.24430615719865037 0.11177873061708722 0.16059868297806781 0.0093522947348723701 0.2267667214157042 0.12851826411917147 0.0094817360847168648 0.042875588505881808 0.46648242351228492 0.015495372543268051 0.069316236760967667 0.16374016475299136 0.025498804874651147 0.1908645202841345 0.027945495922765299 0.065792664454460706 0.018118171711951795 0.034018966512717692 0.089060103013802863 0.60849460634264596
decision_type=2 2 2 2 2 2 2 2 2 2 2 2 2 2 2 2 2 2 2 2 2 2 2 2 2 2 2 2 2 2
left_child=1 3 12 18 5 -4 -7 -6 -8 10 -10 -11 -2 -3 15 16 24 -18 20 -20 -1 -22 -19 -24 -15 -26 29 28 -28 -27
right_child=2 13 4 -5 7 6 8 -9 9 11 -12 -13 -14 14 -16 -17 17 22 19 -21 21 -23 23 -25 25 26 27 -29 -30 -31
leaf_value=0.028077850216732415 -0.023848261827000266 -0.052724182477285123 0.015995586518058554 0.0030986024010673536 -0.036579699163052322 -0.041439214292273839 0.017245272191704353 0.093506142195491568 -0.038593085081981761 0.039890359907224782 -0.13007496172008481 -0.010986497299667199 -0.05041116165489673 -0.015426098744802434 0.10669361625469345 0.057625148573254972 -0.093706495259647027 -0.080162570625543605 -0.099382111116459504 0.032283526583126297 0.056832870920499171 0.19827374393741293 0.01002036165068204 0.12725782011236464 0.0346812714049324 -0.045606948240943579 -0.021671229536118716 0.2105248445432101 0.15500014059777772 0.087393126806327659
leaf_weight=290 1110 28 499 1638 494 392 345 20 174 124 36 444 490 57 67 342 26 25 37 107 74 23 455 20 519 22 22 34 20 66
leaf_count=290 1110 28 499 1638 494 392 345 20 174 124 36 444 490 57 67 342 26 25 37 107 74 23 455 20 519 22 22 34 20 66
internal_value=0 0.0212162 -0.0196611 0.0101292 -0.0118361 -0.00684378 -0.014372 -0.0313463 -0.00489537 -0.0147231 -0.0548178 0.000171008 -0.0320096 0.0353227 0.0368251 0.0338494 0.0273862 0.00498557 0.0317703 -0.00199931 0.0443085 0.0920514 0.0102944 0.0152137 0.0432805 0.0481953 0.0904928 0.131493 0.0641062 0.0540043
internal_weight=0 3872 4128 2169 2528 2014 1515 514 1123 778 210 568 1600 1703 1675 1608 1266 526 531 144 387 97 500 475 740 683 164 76 42 88
